"Date","AAP","ADS","AN","ARES","AWI","BAC","BRK","CHEF","CHRW","CHTR","CMPR","CPRT","CVET","DNOW","DSWL","FFH","FL","FWONK","GLIBA","GRUB","HBI","HEI","IBKR","IBM","INWK","JEF","LB","LBTYK","LTRPA","MCO","MNRO","MSM","RAVN","RBA","RCII","RUE","SAM","SAVE","SD","SNE","SPB","ST","TAP","TRIP","VMI","WFC","XPO","XRAY","Y"
2012-10-01,0.0365283449290372,0.0077492498995968,0.0167163735615468,NA,0.117101576819098,0.0554926387315968,0.0304114490161003,-0.0531134953060741,0.0295322454922415,0.0313083674742438,-0.107759964406444,0.0382257482870536,NA,NA,-0.0471014492753623,NA,-0.0563380281690141,NA,0.146454492086293,NA,0.0498745294855709,-0.00155078831739452,0.0164051355206847,-0.0622800587459155,0.105990783410138,-0.00219781830398003,-0.0278115926841898,-0.00442399590953801,NA,0.0903328544411526,-0.0360898276808703,0.10584048481827,-0.0727148827726809,0.169526781071243,-0.0485160088893833,-0.0333868057784911,-0.0392069211466738,0.0351288056206089,NA,0.00341880341880341,0.0379596363259498,-0.0537453812562982,-0.0423973372341252,-0.0801700273307014,0.0273764714828897,-0.0243266731632398,0.121732026143791,-0.0340849248580209,0.00771149760705336
2012-11-01,0.0311530862375786,-0.00391470107134506,-0.122973035001215,NA,-0.0249034946892567,0.0579399141630901,6.11805555555556,0.0193423597678917,0.0237108435796578,-0.0847436463121743,0.0190351171327574,0.0472386245224037,NA,NA,-0.0114068441064638,NA,0.0698507462686568,NA,0.0288174736950058,NA,0.0785778308933374,0.0660109355787277,0.0729824561403509,-0.0229270139460598,-0.0965277777777778,-0.0242290595640913,0.0889539170798481,-0.0602559566390315,NA,0.00872097176079745,-0.0542451682927575,-0.026005282198533,-0.0476365317831978,0.0186749666518453,0.0425914217156567,-0.0464962455497759,0.0501022392619028,-0.0509049208144795,NA,-0.170357751277683,-0.0228570898533859,0.0954916932907348,-0.0389429772587616,0.260812074585273,0.0337527594188265,-0.0201840611512041,0.155863073561544,0.0776330347448424,0.00978134045256596
2012-12-01,-0.0109364863722082,0.0159308717829016,0.0195172578201659,NA,0.00435561292241582,0.177484787018256,0.0975609756097562,0,0.0239714763857637,0.0760762195081501,0.0582931419740145,-0.0215588723051409,NA,NA,-0.076923076923077,NA,-0.103794670758929,NA,0.157301426759119,NA,-0.00775623268698067,0.086935341096388,-0.105297580117724,0.00778658360337725,0.0591852421214449,0.0740406893973342,-0.097603083505155,0.111216232692122,NA,0.0358171660841018,0.0879052314273547,0.0374345286300837,0.0142362831858407,-0.0881711479703187,-0.0115073942179166,-0.0111459425686501,0.190138937858379,0.0566149549097166,NA,0.149897330595482,-0.100584831354878,0.0524951052334701,0.032079161410496,0.0976695233744311,-0.0222683725542497,0.0354438676427671,0.0951480151228732,-0.00226700246178824,-0.0443874273504274
2013-01-01,0.0161713757061888,0.0886986145585318,0.2216624377415,NA,0.0839740193179579,-0.0249784668389319,-0.862333333333333,0.0493358633776091,0.0463461080932281,0.0226915404693477,0.0909919935790626,0.21728813559322,NA,NA,0.0250000000000001,NA,0.0694271192225131,NA,0.101387205652543,NA,0.0463428252372975,0.0134048257372654,0.0453216374269008,0.0601409753045006,0.00943396226415105,0.0697771624923047,0.0203994683298032,0.0852765617021276,NA,0.0894276629570747,0.0378223187494373,0.0496153641396404,0.0216236334740654,0.048827240250227,0.0384167334570216,0.0464952464422419,0.0438081006427988,0.0936265651438239,NA,0.333928571428572,0.0663198939689971,0.0387931650246307,0.0558541468601508,0.104007662404946,0.0671548721972566,0.0190170275014629,-0.0362485061132626,0.0542791453097917,0.075040194456137
2013-02-01,0.0383568976478603,0.00691621801080378,-0.0975257731958762,NA,-0.0701945964650084,-0.00795053003533563,0.089588377723971,0.0849909584086799,-0.138019678366752,0.107990225625366,-0.0237098479057097,-0.0492898913951545,NA,NA,0.0365853658536586,NA,-0.00465790420133361,NA,-0.0325606550262373,NA,0.0576307363927429,-0.042989364166529,0.0286713286713287,-0.0110307033179942,0.0618260244428468,0.0855127400196112,-0.0520616409829238,0.00156841284719,NA,-0.123312641371762,0.0229154604385571,0.0783619409114531,0.0482733011511325,0.0397079415791877,0.0168161154708519,-0.0912150485094261,0.107524564843225,0.0443528130145856,NA,-0.0240963855421686,0.0451219596279002,-0.037048012030349,-0.0214696989818505,-0.0159895854794637,0.081183104027017,0.00717771994385763,0.04,-0.00814176284203838,0.0479214598066664
2013-03-01,0.0826566194737552,0.0201650826118207,-0.000456933973040918,NA,0.0930959887913947,0.0845948352626891,0.0362962962962963,0.0261110555555555,0.0427919852683267,0.205926625835474,0.104571428571429,0.00380785002929129,NA,NA,-0.00392156862745086,NA,0.00146250369881562,NA,0.046814415940601,NA,0.149344096871847,0,0.0135961930659414,0.0620923212459061,0.0250507786052809,0.0197026552902826,-0.0188927943760986,0.074694613216411,NA,0.109446502092249,0.071794873732655,0.0053914556962027,0.190577435352462,-0.0474100066984194,0.0181918417362692,0.0885184814814814,0.0270861879277058,0.252345728395062,NA,0.193415637860082,-0.0361726533638137,0.0116958133766811,0.10676320078632,0.153271823599652,-0.0017772072019574,0.0544469752310734,-0.0332950631458095,0.0246258099771033,0.0477677990812686
2013-04-01,0.0148819718116886,0.0610291250912913,0.0402285257142856,NA,-0.0867775646229658,0.010673234811166,-0.205146533238027,-0.0043313483666132,-0.00117726204468993,-0.0330197926665388,0.0553543455768237,0.028596440035016,NA,NA,0.0433070866141732,NA,0.0183994440187238,NA,-0.0279173575650736,NA,0.100965759438103,0.0138216992917672,0.0100603621730382,-0.0504454282637774,-0.334874504623514,0.126139285964724,0.128750559785042,-0.0142794117522778,NA,0.141222768192048,0.0415512979489123,-0.0813709032568303,-0.00178524243423872,-0.0705069552761771,-0.054412535311655,0.0854032352978304,0.0606364824645234,0.0528391146356817,NA,-0.0557471264367816,0.0944309148080862,0.0176453306250481,0.0545677089720009,0.00114246001523233,-0.0733770439784563,0.0267639347518822,-0.0314727434679336,-0.00212066451745208,-0.00550622077293172
2013-05-01,-0.0281354325751824,0.0309716008389915,0.0180181067026195,NA,0.0182210027778016,0.109666937449228,0.14658273381295,0.0266449171639431,-0.0452937875954501,0.11177290275507,0.12622554230945,-0.0243971631205674,NA,NA,0.00377358490566038,NA,-0.0157728424368466,NA,0.110249020613022,NA,-0.00598086124401909,0.149284134349563,0.047144754316069,0.0270564391695225,0.0764647467725919,0.0158627209651816,-0.00793497321959935,0.0153732441870438,NA,0.0918653111541599,0.1368471678712,0.0491116098053954,-0.0971683486488331,0.0262766980664353,0.047237389063842,0.316301003134796,-0.0973305594063673,0.13970033184643,NA,0.226415094339623,-0.0464601323092043,0.0493272630993344,-0.0424418233504583,0.226511897051658,0.0452892759291643,0.0676671669299631,0.0196198663163623,-0.0139315236803554,-0.0094986287778388
2013-06-01,-0.0042934128174712,0.0222485916144017,-0.0634578647330947,NA,-0.0804310163472962,-0.0585651537335286,-0.0219607843137255,-0.0889829496283341,-0.00687830675699641,0.105803553571429,0.0744286817316935,-0.10439081128235,NA,NA,-0.0639097744360902,NA,0.0236014277389278,NA,0.0421723751032157,NA,0.0312876052948257,-0.0041517906035976,0.0126823081800889,-0.081290273410436,0.000922509225092183,-0.164435954597136,-0.015196921223632,-0.011646556656091,NA,-0.0829319962994584,0.0219055508294341,-0.0630216417810969,-0.0102344334686552,-0.0714976777054264,0.0265171390641259,-0.0090497971398048,0.116461681927812,0.0423923430824844,NA,0.0516129528535982,-0.125290047184285,-0.00569789206255789,-0.0313701477433717,-0.056132719991711,-0.0606578210377757,0.0177558820654966,0.0877932103303194,-0.0191570650937292,-0.0171538512820513
2013-07-01,0.0162621662255062,0.092526101157411,0.10394107176633,NA,0.0479179943938481,0.135303265940902,0.00240577385725738,0.165697548505956,0.0587817073560344,0.0152603958863204,0.0326109182218131,0.0555194155844154,NA,NA,0.040160642570281,NA,0.0284656980226103,NA,0.0554052386132644,NA,0.2341501361338,0.127655350406988,0.0144020663744522,0.0205640310786246,0.0764976958525345,0.0232646812728767,0.132385786802031,0.136544468993961,NA,0.112259921221074,-0.103225787788258,0.0450554872844757,0.0226817878585723,0.00156092619984016,0.0649801082551296,0.00408550819309017,0.0488748068968285,0.0419293834151762,NA,-0.00707881042572878,0.0557029490596577,0.0767908265449384,0.0459674039705933,0.232462596229055,-0.0241106792678923,0.0540344075599708,0.352128192371476,0.0468750499725354,0.0536641546198333
2013-08-01,-0.0293368657858375,-0.0105167459324338,-0.0242171179867591,NA,-0.0303514564556128,-0.0328767123287671,0.0304,0.151621005068379,-0.0461254620282701,-0.034356609421928,0.0443311494703806,-0.02276216688786,NA,NA,-0.0386100386100384,NA,-0.108773869117801,NA,-0.0454748105013986,NA,-0.0627166719193193,0.100352112676056,0.0358024669257737,-0.0654736949257375,-0.120719178082192,-0.0708162413859909,0.0285099695176618,-0.0470451764103071,NA,-0.062121826565818,0.0273845439777209,-0.0611488225255894,-0.0472929223744293,-0.0374025454545454,-0.06201560079942,-0.0222594787520219,0.183595936609586,-0.0568834812975334,NA,-0.0513308910964405,0.154522578983801,-0.00798304906955571,-0.0253695560253784,-0.0139962149025413,-0.0335146951698272,-0.0556321379310345,-0.0613246141179319,-0.0207555732099912,-0.0415717757555242
2013-09-01,0.0325964780816788,0.0805825459465896,0.116174492247561,NA,0.131795672738969,-0.0226628895184134,0.0551242236024845,0.000433087916847263,0.0478283989419448,0.109866555919397,0.0631103657734648,0.000629524708844809,NA,NA,-0.0160642570281124,NA,0.0540372032907701,NA,0.0295422880081995,NA,0.0475790181573639,0.0838399999999999,0.118593497104082,0.0159652654640858,-0.0438169425511197,0.0926593872164814,0.0652021780822492,0.0258398211842739,NA,0.106513544579711,0.0487915066636548,0.0703947105263159,0.11982198287648,0.0890447334568409,0.0159958153023632,-0.0127294008680245,0.152804057832403,0.0994546037856914,NA,0.0781563666411005,0.128400426777462,0.026555821527785,0.0274646438314277,0.0252804511926397,0.0292679074920321,0.00584221003689334,-0.0561846278826057,0.033817526372111,0.0582810153533393
2013-10-01,0.199564586357039,0.121010057592046,-0.0755222954005097,NA,-0.0278384102590685,0.0123188405797101,-0.0286975717439293,0.037229393939394,0.00251723443530794,-0.00534284674023644,-0.0450529874577027,0.013840830449827,NA,NA,0.0244897959183672,NA,0.0223925168648356,NA,0.217761106744553,NA,0.0932435243139145,-0.011293143764301,0.100159829515184,-0.0322388283058201,-0.0254582484725051,0.0403818107987741,0.0247136341968457,-0.00755667506297242,NA,0.00469219380940711,-0.00926125349989226,-0.0612169037791495,0.0198716606503109,-0.0188305748265609,-0.101548121187402,0.0411604244403461,-0.0598665516601865,0.25911882112635,NA,-0.198420074349442,0.0501446564743824,-0.0167232558139536,0.0771992603790292,0.0907173702910005,0.0114462310432299,0.0331558325266215,-0.0687586525149978,0.0852338401290027,-0.0103258417233127
2013-11-01,0.0184513208308126,0.0219353625405836,0.0167945469624717,NA,-0.00430467901927756,0.132426628489621,0.0893939393939394,0.070951630674108,-0.0182457308923425,0.00790818453713316,0.0608695848449508,0.0682593856655291,NA,NA,-0.0239043824701194,NA,0.120749218422213,NA,0.132066668852597,NA,0.0290662930671581,0.0653228428385839,0.174334140435835,0.00262254328241829,-0.281086729362591,0.0112914434129572,0.0380130484265604,0.0880309377504676,NA,0.0561844434653584,0.153478282608696,0.006285124802208,0.203537194138573,0.0429293456024922,-0.00525703824433199,NA,0.0662485616315791,0.0630358487584775,NA,0.0608695072463767,0.101928393588781,0.0358756036174432,-0.0246296666666667,0.0676982462802436,0.0299644626334521,0.0311548613528898,0.137760109018831,0.00955211187535299,-0.0279216778575753
2013-12-01,0.0957330740375593,0.085321548859109,0.0132544450804557,NA,0.0828947352839335,-0.015802781289507,-0.0264255910987482,0.136399064692128,-0.00511515754083014,0.0122871127037552,-0.00854555284269276,0.0644787104269533,NA,NA,-0.0857142857142857,NA,0.0655695568415933,NA,0.00855620839257809,NA,0.00242504992867332,0.0152418001598635,0.00371134020618547,0.0439114776679672,0.132267441860465,-0.0111653702664093,-0.0483151268907563,0.0352363921540277,NA,0.051453894604873,0.0621937417603895,0.0523097606326548,0.0246574582985075,0.110411622276029,-0.0211391949166413,NA,-0.0122957923329763,-0.0100283193814764,NA,-0.0551911505568935,-0.0125000010125,-0.00538737814263712,0.066071846063104,-0.0621603034420288,0.030474658190017,0.0313494320763288,0.145034936630442,0.0193439651105136,0.0148692842191938
2014-01-01,0.0373147632815323,-0.0885026038090679,-0.0060374322003911,NA,-0.0335011450529223,0.0757867694283878,-0.0485714285714286,-0.190329183813443,0.0032562640362046,0.00175493571786101,-0.140193443806278,-0.0646658627740321,NA,NA,0.0669642857142856,NA,-0.0685328443178775,NA,-0.0537564681258818,NA,0.0123808744773517,-0.0816221189595652,-0.129005710764174,-0.0580583973641373,-0.0320924261874198,-0.0356386406477641,-0.153435688065827,-0.0591792931688803,NA,-0.0495730718800422,-0.0150816711305596,0.0389513278489677,-0.0896936822968809,0.00130828608809419,-0.251949580083983,NA,-0.138467248311637,0.032812199955957,NA,-0.0890688785963633,0.00253168405576054,-0.0343049006964148,-0.0625111821011156,-0.0680912696344013,-0.0183743970753216,-0.00132162989772544,-0.0521111049025825,-0.048267347359736,-0.0690819197463178
2014-02-01,0.109311063658411,0.189643579410105,0.0658027954201821,NA,-0.0141882363505748,-0.0131342686567163,-0.024024024024024,-0.0152478180750607,-0.114110008300137,-0.0746715547445255,0.00695581000499579,0.0627188484666772,NA,NA,-0.0502092050209205,NA,0.0805699782678744,NA,0.228534574019056,NA,0.03008152937869,0.168545659526494,0.0490565542897852,0.0480530073373955,0.0450928381962865,0.0223197928806877,0.0758212552364159,0.0671877204793212,NA,0.0592651901511076,0.0747613429926623,0.0274935144308563,-0.0234980234045922,0.0130662462136868,0.00801916567685779,NA,0.136527301968483,0.204264340969538,NA,0.114285650793651,-0.0446128211049883,0.0854700877529402,0.0795973229406788,0.298613750521732,-0.00512365059695141,0.0238199823555358,0.26163727929374,-0.0164715651597651,0.0353718837048707
2014-03-01,-0.00675252036155372,-0.0444038219145498,0.0112082258968129,NA,-0.0298779200196377,0.0405323629442005,-0.115384615384615,-0.0795698924731183,0.0102197838368725,-0.0281612375521316,0,-0.00109799615701345,NA,NA,-0.0881057268722468,NA,0.126348624462925,NA,-0.0854677104022237,NA,0.0436681768558953,-0.0326419038430614,-0.0256294964028776,0.0395312797918808,-0.0279187817258882,0.00214742917992328,0.00781107730122232,-0.0382707990422492,NA,0.00405063291139229,-0.0465973684210526,0.00220079920767291,-0.104457205359584,0.0374032244196043,0.0580748233124433,NA,0.033706424498416,0.0516997521246461,NA,0.0894588085161716,0.0775330423261464,0.0492125996361368,0.035720551267973,-0.0962689763820626,0.022042099085281,0.0715209854166734,-0.0645674597783887,0.0145438515966538,0.0567574708171206
2014-04-01,-0.0411857628458497,-0.112130727305676,-0.00450869810257359,NA,-0.0129577276995305,-0.119767493036774,-0.0243478260869566,-0.061214953271028,0.124260414664257,0.100081187501977,-0.198090203208245,-0.0032976092333058,NA,NA,0.00483091787439616,NA,-0.00957856534695611,NA,-0.109337846964133,NA,0.0733524020213177,-0.080452160125083,0.102907245039225,0.0206763774565852,-0.0600522193211488,-0.0885714538546944,-0.0452703716751806,-0.0560058721691444,NA,-0.0103378719112455,-0.00843880083616733,0.0524734299285747,-0.0564885496183206,0.0360547466247305,0.0981202631578946,NA,0.00535282565035478,-0.0430976753165765,NA,-0.0774059582946676,-0.0466066841914548,-0.00398681998092898,0.018858307528741,-0.108731630808329,0.00047035744343904,-0.00201051459547608,-0.0771846650799048,-0.0306255423408875,0.00147284106395951
2014-05-01,0.0237447190721021,0.0584952226166653,0.0788827296137864,NA,0.00970317713654545,0,-0.554367201426025,-0.0801393728222997,0.0162987940136234,0.0561499303191169,0.0139346082104228,-0.0192996967190516,NA,NA,0.0144230769230769,NA,0.0354610151614232,NA,0.14403862292492,0.10113088526233,0.0333780501097845,-0.0583875300237374,-0.0368200836820083,-0.0616379087818093,0.0458333333333334,0.00509405054502743,0.0588560505746116,0.113713218839448,NA,0.0896815414012739,-0.0423759559441151,0.00999344410264547,0.0145631067961165,-0.08199996,-0.0427935653130286,NA,-0.128556291253024,0.0394089021815622,NA,-0.0827663879119267,0.0154373351717787,0.00988928632236186,0.0960480557604124,0.203492697634201,0.0405613648361729,0.0229653509864092,-0.0740604301422414,0.0596011638001084,0.0322074210640679
2014-06-01,0.0865748584452743,0.0984183291584455,0.0439041820501724,0.0094736842105263,0.0821556434897306,0.0151915455746365,1.42,0.0698051948051948,0.0656531896817041,0.106469233662633,0.0109944777611193,0.0109642957548497,NA,0.119319976464914,-0.0236966824644549,NA,0.05271899128269,NA,0.111445789594371,0.0390257606205537,0.160438571260167,-0.00287959391197923,0.0117289748045177,-0.016760669251678,0.128818061088977,0.022222270336584,0.0221293086274492,-0.0114485516693587,NA,0.0247837616929651,-0.0151823556816276,0.0399042944448811,0.0570972567783092,0.0740740272734628,0.0257511096477507,NA,0.0424886891005327,0.0704129969393028,NA,0.0364647713226205,0.0726352056273984,0.090697134313293,0.12825194911371,0.1182464365184,-0.019361084595568,0.0350532106154631,0.138877920369197,0.00126870371603482,0.0403685415127344
2014-07-01,-0.10235693154991,-0.0674133013333333,-0.10656836461126,0.0130344108446299,-0.152359394044924,-0.00780741704619381,0.028099173553719,-0.111279716742539,0.0575324963547186,-0.0243717696561508,0.217498744871447,-0.0717463292547273,NA,-0.111019058575506,0.0145631067961165,0.0522920203735144,-0.0628943599587075,NA,-0.0624661695053444,0.024851765038125,-0.00741572501358301,-0.0535233317017182,-0.0115930007903392,0.0573729451674752,-0.0411764705882353,-0.0575896796171101,-0.0117626832594612,-0.0548333477940592,NA,-0.00752913495189889,-0.045121226642625,-0.108218298914871,-0.159022273959634,-0.0174442596348885,-0.165271931659693,NA,-0.0139585269513507,0.0344717889161354,NA,0.0989862850327967,-0.0763779582298962,-0.0115433307298701,-0.0894013570980929,-0.127185785857324,-0.0415925773266056,-0.0315829331890614,0.0793150915683056,-0.0196409723185205,-0.0553957575024623
2014-08-01,0.126413977983536,0.00895957115926604,0.0174418604651163,-0.0797735975295935,0.184880854560394,0.0550819672131146,-0.598070739549839,0.0751280022766079,0.0118589239824922,0.0152083286252049,-0.0198944181849134,0.0314558998528518,NA,0.0260950613884765,0.0526315789473686,-0.00871248789932233,0.180517613728542,0.0312765159327446,0.120294117647059,0.0592449143222673,0.050864804011872,0.0539056143205858,0.0182450477845353,0.00328692547907261,0.0638036809815949,0.00890334288338313,0.10143172155543,0.0485120755932944,NA,0.0755172413793104,0.0189013384740826,0.0568647900473116,-0.0434158936700434,-0.0194054095543108,0.163742683218768,NA,0.0026315880934189,0.0759706687854074,NA,0.0368964188822571,0.104006772235052,0.0633649626572248,0.0950688300765412,0.0448123173687185,-0.0335096122533266,0.0106089779721423,0.00258983498186582,0.0277897685389819,0.0417542557677284
2014-09-01,-0.044861421270509,-0.0618576559557708,-0.0726267096774194,-0.021252741680802,-0.029126213592233,0.0596643256681169,0,-0.139227058720331,-0.0284207726803173,-0.0350608795518863,0.134838486637086,-0.0903282021492884,NA,-0.0793218007666303,-0.00454545454545463,0.03125,-0.00819816417397679,-0.0305343280917696,-0.00341299553688645,-0.109261111062984,0.0463576548500195,-0.0986296081837483,0.0644197924735583,-0.0128445187803767,-0.0668973471741638,-0.0437224113391868,0.049021223148668,-0.021702838063439,-0.0522783897120492,0.00993908303943569,-0.0622222415458938,-0.051919237318829,-0.0847711927981996,-0.0572632000000001,0.0893754095701575,NA,0.0035297267359895,-0.0177582045426652,NA,-0.0559916244902342,0.0131274417981846,-0.0943664671290001,0.00662616659741055,-0.0774043627976331,-0.0413499609236234,0.00835925366172741,0.216338366688355,-0.0442255511260857,-0.0301069534698704
2014-10-01,0.127858815168254,0.141297786421271,0.138143447860396,-0.0925714285714285,-0.135357178571429,0.00645167193264951,23.4,0.0990160516605165,0.0435765832328108,0.0463764565758227,0.220295670372409,0.067688314176245,NA,-0.0115094048010523,-0.0547945205479452,0.00284090909090917,0.00646893058512377,0.0200042588355165,-0.0753424940817305,0.0619158550282795,-0.0170327990680269,0.161456102783726,0.0348696980012144,-0.133962006701133,0.122373300370828,-0.00251683331916197,0.076739321734578,0.0841053388590931,-0.0684366331305822,0.0500529417989417,0.101174533302587,-0.0525391768375753,0.0389344262295084,0.0893255957715764,0.0204283031301482,NA,0.122835523151955,0.057419757845238,NA,0.0986695621580065,0.00152441749888399,0.0961150257380425,-0.000806085416279356,-0.0301902653727907,0.00918998787763958,0.0235203590422279,0.0597292306731738,0.113377241814791,0.0624895501014884
2014-11-01,0.000816514658984691,0.00889355548487258,0.0380719712913717,0.0201511964735517,0.034696407876762,-0.00699294871794875,-0.902459016393443,-0.0363739207401278,0.0654529557210368,0.0714060109312837,0.00343994909602241,0.0867225530336457,NA,-0.109115040223388,0.0579710144927537,0.0170601196096947,0.0228531163311236,0.00832864173203118,0.0438746748646537,0.0121011547826964,0.0957295710633463,-0.0226769551415006,0.0580945003872966,-0.0135644530497976,-0.176211453744493,-0.0273338843399085,0.121741522944751,0.122554460927491,-0.170044363521216,0.0179381129314287,0.0252620139457713,-0.0407558720420419,-0.112426035502959,0.0713407163321327,0.113981308168593,NA,0.0561044216867468,0.131035437956019,NA,0.109485368314833,0.0441400047330136,0.0155705589926129,0.0399301037885225,-0.16929845841198,-0.00697655147207976,0.0261819551704652,-0.0310620757045128,0.0829229860153633,0.0275952327982245
2014-12-01,0.0829480339550173,0.000629632361381471,0.016318994218018,0.0580245643194712,0.0203593022099522,0.0498825088097119,9.25210084033614,0.337979229847807,0.0155953489448155,-0.0181496880050034,0.115516477300133,0.00412773802971933,NA,-0.0392084003282899,-0.178082191780822,0.0429561772716021,-0.0193751262109422,-0.0410621374512036,0.0294760379223811,-0.0130434514413981,-0.0354303145523677,0.139407653795877,0.0673499267935578,-0.010667793188232,0.0414438502673797,-0.0306960197213845,0.069839318421772,-0.0322515437600779,0.0263258689937378,-0.0514800900607844,0.0549369947994707,0.0460924693212945,0.111111111111111,0.0290853436312799,0.0527536231884058,NA,0.101038171270342,-0.0859837928169357,NA,-0.0691223738062756,0.0320699773861228,0.0572927173693765,-0.0365869563435541,0.0137135366269237,-0.0607898309363272,0.00624082232011758,0.0568769648397105,-0.031102218988723,0.0152450844675038
2015-01-01,-0.00175790433047407,0.00971857757952432,-0.0130773216354908,0.107934720416261,-0.00821592347840228,-0.153158141596319,0,-0.0716146670306135,-0.0490051815863959,-0.0930260500848052,0.076296195953832,0.00301441474297515,NA,-0.0303147687524291,0.0333333333333334,-0.0890801186943621,-0.0526877714489141,-0.0259777951731943,-0.00980919910367983,-0.0520374449339207,-0.00215022389714314,0.00463569676648845,0.050411488340192,-0.0444403135821451,-0.341463414634146,0.0111506913656347,-0.0221837773939765,-0.0563030623824661,-0.110037137546468,-0.046759170165101,-0.0114186853186624,-0.0760615384615385,-0.14239996,-0.0702863172289445,-0.0561674284140971,NA,0.0862747089297771,-0.0190526986225802,NA,0.137762683818402,-0.117937907095062,-0.0589582140812821,0.0189211360274211,-0.102464527057888,-0.0541732047244095,-0.0529004377964247,-0.10004892123168,-0.0608222451661349,-0.0461920258899676
2015-02-01,-0.0255975283018868,-0.0357302823961972,0.031533059904949,0.0689836229594525,0.1011834496808,0.0435643564356436,-0.959016393442623,-0.0528283802163805,0.0432463066098525,0.195076839434782,0.0366231767862255,0.0224043728089822,NA,-0.14829662732278,0.032258064516129,0.128868330184377,0.0554302319535844,0.131301323873911,0.0757698032540726,0.220156781876271,0.145088926022228,-0.0234014187966529,0.0404832530356924,0.0562912015692543,0.237816764132553,0.0467578614012962,0.0854307486268728,0.144329853037947,0.379699148717663,0.0614255981292982,0.106755392137826,-0.0277074996669774,-0.0279851199633807,0.0072000000000001,-0.194865787481499,NA,-0.149179653570444,0.0490963049513933,NA,0.215972468184952,-0.0136108279713905,0.0896188564476887,-0.000526814170947021,0.331890722820751,0.0377122784454142,0.0552774096794073,0.200054384342093,0.0595642426456975,0.0688774079384507
2015-03-01,-0.0338216693781171,0.0636960588956927,0.0460162926829268,-0.0866994131379021,0.0293748690892042,-0.0265654648956357,0,0.1071076011846,-0.01453569254903,0.0692690730032424,0.0105388862275448,0.0040086052383006,NA,0.018352894117647,-0.0416666666666666,0.0138511571535751,0.121595197493153,-0.0103627150193742,0.0455449975111994,0.0804570616737472,0.0509643405990277,0.0305433352493252,0.0674615291038114,-0.00889219453016921,0.0582677165354331,-0.0606826531820528,0.0264532982097399,-0.0452366703176795,-0.0375415694078585,0.0707654307661352,0.02862114077732,-0.0108234144628967,-0.0182342130518234,-0.00953133439237475,-0.00579706521739132,NA,-0.000747428981746845,-0.00539982007456707,NA,-0.0543784957627118,0.0129870346749024,0.0690360785621109,-0.0189748585976396,-0.0681232717086836,-0.0141997992105929,-0.00711806886077626,0.0298980507407451,-0.039992436898413,0.0306005644487131
2015-04-01,-0.0446923769832002,0.00357805232067521,-0.0432147196264662,-0.023193094757654,-0.0475030268400378,0.0350877192982455,0,-0.188140927329469,-0.12059549138766,-0.0313293095576133,-0.00521444673670701,-0.0532339632685653,NA,0.104436280241972,0.0271739130434783,186.634776548914,-0.0563491904761905,-0.00654446667296948,-0.0078552253204105,-0.0929720443483596,-0.0725156116094068,-0.0856394009192641,-0.00205758377425047,0.0672273707165107,-0.0580357142857142,0.0663974482610552,-0.0522855016196256,0.0128488252790839,-0.0654294411629619,0.0358380914497662,-0.0793236550657809,-0.0157894604898668,-0.0254153482607696,0.0140336802713039,0.0787171618543308,NA,-0.0732983973066208,-0.114917268421442,NA,0.128827441044532,0.00400637142851834,-0.0389904605919851,-0.0126258567881473,-0.0322231581633559,0.0255533860405286,0.0128675730563392,0.0666373198452315,0.00216154455023676,-0.0276796940451747
2015-05-01,0.0714685384615383,0.00242171808833702,0.013972396652679,0.0762009345002244,0.00328819863762519,0.0357815442561205,0.608,0.0296540927871549,-0.0413107476519763,-0.0429808301398571,-0.0192995230093039,-0.0272702277199888,NA,-0.032635941422594,-0.0158730158730158,-0.994419297374692,0.0630782159280368,0.000263470040810843,-0.00431861804222644,-0.020646053954144,0.0250965572715574,0.0261461667823244,0.0515463902342743,-0.00957440053138414,0.00473933649289093,0.0361800843023588,-0.0317816021510563,0.0654112771970015,-0.0582295206405089,0.00539435468920257,-0.0146936218850162,-0.023782649135453,-0.0341023553609652,0.117437678234967,0.0219594594594594,NA,0.0644874729884488,-0.071564202255525,NA,0.0228250082699306,0.0470869995583463,-0.00217350121669069,-0.00176853484509487,-0.0525530637980635,-0.0124583402426205,0.0156080041962978,0.0136082474226804,0.0203921764705883,0.00386470907778302
2015-06-01,0.0396161856179598,-0.0204341744805362,0.00913315173850338,-0.0507952796305797,-0.0298615997764603,0.0315151515151515,14.1741293532338,0.1328,0.0106917058156488,-0.0434029931090829,0.0223518464528669,0.0254335852851784,NA,-0.138840867697194,-0.0322580645161291,0.0153845610220169,0.0602848249954933,-0.0542676211701431,-0.0537349397590361,-0.155009920634921,0.0458254536777949,0.0174519722999846,0.164145653665388,-0.0412024181975508,0.0487421383647799,-0.0142102970462235,-0.00913076776921307,-0.0580464930232558,0.151536847748392,-0.00129508790555211,0.0533808186199227,0.00576609460432054,0.0555555555555554,-0.0120311394196745,-0.0628099173553719,NA,-0.120517075291975,-0.0231241466100361,NA,-0.0818240944372575,-0.00914640621281848,-0.0426574332909784,-0.0486508469058674,0.142669770714142,-0.0448372369185353,0.00500362768055096,-0.080960130187144,-0.00941587222490647,-0.0138634604329846
2015-07-01,0.0936657332893476,-0.0578885828739564,-0.0101619561765639,0.0259459459459459,0.0979729935805742,0.0505287309048177,0,-0.190207109227872,0.124378956954303,0.0853138744525548,-0.233246246043429,0.0155016347237882,NA,-0.126067302862883,-0.0111111111111111,175.473932352175,0.0528279494753634,0.0501392803233576,0.056277056277056,-0.0692691810977399,-0.0687274609843938,-0.0595197255574614,-0.0339268278650907,-0.00411901502227929,0.124437781109445,-0.031301504441591,-0.0584393074149315,-0.029429231099561,-0.0909373031987182,0.0228788534909121,0.0175353925353925,0.0213559561999122,-0.0442695523856369,-0.0322349570200574,-0.0550264197530864,NA,-0.0494417895288203,-0.0367149448217373,NA,-0.00140891163821455,0.0961538456745561,-0.0269245723578092,0.019051726659554,-0.0890521240423701,-0.0642718920432769,0.0289828759252178,-0.0405046923417441,0.103976743045135,0.0370551980319311
2015-08-01,0.00596976613404299,-0.0648996742870235,-0.0401026628168111,-0.0911485774499473,-0.0494016923076922,-0.0861297028036746,-0.937704918032787,-0.119767493036774,-0.038774083000026,-0.0228666737174934,0.084456905074491,-0.0280321414394749,NA,-0.0195402873563219,-0.0449438202247191,NA,0.00340181417143248,-0.0392572527390469,-0.0421890067502411,-0.165878213998051,-0.0296487260828642,-0.0716760541104321,-0.00572861739832542,-0.0870424443779726,-0.032,-0.0875849904588368,0.0393954529311764,-0.0868945886628935,-0.133834068493203,-0.0735307615684145,0.00221342292490112,-0.0500982304210431,-0.067421461657231,0.0207253886010361,0.00373266130150562,NA,-0.070061657535613,-0.143263122701438,NA,-0.0906525220458554,-0.0961403196997955,-0.0763834372564303,-0.0428732505323763,-0.119425489522253,-0.0444124954307517,-0.0784516516062148,-0.190311427465348,-0.0790722192936215,-0.0336123996296012
2015-09-01,0.0814835891583452,0.00695987008079735,-0.02774064171123,0.0133333333333334,-0.141521288589799,-0.0465116279069767,-0.0131578947368421,-0.0647291941875826,0.00519055316624639,-0.031716287474719,0.0875964237955233,-0.0605367789834381,NA,-0.132473571657302,-0.088235294117647,-0.994819760646489,0.0166690208126992,-0.0485920098112422,0.0156052856783289,-0.0797731916909946,-0.0388575211272826,-0.0396856950022373,-0.0112724705046326,-0.0197443912350016,-0.139118457300275,-0.0559180584258676,0.0742550041893921,-0.0858034117629465,-0.126133262667195,-0.0401720367544137,0.0656255571166677,-0.0983897592439132,-0.0645695328604011,-0.0616389050036258,-0.0981777277120761,NA,0.0270151353727703,-0.0770731902439025,NA,-0.0496509290282806,-0.0892856720607803,-0.0645570014954852,0.219268642635843,-0.0984263491151259,-0.107253757575936,-0.0371273940698521,-0.321082582397868,-0.0351078038542262,-0.00357611691993232
2015-10-01,0.046958233772797,0.148003650366669,0.0861120488140255,-0.0737985697940502,0.0393799103736945,0.07702188703466,-0.333333333333333,0.0699152542372881,0.0236057542579782,0.0858117457215213,0.0366574821093486,0.100607835829311,NA,0.115540540540541,-0.0967741935483872,0.0521229252050994,-0.0586355556671452,0.136099851478687,0.0798017883420961,-0.0147904683648316,0.103662746936325,0.0319148536594722,0.0423105639140975,-0.0337311096521272,0.1968,-0.0123396174714893,0.0649063152637184,0.039492905899561,0.406856156968877,-0.0207738601051077,0.0980014020132611,0.0285105854253742,0.0743361608061262,0.00347758900608919,-0.241649525773196,NA,0.0426380274315654,-0.215221991865158,NA,0.159183673469388,0.146632492447941,0.0845737483085249,0.0611900889372472,0.329419216121866,0.142796955873084,0.0543330303537695,0.164918170373479,0.203282539054775,0.06015681122461
2015-11-01,-0.179912302874495,-0.0351821064557675,0.0115524451899423,-0.130945081473435,0.00120921002033869,0.0387365292767263,0.516,0.292409240924092,-0.0281060404196903,-0.0187493503849444,0.169074723217371,0.0900304335818836,NA,0.113264627498486,0.00714285714285712,182.477869858057,-0.040590405904059,-0.00127711122492968,-0.0128529263254534,0.0692243119266054,-0.0397620839147751,0.0206185574994175,0.0539621306262066,-0.00471162186305518,0.144385026737968,-0.116441682126248,-0.0059387266324632,-0.0384615159113864,-0.0400769464547308,0.072379354310343,-0.00175268981401333,-0.0170463437948065,-0.0845688679060332,0.0315749723363488,-0.0668841254423124,NA,-0.0271870354239634,-0.00942885262469961,NA,-0.0873239436619717,0.0178438849677593,-0.0474110833853193,0.044608411909385,-0.0168297447699899,0.0812430637911643,0.0177317882846655,0.0987031700288183,-0.00312239944527204,0.0263767632340146
2015-12-01,-0.0750937215041779,-0.0358375415198703,-0.0666457780552496,-0.0810234541577826,-0.0795088566827697,-0.0344234079173839,15.0949868073879,-0.148110316649642,-0.0802313510306986,-0.022736950134837,-0.120338239816527,-0.0369902185462267,NA,-0.139281781244928,0.0141843971631206,-0.994367722216931,0.00138455384615388,-0.0260869571292965,0.0488259264741191,-0.0561621706771517,-0.0404303880013043,0.0559440580665451,0.00553498603470959,-0.0129106514547505,-0.123831775700935,-0.0164027393956907,0.00429720137104272,-0.00560975609756087,0.0133600195938537,-0.026958949952707,-0.105618583122385,-0.0880064977632657,-0.0641871625674866,-0.100037323626826,-0.127622377622378,NA,-0.0548169238558404,0.0837638836007615,NA,-0.0505400848765433,-0.00949595728936803,0.00545732360931406,0.0205367708414295,0.0349641482955876,-0.095778277185501,-0.0134300730827612,-0.10655737704918,0.00313217936036936,-0.0617048706721631
2016-01-01,0.0102319317730362,-0.277615113919421,-0.275058665772712,-0.0904872389791184,-0.154165755521539,-0.159833630421866,-0.941803278688525,-0.211630695443645,0.0443404869396968,-0.0641179935297217,-0.0322898944083053,-0.11838990362483,NA,-0.142857142857143,-0.20979020979021,176.548061107026,0.0379474904254102,-0.0653886844560868,-0.128131209751026,-0.221074412352297,0.0387359836901122,0.0246505151079937,-0.259862351369833,-0.0932276883166576,-0.0586666666666668,-0.0477286054241871,0.0034439782926321,-0.182977655138582,-0.264007910349374,-0.111620464884212,-0.00709756860317767,0.151768224631242,-0.0378205128205128,-0.0510162566977912,-0.090180360721443,NA,-0.112228238081755,0.0489335281773415,NA,-0.0296628187865576,-0.104719785103897,-0.203213195761763,-0.0366268640678633,-0.216891472140762,0.00537633480597055,-0.0759749986023732,-0.161467889908257,-0.0322103379526817,-2.08817193859678e-05
2016-02-01,-0.0237421961773984,0.0517544039355364,0.190057826589595,0.0119047619047619,0.0478283092037228,-0.114568599717115,0.00563380281690162,0.434981064638783,0.0781226684324225,0.0478524565368088,0.123026023549135,0.126529461446103,NA,0.193215339233038,0.238938053097345,-0.995696533474314,-0.0748963610093653,-0.0193874581668573,-0.0671244054348128,0.248806419098143,-0.0680405626431142,0.032495511669659,0.0588781530833591,0.0500039903036782,-0.0254957507082153,-0.12741543097476,-0.118148733891862,0.0795556265519175,-0.0868786833855799,-0.00381417998445344,0.0398479543726236,0.0735998171146375,0.0179880079946702,0.0450175281913257,-0.0624082232011747,NA,0.049428178521618,0.142344524936472,NA,-0.115577810535084,-0.041186151732804,-0.0705722051615202,-0.0575818504338466,-0.0623128201823601,0.0606061285526271,-0.0658969141947043,0.0835886214442012,0.035150280780273,-0.029168064991662
2016-03-01,0.0801670293698864,0.0469708978496433,-0.0930639383511961,0.294117647058824,0.193436965049025,0.0798722044728435,16.0868347338936,0.0752517183226433,0.0630101800655825,0.127366870431799,0.0284645271036517,0.0800000000000001,NA,0.095179171817058,0.214285714285714,0.0826224885442368,0.032,0.0914039963441313,0.0662305823447964,0.0675445170966644,-0.00526500526500517,0.0455572943835854,0.150717070571675,0.155842159473725,0.155523255813953,0.119031145909268,0.0356173719115771,0.0444939389458827,0.0868073117610255,0.0873873281288065,0.0453414928181297,0.0967231360527985,0.0484293193717278,0.132580510246759,0.241190289741582,NA,-0.0161607250217388,0.00481675392670144,NA,0.217802925293422,0.196735416089205,0.138668978637673,0.127946562493722,0.0623003534281263,0.0954444291346015,0.0306906023312279,0.239903109854604,0.010990846636989,0.0694426488989415
2016-04-01,-0.0264437452025381,-0.0758636454545454,0.0850471722365038,-0.0577922077922078,-0.15629518619589,0.0769230769230771,0,-0.0502711163000928,-0.0439175787181364,0.048461257418509,-0.0310949270901991,0.0507726269315674,NA,0.0191873599992867,-0.0235294117647059,213.636968939246,-0.0474418759689923,-0.354504116076226,0.022494913662958,0.0433744545712078,0.0243472477064222,0.0196241476800267,-0.0335707019328586,-0.0363816118134357,0.0276729559748428,0.0315398155272797,-0.108415866266162,-0.0255591846230249,-0.00451268050541531,-0.00869922346104435,-0.0314817401499686,0.0155943130807055,0.00436953807740337,0.059453508124077,-0.0725552050473186,NA,-0.156643453306834,-0.0844101709045435,NA,-0.062985966679081,0.0337400638063678,-0.0301236354273945,-0.00571847577458939,-0.0287218646616542,0.133559508512904,0.0334987379342691,-0.0182411068976839,-0.0329385521184723,0.0505441684672914
2016-05-01,-0.0144779622878427,0.0928631360273782,-0.00414615975730859,-0.0282563749138526,0.013231977132272,0.0157967032967032,-0.959016393442623,-0.212247016087182,0.0565027750246192,0.0315680213068221,0.13997945351157,0.155695564892623,NA,-0.0398670564710439,-0.0722891566265059,0,-0.0898437677383426,0.0527778333333333,-0.067249975,-0.0240274227317857,-0.067516394505119,0.0854673291979287,0.0573684210526315,0.053446641723357,0.0550795593635249,0.0851318964037404,-0.124409220533795,-0.0128414487891502,0.041251135142844,0.0305056202412701,-0.0905807556980531,-0.0329032645161291,0.252952144188937,0.140467056797942,-0.104081632653061,NA,-0.00435679133320366,-0.0104711814249943,NA,0.156016639004149,-0.0881943788585041,-0.0183169109804573,0.0371222745097441,0.0487691932973646,-0.0146744402808648,0.0148059423769509,-0.0291970480821847,0.0429530551326529,0.0451772304516964
2016-06-01,0.0506370852999765,-0.118232160599197,-0.0685963336359305,-0.000709219858155974,-0.0532042589216086,-0.102772143340095,0,0.0540184453227932,-0.00973596920234843,0.0443043615209249,-0.0767694434814703,-0.0100989703130264,NA,0.0461360438292964,0.025974025974026,-0.995519055298951,-0.0189555979597853,0.00105530337439008,-0.00643261842850118,0.214146150840172,-0.0716660879202069,0.00390674880532882,-0.118964609258337,-0.0127488352820074,-0.0406032482598607,-0.0425414506449747,-0.0207148933312228,-0.207030190782447,-0.0474532018917371,-0.0499797247564855,0.00969023018760562,-0.0585723705899548,-0.0605158234126983,0.0323960259047666,-0.067577828397874,NA,0.100579186637549,0.0322060724130186,NA,0.0534816563717999,0.0456968920862262,-0.0565170632774473,0.0196611917725347,-0.0507823309944591,-0.0220503386758794,-0.066837518398314,-0.102529049897471,-0.00193048584298572,0.00871831553289759
2016-07-01,0.0509187387576955,0.182217218070817,0.1355895700298,0.231369765791341,0.0848020135477898,0.0919366993217785,0,0.00937499999999991,-0.0623568619528619,0.0272480582017498,0.0250865043765192,0.0291777200235757,NA,0.00937155509214738,0.0253164556962024,222.167226269465,0.0867662762164367,0.181866166677183,0.0172646074993255,0.2204698422916,0.0608834485031218,0.0404131434065087,-0.0158192646429793,0.0582421666770467,0.0290205562273278,0.0536641984752064,0.100849177752831,0.0802792670157069,0.0818099214721173,0.131256035975414,-0.0147892068157771,0.0179989234126681,0.0960928671545476,-0.0171698643330331,-0.120521172638436,NA,0.0692861256462967,-0.0472475829562644,NA,0.138330494037479,0.0844865007281739,0.0868443418413398,0.0101849800311968,0.0881803691362191,-0.0319361785484977,0.0135220573200061,0.127951294744859,0.0322372657601988,-0.0110630241492204
2016-08-01,-0.0734722473008816,-0.116742913322315,-0.112464858949011,0.0536023631123919,0.0235460319391092,0.113871566597654,23.4,-0.317647058823529,-0.00287280941369683,0.0951164323906082,0.0471518339508914,0.0114988505748952,NA,0.127252874235548,0.123456790123457,0,0.100972829603704,-0.0517395182872435,0.0220101305226768,0.069884022673208,-0.00450108777194302,-0.0222988942210118,0.0298507749712973,-0.0108329601180723,0.0423031727379553,0.048740455992726,0.0312584159334663,-0.00387725350962032,-0.120828094634559,0.025280633425514,-0.0991695799931265,0.0168453148588246,0.182080973025048,0.049096414183843,0.131481481481482,NA,-0.00125771540743347,-0.0645613567251461,NA,-0.0374139479197845,0.0859636827123114,0.00421951499048068,0.00156613149701901,-0.128197811516395,-0.00366549072925904,0.0589951624141096,0.20864273434697,-0.0402873510261189,-0.0134314406623735
2016-09-01,-0.0524844944565863,0.0486362151858812,0.028722303219527,-0.047593049912853,-0.0494594191520723,-0.0303592955612946,-0.940983606557377,0.0108892921960073,0.0149812882449234,0.0496093093055625,0.0192404861259339,0.0497844374754999,NA,0.0382752441024827,-0.032967032967033,0,0.0316880260769046,0.323612370649106,0.0345095476255954,0.059650036973133,-0.0486059137676746,0.0182460265503712,-0.0170011422240484,-0.000188815452265345,0.0620067643742954,-0.00574416676816858,-0.0713817356171333,0.0716834576710998,0.04997602354522,-0.00377222368622276,0.0843821662825741,0.00506575841914336,-0.061532189831614,0.00689055372434377,0.0343698854337151,NA,-0.14995893731045,0.0635158007744034,NA,0.032649222636816,-0.0290661269792304,0.0183822731942083,0.0731040168100079,0.0357377049180327,0.031424894370929,-0.128346459219419,0.0243016487235097,-0.0330295970229352,-0.0208504135579914
2016-10-01,-0.0606222726871737,-0.0468931993049607,-0.0993635824135409,-0.0379092475588743,-0.0924491771539206,0.0543130990415335,15.9444444444444,0.0233393177737882,-0.0332102758048577,-0.074378641795834,-0.17720893457205,-0.0203510074551528,NA,0.00606621558562748,0.0113636363636365,0,-0.0140284108973949,-0.0259416853568474,0.000752520711124083,-0.113514788857186,0.0178218217821782,-0.0236994212964172,-0.058973660334562,-0.0324834989304313,-0.0647558386411889,-0.019432720345821,0.0200650707954673,-0.0375303257406077,0.016018352402746,-0.071666070111434,-0.100866408398444,-0.00830950778861139,-0.0686061628916126,-0.0136869118905046,-0.201740506329114,NA,-6.43758876843759e-05,0.126969224711244,NA,-0.0566094265766163,-0.0420382150357418,-0.0786487642766571,-0.0545537781087311,0.0205761791706236,-0.0491937999230394,0.0390695356610102,-0.101990679137752,-0.0312973245835436,-0.0167803086823243
2016-11-01,0.211593365054349,0.118892736739411,0.0180077733760604,0.0208955223880598,0.112000026666667,0.280000060606061,0,0.135964912280702,0.0987961641751542,0.101724755299231,0.0444444084084084,0.042881645020711,NA,-0.000927551063429899,0.0112359550561798,0,0.073386269584526,0.136446552353156,-0.0220551868644016,-0.0283390703663327,-0.0961089845871991,0.161930131493934,0.106357400010768,0.0555013266250071,0.0499432463110101,0.179432174108134,-0.0272891113093474,-0.0424527686305902,-0.277027104638419,-0.000198935541154133,0.0872727090909091,0.227197696681414,0.167832066767736,0.105232726221451,0.144697720515362,NA,0.114975884057971,0.16002499478406,-0.0056448542924511,-0.0721353335461219,0.0345744723248642,0.0458997760985167,-0.0556786351156657,-0.251240745134581,0.163735814702676,0.150184748975647,0.352262344366839,0.0105957964217473,0.100230502692565
2016-12-01,-0.00353526983540386,-0.00122387884091224,0.0893417375727721,0.122807076023392,0.00239803351563461,0.0464014656059912,0,0.22007722007722,-0.0212424320973261,0.0458029678965743,0.0535940674040507,0.0126096121122217,NA,-0.0496751137569587,-0.0111111111111111,0,-0.010883201085062,0.00577849117174956,-0.0550999743721169,0.0159330277054559,-0.071459319845028,-0.0171974518014167,-0.00571903579196542,0.0232400688987791,0.0648648648648649,0.0558583414852001,-0.062375461942816,-0.0246305410630364,-0.0623052375268061,-0.06199007960199,-0.0434782281518098,0.0341392784481434,0.00598810403146133,-0.11064608945854,-0.025974025974026,NA,-0.0187752737570673,0.0406475374333648,0.0283842358078603,-0.0357756793945648,0,0.0422799583162954,-0.00734470067677973,-0.0395608955998528,-0.053727335946031,0.0413832782079848,-0.030765754115557,-0.00773461670677211,0.0707280256206773
2017-01-01,-0.0288551924330414,-0.000525142231947551,0.091880715647247,0.0234374466959661,-0.0442583264176633,0.0244343438914025,-0.940327868852459,0.056962088607595,0.038219982576577,0.125138918356468,-0.0788123777009891,0.0240029236599892,NA,0.0385931137563809,0.0337078651685394,0,-0.033149922882634,-0.082668368975423,0.183889427282057,0.104465712505734,0.0992118219749651,-0.00259240312620512,0.0227335536967164,0.0513886302973483,-0.0243654822335025,0.0258064628745056,-0.0855102876980735,0.182828276672448,0.192691096345515,0.0997136024094707,0.0472028138600906,0.105639172049347,-0.00595246008125161,-0.0458823823529412,-0.203555555555555,NA,-0.0950839471857305,-0.0660214298993876,-0.129087011850828,0.0799143389256389,0.0816194710668892,0.0770218208723539,-0.00811839498753242,0.140823876230836,0.0220014629667054,0.0221375608394563,0.0366080166821132,-0.0178416594491598,0.00567324216991083
2017-02-01,-0.0464564282009123,0.0639284993447653,-0.135918620781601,0.0992366412213741,0.151439270301896,0.0901060552166986,15.7582417582418,-0.161676696905587,0.0566658573932648,-0.00274738066686664,-0.0495319356503371,0.0422981655869521,NA,-0.099717826904986,-0.00543478260869568,0,0.104026800349769,0.0681976687543495,0.00481097343363235,-0.156197308211728,-0.156052263013592,0.067576349993308,-0.0168720139260848,0.0303690286415534,0.0104058272632677,0.116142513022323,-0.126058796313881,-0.00113865638660238,-0.250696420574016,0.0742741887580629,-0.0400668100144638,-0.0152717177626683,0.179640725734161,0.0385326768968151,-0.0323660714285715,NA,0.0322055764256131,-0.0338638409721719,-0.0858117991223794,0.0227948133465476,0.0920974558539156,-0.021454159202523,0.0400953390000622,-0.216068063664723,0.0920138888888888,0.0275164023605041,0.139696015212516,0.120282167190791,0.0559706666582815
2017-03-01,-0.0533171952409349,0.0247757185739685,-0.0786492558322763,-0.122685138888889,0.00108693478260879,-0.0441653160453809,-0.916803278688525,-0.00714285714285712,-0.0383227807021482,0.0131864329424034,0.0745543333069985,0.0471761920865743,NA,-0.11389760260698,0.0655737704918031,0,-0.0113651384000301,0.112377879075639,0.0141358637907918,-0.0618939514576741,0.0374812593703149,0.0614729406352934,-0.0542086094853882,-0.031587185957567,0.0257466529351185,-0.0232907054750006,-0.104903099675087,-0.00142487888287257,0.0483271375464684,0.00601596463995802,-0.0939130782608696,0.0215727814523425,-0.0169204743458705,-0.0234490063356784,0.0230680507497116,NA,-0.0882445668418997,0.0164719597102463,-0.0138666666666668,0.0894703194273359,0.0511425993404873,0.0638245813355562,-0.0466181895270266,0.0407523260006672,-0.0111287758346582,-0.038355234306233,-0.0607962910062253,-0.0170025346347608,-0.0482192870526965
2017-04-01,-0.0412788088924461,0.00253014056224887,-0.00685743658412308,0.0369392592644189,0.0152008906666861,-0.0105977108944468,-0.0935960591133006,-0.0179856115107914,-0.0593867763049971,0.0545032280901792,-0.0476853452213634,-0.00209914419505897,NA,0.00294817234364242,-0.0205128205128206,0,0.0338189823237265,0.0254757818169382,0.210656429856115,0.306780216077234,0.050577986512524,0.0187786249283257,0.00316823147556922,-0.0795337434221531,0.0632530120481927,-0.0234615357757397,0.12123149134741,-0.0122716891474974,0.0425531914893618,0.0560514007849748,-0.00479846467556488,-0.128746620693916,0.0671256821730011,-0.00425544047079407,0.205186020293123,NA,-0.00207388878287806,0.0791407574901075,-0.00378583017847467,0.023421286688408,0.0357142491792375,-0.0570185050157318,0.00188068124418228,0.0428637164040779,-0.020257196141479,-0.0326985267696729,0.0313217797310874,0.0128123480591344,-0.00644252297847292
2017-05-01,-0.0598705083711164,-0.0340503939019671,-0.059047619047619,-0.0814249872773536,-0.10909086631016,-0.0398457583547558,12.2608695652174,0.10989010989011,-0.0782667845227009,0.00112986439761409,0.0762669815724419,0.00938514563106807,NA,-0.0293944738389182,0.0104712041884816,0,-0.231833422903203,-0.0491148201027984,0.000742822683113209,0.0114006747324338,-0.0531865682341388,0.0441818385122872,0.00143551527789176,-0.0477883107774543,0.0236071765816808,-0.0393856430098015,-0.0229123835843139,-0.141288698604776,-0.193877551020408,0.00109868999323881,-0.0433944086169492,-0.0624371390867545,0.0919354193548387,-0.0525029641332699,0.067352666043031,NA,-0.0110842115240369,-0.072813026017112,0.0743757328990227,0.0608342699884123,-0.051974021028766,-0.0182127246236037,-0.0114714569973038,-0.144412359227388,-0.0390548852357775,-0.0501486069836554,0.0649928946141507,0.00442754571702886,-0.0382511618486755
2017-06-01,-0.127516338864165,0.0645294931255029,0.0668016194331982,-0.00277002785429514,0.104441723676268,0.0825524319500224,-0.928688524590164,-0.141914191419142,0.0249216228944451,-0.0251772024370609,0.0700702205148391,0.0192369342982708,NA,-0.0260448213204121,0.134715025906736,NA,-0.170510031981148,0.0996997026936848,-0.0296900729205801,0.00299049912605232,0.121549636803874,-0.0319363967120333,0.0728210128204985,0.00786213038517558,0.070110701107011,0.0725707991188715,0.0443798660612351,0.0491252035371872,-0.0210970464135021,0.0272689158447172,-0.158266095091375,0.0240647718831362,-0.0162481250368168,-0.074097967973648,0.0271691498685365,NA,-0.0742557338003503,-0.0273068936838754,-0.13036896764179,0.0428727483034612,-0.0664206760237082,0.0566411328221619,-0.0891444763250926,-0.00804977969617127,0.0218580063603009,0.0834963058955085,0.228707214019286,0.0207807934508815,0.0127012644414919
2017-07-01,-0.0392829072573259,-0.0594491755857323,0.00521824003795079,0.0277777777777777,0.0554347608695651,-0.0057707749381698,0.00689655172413794,0.115384615384615,-0.0447000436808388,0.163633647077922,-0.0665397341218633,-0.00943696101173452,NA,-0.00932835820895517,0.150684931506849,NA,-0.0424107151463212,-0.039595877651444,0.158538933667261,0.0580275944049355,-0.0103626943005181,0.11873603667873,0.0702833014582203,-0.0595462775850449,0.0163793103448275,-0.0049694250310367,-0.139172390780709,0.0509942270686339,0.0129310344827587,0.0817719017094019,0.116167616766467,-0.171591439874261,0.0330331241151089,-0.0177453027139874,0.127986348122867,NA,0.186530534386555,-0.247821945873303,0.122022087276124,0.0754124397856097,-0.0643703774199472,0.0561797271493509,0.0305768719285091,0.0214659418464413,0.0207218641421711,-0.0265295253564338,-0.0699365033236811,-0.0433374024267368,0.0311702074210531
2017-08-01,-0.125970893206483,-0.0659818310146744,0.0705520983824421,-0.0189189189189189,-0.0216271683136389,-0.00953573758143722,0.00456621004566204,0.189655172413793,0.0765126645859981,0.0167615072154463,0.0475975078784567,0.038107303906002,NA,-0.268047708725675,0.0674603174603174,NA,-0.253443510350572,0.117429662634613,0.0161769390499524,0.237589394372656,0.0584642233856894,0.0671892717738767,0.0469413494866755,-0.0113361375729056,-0.111959287531807,-0.0902804617961273,-0.219228243570344,0.00793405553860227,0.136170212765957,0.0182328793499626,0.0236052156053741,-0.0327201521235801,-0.186046558950781,0.0534891958908961,-0.0847201210287444,NA,-0.0497449161400846,-0.123552104172566,-0.108234081213572,-0.0350620647674702,-0.047072995840765,-0.0101950135238257,0.00865359602201865,0.095079446437724,-0.0599213764228168,-0.0532072497813728,0.0181334217578868,-0.0880219101728503,-0.0824501985421537
2017-09-01,0.0132788046316894,-0.0175166164079824,0.0460656831841675,0.0275482093663912,0.0789473684210527,0.0606948958013769,-0.0340909090909089,0.11884052173913,0.0774458619897718,-0.0881216319739683,0.0564690814264586,0.0513918645271296,NA,0.184391080617496,-0.0185873605947955,NA,-0.000283820607436702,-0.0307887794093836,-0.0651397325350921,-0.0775967770187425,0.0156636026380872,0.0471027538603015,0.0741712616265204,0.0143326785592721,0.0744985673352434,0.0663006992738908,0.148812806493296,-0.00999085709932945,-0.0749063670411985,0.0386481238427825,0.175052365302885,0.0971254833242805,0.157142928571429,0.0632145595158038,-0.0512396694214875,NA,0.0483221275167784,-0.0187958595828447,0.166666734417348,-0.0577845304621617,-0.0113996492777062,0.0763546798029557,-0.0903621281337047,-0.0514860987596536,0.101358430483627,0.0798903857450559,0.10751630543274,0.0572741912674561,-0.0155658789357687
2017-10-01,-0.176008059758308,0.00983973356118639,-0.00126415931867163,-0.0160857908847184,-0.00292686829268296,0.080899723756906,-0.0305882352941177,0.0336788618486457,0.0319316828365752,-0.0804853859272742,0.117550630040933,0.0558627307495705,NA,-0.0934105720492397,0.0227272727272727,NA,-0.145939831177177,0.00131265423995774,-0.0102519550000341,0.158754272692746,-0.0868506122910151,0.009687064885469,0.199378303743821,0.0618968560532553,-0.0328888888888889,0.00198013536994646,0.0343667379387951,-0.085932780246704,-0.125506072874494,0.0229868316866042,-0.119536148430618,0.0969961889638746,0.0385802445320838,-0.113535733284765,-0.134146341463415,NA,0.13988480422314,0.110146662675846,-0.0657043305126929,0.162560257096947,0.0390775340196108,0.0174745163303516,-0.00943160227133277,-0.0747594146252014,0.00506001245819054,0.017950987562974,0.0231631605659952,0.0210666941804598,0.0220392425761404
2017-11-01,0.235625183156966,0.0694587595665983,0.168143389529815,0.0054496457765667,0.173189889361639,0.0284775840992182,-0.00728155339805825,0.0150375431058876,0.103400014050681,-0.0238202761778029,0.115997838702564,0.189308316635207,NA,-0.175718849840256,0.0481481481481481,NA,0.424202127659575,-0.0456213173996149,-0.0201895719836652,0.107177941658472,-0.0715556000000001,-0.00352887570057059,0.0562754720473897,-0.000584168513360739,-0.00275735294117663,0.0399209967032148,0.302741605419572,0.0314486795399358,-0.134259259259259,0.0660768396579778,0.0222898286642281,0.0864897204706943,0.135215415440391,-0.0545844076138279,0.130784708249497,NA,0.0101095364766717,0.149366433000809,-0.00852418753329776,0.0780925823542964,0.0696670297817017,0.0212635657329789,-0.0342525645757673,-0.0768000266666666,0.0874764601942024,0.00587819746843965,0.139581849735598,0.0972654658588505,0.032814132230599
2017-12-01,-0.0129702772277227,0.0593889403704779,-0.0729636458906203,0.0840107813544291,0.010008306755491,0.0479233226837059,-0.078239608801956,0.0123456790123457,0.0281591915023844,0.0298887228135205,-0.0157635956708474,0.000695064874884244,NA,0.068798449612403,-0.03886925795053,NA,0.0943044117647058,-0.0615385131022796,-0.0281311408684618,0.0627591048774159,0.000957443798824453,0.0441567072708593,0.0376795997602593,-0.00357214390094085,-0.0755760368663595,0.00684149175443927,0.0740146424112718,0.0976321764515085,0.00802139037433158,-0.0277302450657902,0.128840433521498,0.0731653602753415,-0.100785416209806,0.129433962264151,-0.0124555160142349,NA,0.0625521246855005,0.0520759312203629,0.132186935401024,-0.0395298726395272,-0.0230547200624529,0.0232232227582938,0.0508322932351419,-0.00462160614158313,-0.0402198893480343,0.0743757203050164,0.158926953801429,-0.0176093115174059,0.0193058126396541
2018-01-01,0.173537924093933,0.0125454002295313,0.173193038254703,0.1675,0.0355078783733753,0.0840108401084012,0.0742705570291777,-0.0073170731707316,0.0266023471367087,0.122901565978432,0.0628128727764317,0.0203751104509171,NA,0.0689029918404351,-0.011029411764706,NA,0.0484215220046604,0.103337207259953,0.0864675115609324,0.00626736742615441,0.0387373983739836,0.0641229144164499,0.0807296585159545,0.0670055998827481,-0.0019940179461615,0.0218950077390689,-0.168216553168108,0.0567375295508272,-0.0663129973474801,0.0960638974590886,-0.00790168555045334,-0.028760675408207,0.122270778589274,0.0865352489141331,-0.0243243243243243,NA,-0.00654107776427804,-0.0608695456352083,-0.150925533934504,0.0665183077526517,0.0766961416503513,0.100567382105901,0.0237601681491411,0.00609399321224591,-0.0135664752402843,0.0842261606799459,0.0311170010314228,-0.0762570385460418,0.0530288774651821
2018-02-01,-0.0234207885019367,-0.0611704073689644,-0.166223876349653,0.044967880085653,-0.038277543249162,0.00312493749999998,-0.0148148148148149,0.108108058968059,0.0207741309946876,-0.0936249357190192,0.277372222670992,0.0621738370773768,NA,-0.195080576759966,0.189591078066915,NA,-0.0659206890774898,-0.126293423356153,-0.0918038350585439,0.375917010380623,-0.106813955194013,0.065737148238475,0.0845444574294589,-0.0480757186574657,-0.0779220779220778,-0.113779050873454,-0.0151726492313836,-0.160234824397921,0.181818181818182,0.0314606107931534,-0.0991150088495575,-0.0681720729070753,-0.119325502446835,-0.0039975707257075,-0.305632502308403,NA,-0.141164088243432,-0.0541310316745258,-0.214086037679488,0.0525657082304067,-0.13479448457902,-0.0602666488888888,-0.0924779490292056,0.156042812578184,-0.100855742022406,-0.11204012028033,0.0422490249417826,-0.0781121513219512,-0.0343316673379321
2018-03-01,0.0376367877461707,-0.116616887382478,-0.0683130864033675,-0.122950819672131,-0.0663349928082089,-0.0657320290175719,0.0676691729323309,0.0199556993328469,0.00374890741485756,-0.0898136830014794,-0.0494623840245776,0.0880153580855509,NA,0.0769230769230769,-0.025,NA,-0.00805922456981034,-0.0631642878833889,-0.0123318198804185,0.020722230330058,-0.0505154639175256,0.0141354403854217,-0.0311239760483004,-0.0154014565179817,-0.019501625135428,-0.0525218711840647,-0.225420688205121,0.0133199795764243,0.033653846153846,-0.0334372113663348,0.0530451059707227,0.0483538620820578,0.0324005292370977,-0.0284038292190129,0.147606382978724,NA,0.159460285321185,-0.0517068524096387,0.0320056899004266,-0.042013457035542,0.0443318166583988,-0.0194854139333066,-0.0120655475409835,0.0202095049795654,-0.00543849739883762,-0.102722136620442,0.034339103931728,-0.1025686745885,0.0136764458826448
2018-04-01,-0.0345846132116927,-0.0460866200973098,-0.0126122277172344,0.0280373831775702,-0.00532857913549878,-0.00233411137045669,-0.0422535211267605,0.0543478260869565,-0.0179276493216054,-0.128301496920823,-0.0703943064717706,0.002945258197526,NA,0.186888454011742,-0.0224358974358976,NA,-0.0540184221779003,-0.0431118314424636,-0.156261877482749,-0.00325221244454299,0.00271438653637324,0.0119802013587202,0.103509803792677,-0.0552042389782288,0.116022099447514,0.0576330470485704,-0.0863648020508977,-0.0437068682221491,-0.144186046511628,0.00557962791854383,0.0438433411881844,-0.0574637123265043,0.0442225119606994,0.0400381646024202,0.171494785631518,NA,0.185665117392249,-0.054526152846113,0.0020675396278429,-0.0519238311956972,-0.318374799488159,-0.0214161867097747,-0.054294489465167,-0.0848618509381719,-0.0287081128767988,-0.00858616676206836,-0.0456732549980012,0.000596283033268197,-0.06472563451362
2018-05-01,0.123809509579978,0.0382664559724235,-0.0114743236950493,0.00681818181818183,0.0821428214285713,-0.0294117312834226,-0.0808823529411765,0.121649525773196,-0.0546560801331749,-0.0377824455746912,-0.0318475910138043,0.0734142492790035,NA,0.159109645507007,0.00655737704918025,NA,0.252785480372076,0.0697831978319783,-0.0627802494520291,0.060015820249316,-0.0129939909579853,0.0456459881281444,-0.0191374401268506,-0.0251794206935987,-0.12970297029703,-0.089850254758431,-0.0286450873675165,-0.0487972508591066,0.592391304347826,0.0516030219162089,0.00268091148023397,0.0623553895799309,0.0327869143599406,0.0412466238924536,-0.0613254203758654,NA,0.132500614744607,0.0271555983439082,0,0.0274928637358558,0.128113943886859,0.0072949328214722,-0.13461533224636,0.393372575808262,0.0285009699436605,0.0390685727303421,0.083264673393797,-0.129717898291617,-0.00715190478288807
2018-06-01,0.0550458892491794,0.106156860150375,0.0639509855453351,-0.0654627088036117,0.0429043413499783,-0.0292699714438714,0.0666666666666667,0.0477940791252176,-0.0383907586206896,0.123237744755058,0.0411550036961863,0.0315520506455571,NA,-0.0519203413940257,0.100977198697068,NA,-0.0244580132581432,0.175744173527549,0.0784689731691142,-0.0214531762098048,0.207899067471201,-0.00759306291630002,-0.115004054891509,-0.0113933976561235,-0.0113765642775882,0.0393053294421297,0.0875848127396051,-0.0386560332369942,0.0989761092150172,-5.86797185274657e-05,0.0356506251568851,-0.0760100604157671,0.0171958205607361,0.00117362082314432,0.551106427818757,NA,0.18061849484455,-0.00926685770691904,0.220082530949106,0.0885537906137182,0.0323343435677046,-0.0687022509297319,0.103649615453378,0.0684695064915517,0.03147455483303,0.0268567687773005,-0.0481710213776722,-0.000913056358980646,0.00772920116281961
2018-07-01,0.0407516516009945,-0.0356774961708084,-0.0010292918472915,0.0314009163574438,0.074367103253685,0.0954238348554863,-0.0400000000000001,-0.0543859298245614,0.102438424459076,0.0387776554312571,0.00765728439844771,0.0146746461337579,NA,0.121530382595649,0.0236686390532546,NA,-0.0729344891572844,-0.0506329369611382,0.067213816893797,0.161852963040588,0.0108991825613081,0.0471685588920883,-0.0706412469715108,0.0374373379549893,0.0195627157652474,0.0664027820601363,-0.141269003761686,0.0199172484059658,0.0341614906832297,0.00328328451317161,0.160929420341804,-0.00259282268928274,0.00910267856690039,-0.024912046451115,0.00815217391304346,NA,-0.0825825792759728,0.195048181295636,-0.0800450958286357,0.0538431936731643,0.0812789045166156,0.142706950705887,-0.0152851408688252,0.0409262796791652,-0.073631880597015,0.0333694450463464,-0.00459172489518878,0.0991546949965729,0.0944397998830449
2018-08-01,0.161438813607274,0.0609213655967324,-0.0655265004229652,-0.00234196721311486,0.0279823408547175,0.00161920342031108,0.0208333333333335,0.0909090504300909,0.0417434552181464,0.0191083040528199,-0.0415554645656997,0.120578482672565,NA,0.149832842809365,-0.00289017341040454,NA,0.0100388852686153,0.048510609929078,0.0201621488222374,0.182295530251009,-0.21203948787062,0.187377195729585,0.0384229696220686,0.0106948394042909,-0.117381489841986,-0.0424742068084936,-0.165456267761288,-0.0460574814317422,-0.048048048048048,0.0403226344180294,0.051890291410984,0.0100437909740205,0.247422764108834,0.145476435226931,-0.00673854447439348,NA,0.102564032621319,0.0939226771160837,-0.0281862745098039,0.052017808219178,-0.00595175669159587,-0.0261173078189684,-0.00388062686567159,-0.0634592321621235,0.00537056951108794,0.0207714955354947,0.0679903623346334,-0.170234937222304,0.00398876304324802
2018-09-01,0.0262147352692479,-0.0101433396752172,-0.0837927049081678,0.0892019760188723,-0.00286540102297705,-0.0475267054639509,-0.0178571428571428,0.236394489795918,0.0191506657129334,0.0498711704227675,-0.0242142785714284,-0.198724916769551,NA,-0.0372310624065701,0.0144927536231882,NA,0.0340771000826998,0.0062229438913135,0.0391197620570594,-0.0380959403365768,0.0507411031504501,0.0212836457873842,-0.110199469111969,0.0322911737381535,0.0127877237851661,-0.0542635530557058,0.146424479757851,0.0876786824132361,-0.0630914826498423,-0.0607797256312835,-0.0190274708538747,0.03076740650091,-0.0547521051755329,-0.0519548661255612,-0.0244233378561737,NA,-0.0516245895093107,-0.011574053030303,-0.314627994955864,0.0672180162865383,-0.139666059635373,-0.0642115568609716,-0.0785136073872822,-0.0596575389494101,-0.0135327213760422,-0.101231173050616,0.0720187605633802,-0.0546091209724008,0.032843709910938
2018-10-01,-0.0509119402256052,-0.126947876406709,-0.025752082448907,-0.154741372640458,-0.112787330827222,-0.0665308576554942,-0.012987012987013,-0.0748279821088298,-0.0907883903347301,-0.0169080947448739,-0.0850596802206305,-0.0508441500260848,NA,-0.224169137412032,-0.0714285714285714,NA,-0.0753236759513535,-0.11051350122381,-0.0719607450980392,-0.330976761325089,-0.0689093868692349,-0.0948061646171453,-0.106671504128159,-0.236624597206718,-0.0921717171717171,-0.0223132724093487,0.0699669660055104,-0.110795419034091,-0.028956228956229,-0.129904314531776,0.0689655766944131,-0.0800136524796998,-0.0496174863387979,-0.0697481298159941,-0.00904033379694025,NA,0.0688348139130435,0.104960632212888,-0.176632934682613,-0.107502073948819,-0.130754869770411,-0.0534812725223264,0.0406504065040652,0.0209516154298022,-0.102454888086643,0.0127473171090693,-0.217132359063368,-0.0824059574771618,-0.0794599998400993
2018-11-01,0.112356112680149,-0.0282277243068875,-0.0827568922924901,0.14431411808699,0.0848582672064777,0.0327272727272727,-0.00789473684210529,0.133214387950806,0.037066191587849,0.0275619350682326,-0.0346427239722014,0.0464117767327745,NA,0.0506230529595015,-0.0307692307692308,NA,0.196436215452614,-0.0985490266899016,0.0114091903059712,-0.155811918391458,-0.0728438228438228,0.00823088373539571,0.170815583889901,0.0765831846140517,-0.41307371349096,0.0176990525343064,0.0212832523925512,-0.0299520754811472,0.319694937586685,0.0934149805723119,0.0930107233061632,0.0928941300985475,-0.0719871665133394,0.0348110075926507,0.0301754385964912,NA,-0.106576846108915,0.235452804028794,0.0949720670391063,-0.0242010156253276,-0.239722813228151,-0.0136461401430218,0.0276562031250001,0.228615251795459,0.0501166044584764,0.0197256997933497,-0.151264225260603,0.0909615336135854,0.0505261309743674
2018-12-01,-0.113949688832098,-0.250948286828966,-0.0385133305005836,-0.207664874881244,-0.131064326946241,-0.132394401408451,-0.0291777188328912,-0.160850192578059,-0.0892451621521682,-0.134356043097593,-0.14288086713473,-0.0664322196170379,NA,-0.137138621200889,-0.0444444444444445,NA,-0.0567376043710069,0.0295104292421193,-0.140171279301677,-0.018904112672064,-0.212445003142678,-0.0832938269034724,-0.0553154038138428,-0.0852981351564691,-0.113744075829384,-0.205491905415181,-0.224705550446827,-0.150267675987333,-0.16500267130832,-0.119632948780847,-0.154574520413182,-0.131730426988618,-0.103097873759498,-0.0592293864068252,0.102861103542234,NA,-0.122750826456045,-0.0966937727685383,-0.223469387755102,-0.0859523097311625,-0.144390458801327,-0.0306960238087342,-0.146115211165359,-0.15797688598117,-0.150068921790121,-0.151068481044003,-0.248088580963768,-0.0150873482024179,-0.012218153884401
2019-01-01,0.0110503615054456,0.183302196384565,0.08543414326515,0.173228336713817,0.168871365209953,0.155438317996685,0.00546448087431695,0.00437770481550959,0.0318706282255026,0.161701185522332,-0.195803523415268,0.0596484315539647,NA,0.162371134020618,0.00664451827242529,NA,0.0505638712300023,0.0218241035236448,0.236637560738581,0.0467387591912189,0.19632881085395,0.0906039846178117,-0.0777676092308286,0.182545969605806,0.227272727272727,0.198732574483304,0.0845344760420723,0.14147287507136,0.0484581497797356,0.131890909191919,0.042327330909091,0.0854134187574993,0.0221056375270969,0.0990219407389381,0.0809140777693589,NA,0.0345457903096795,0.0155387091000936,0.0893561103810774,0.0381110198448844,0.322603573964497,0.0593220338983049,0.186075516381766,0.0637746025912977,0.162685925985198,0.0614148844872011,0.06556798622777,0.127385168701563,0.0132195195204123
2019-02-01,0.0162060430189581,-0.0258460279485562,-0.0900645677419356,0.132310636034965,0.0755437819584983,0.0214260983992307,-0.0217391304347827,-0.00342468877411872,0.0416042425355851,0.0418668373430058,-0.0080557654937059,0.158799068560161,NA,0.066518847006652,0.00990099009900991,NA,0.0649490260323677,-0.00796939725950274,0.0518663830307906,0.0146766165503329,0.240160106737825,0.109230804733728,0.0958332898478853,0.0276001120011922,0.0566448801742918,-0.0259490137499488,-0.0610632543103449,0.0776740270659604,-0.0942376950780313,0.0921708438638207,0.06488966983591,0.0110193558754188,0.0792104850386328,0.0428253905123859,0.0634286285714285,NA,0.254454940528898,-0.0436926215572935,-0.0627261761158021,-0.0424979457800866,-0.0306013416141492,0.0679999999999998,-0.0743131800883774,-0.0733705633779964,0.0588371782945736,0.0200367818442035,-0.171602520098758,-0.00452927283601268,0.0180505795745474
2019-03-01,0.0540857958591037,0.011445063583815,0.0130460302351691,-0.017358254980599,0.0852691719048919,-0.0512379642365887,0.0305555555555557,-0.0299905985623615,-0.037508288476708,0.00579861406397475,-0.028727309090909,0.0327254485333373,-0.109837873388426,-0.0325710325710324,-0.022875816993464,NA,0.0181451276881719,0.126285278718339,0.0386626813847091,-0.148443254512301,-0.0381926304464767,0.0121625942975805,-0.0606554227774759,0.0215014905704232,-0.25360824742268,-0.0730142642541776,0.0550880281211945,-0.0464749919840485,-0.0596421471172962,0.0460374377898982,0.133796347367222,-0.0201398521435919,-0.0388276322057932,-0.0933333333333334,0.121440079449754,NA,-0.0570450061239123,-0.0602666488888888,0.0321750321750323,-0.119816623470864,0.0112608643625942,-0.112556672580327,-0.0325980862795977,-0.0323490138179053,-0.0475143875104878,-0.0314692128977593,0.0673287812245793,0.187500056872608,-0.0475301682131645
2019-04-01,-0.0246876914600814,-0.0850382348848607,0.173852150788014,0.0534253362096224,0.0912868318128137,0.108372598767669,-0.0161725067385445,0.0524960081319166,-0.0688584680735365,0.0699893278373143,0.128166796262329,0.111074434725202,0.0320250863422291,0.0472779369627505,0.00334448160535117,NA,-0.0559405794039796,0.107275381092022,0.0721092955923521,-0.0385778028130443,0.0106264547330233,0.112364242256849,0.0454896097631148,-0.0058823668653849,-0.0662983425414365,0.0947311965225606,-0.0703408629441624,0.0801322214015787,0.0387596899224807,0.0857584590150413,-0.0310910204955277,0.0113650466855888,0.0140735213467167,0.0232353235294118,0.194537556562647,NA,0.051844055337819,0.0287552018775028,0.0423940149625934,0.192471510773129,0.123950367359444,0.109284740115504,0.0761106428797773,0.0345966757124065,0.0364334341383503,0.0018625827814569,0.266840332458492,0.0310546682798951,0.0726322326205526
2019-05-01,-0.0680616072845645,-0.141161806077634,-0.0586691867398044,0.0507157443470043,0.0234221650726241,-0.130150425114454,0.0383561643835617,-0.0309057527539779,-0.0169136172839506,0.0151135159076834,-0.0320796674318657,0.0617944592988711,-0.249771805590867,-0.10875512995896,-0.0499999999999999,NA,-0.312183207694165,-0.0381344746680115,-0.0256625130101058,-0.0245545586980902,-0.17819590481461,0.152184186034153,-0.0634218818797242,-0.0946745962878849,0.00295857988165693,-0.140981968089801,-0.124024965835607,-0.0730401529636712,-0.277476255088195,-0.0698809396267148,-0.0491471179972059,-0.155289870764139,-0.158314058082755,-0.0408163828451745,-0.0429201363818692,NA,0.0138381918699979,-0.152629622055358,-0.175837320574163,-0.047051797638511,-0.144550950138054,-0.145174211957834,-0.143480319567524,-0.205898929175277,-0.161153927948796,-0.083453852509812,-0.23487076278288,0.0535888508979299,0.00977344865292396
2019-06-01,-0.00554839354838721,0.0191273090909092,0.0625791217993634,0.0186842733092927,0.0958286390922878,0.0902255639097744,0.00791556728232168,0.107357120303126,0.0592741577021534,0.0487792080290619,0.0387428457142858,0.0456070909789974,-0.00811034063260341,0.132770529547199,-0.024561403508772,NA,0.065311312086979,0.00214299479544611,0.0580134102255121,0.197083585661287,0.159595892255892,0.100501705748884,0.06692917454585,0.0859122464117212,0.126843657817109,0.0882850925161733,0.162065946663666,0.094471988448845,0.164319248826291,0.0679680263569546,0.0701292694784754,0.0509481714719404,0.0955725496183206,-0.00449499563964617,0.116093792284418,NA,0.2019090818419,0.0358072467097548,0.00435413642960825,0.0914583124999999,0.020884792894809,0.147809818407351,0.018552200800291,0.0951029335225928,0.121121005029431,0.0664863886970113,0.109809963524669,0.0833488413467394,0.0268505914702353
2019-07-01,-0.0227066304833698,0.119817258266707,0.160705797823219,0.117692013756209,0.00524693431832102,0.0579310344827586,NA,0.0399201881950386,-0.00735026691998264,-0.0247987959248738,0.0611728249661438,0.0373294229951679,-0.0322975892190347,-0.170054200542005,-0.0323741007194244,NA,-0.0205151965894654,0.052659743384122,-0.028148373383475,-0.132837559503463,-0.0656213162381716,0.0219714673338534,-0.0542435967851735,0.0749819539513541,-0.0418848167539266,0.109204422153376,-0.00574708812260538,-0.0184696562959045,-0.0685483870967741,0.097434837923658,-0.0127784755177559,-0.043226486850889,0.0100334724070941,0.0863937060086182,0.0150207290657429,NA,0.0385429812965115,-0.111041273831971,-0.0245664739884393,0.0853216660683656,-0.0680676771433885,-0.0320408163265307,-0.0358928214285713,-0.0462302647174279,0.085087991248135,0.0230346576500422,0.167272129955507,-0.06699794264911,0.0067830381314995
2019-08-01,-0.0842405873887452,-0.216479744028546,-0.0250616474938373,-0.00512820512820511,-0.0229249618557462,-0.103324641460235,NA,0.057855797700691,0.00907673441741075,0.0628210874614525,0.189113588049153,-0.0276022188520859,-0.438529784537389,-0.0293877551020407,0,NA,-0.118606962527838,0.0599289217895145,0.0420224677716392,-0.122578698325242,-0.151025481665631,0.0579158903107861,-0.0792040023099493,-0.0857393791911973,0.158469945355191,-0.126113426307249,-0.363776517773545,0.00307219650260393,-0.243290043290043,0.00578522918326452,-0.0770692088477521,-0.048275860030576,-0.195088344641924,0.0958714048212801,-0.0554938936184279,NA,0.117506130652164,-0.115248621258543,-0.306666666666667,0.000879335193820996,0.114947074137955,-0.0390048070841239,-0.0487127412960644,-0.139524342490403,-0.0152616708461482,-0.0380086758934104,0.0500888833688997,-0.0422405685538922,0.0927187374832295
2019-09-01,0.198985122123634,0.0421310136347544,0.0682680587498539,-0.0786941924398626,0.0128835863320038,0.0603416939294803,NA,0.0451010344685829,0.003432370776006,0.00617690623479006,0.149533470232218,0.0655259724834325,-0.105342362678706,-0.0353238015138772,-0.0148698884758365,NA,0.192594672356857,-0.00359372287524085,-0.00273139451377269,-0.0527468992248064,0.121522693997072,-0.136794091889045,0.139406734334603,0.0729727667156552,0.0448113207547169,0.0542488980807168,0.186553603876438,-0.0892036719294154,0.0766590389016018,-0.049865478709848,0.0165980569145903,0.0726115909814438,0.147068872128899,0.0088496335992323,0.0101840967417117,NA,-0.169563486601147,-0.0330314855345902,0.00427350427350448,0.039008979089791,-0.0563808494072104,0.0982886968719308,0.119548264806303,0.0181626207863848,0.0216974317343173,0.0831006871376423,0.010019743014116,0.0222435082552825,0.0646595029151071
2019-10-01,-0.0176541602534761,-0.219542682449751,0.00295852065170576,0.102946702832775,-0.0327817797140159,0.0719917723688721,NA,-0.178323387896825,-0.107808446659689,0.135251845763999,0.00212377888725057,0.0287563418708741,-0.166105971404542,-0.0810810810810813,-0.0264150943396226,NA,0.0081093141797961,0.0218802596778072,0.127436813275334,-0.394057968227326,-0.00718015665796345,-0.0123318468689586,-0.115470418658803,-0.0803878569713636,0.0948081264108351,0.0146739130434785,-0.130168402246044,0.00336275731976654,0.0255047821466525,0.0774300631994329,-0.112643978923074,0.00937543098546012,0.0424387938565092,0.0305763643821371,0.00310197739038487,NA,0.0285102295392028,0.0347107998542919,-0.0680851063829788,0.0287502278242817,-0.0476100522077002,0.0225728721020202,-0.0831304173913043,0.0444674767321613,-0.00902918218680759,0.0235924271132519,0.067486404918262,0.0275745258380318,-0.0244058761481413
2019-11-01,-0.0332348235656037,0.0691000399999999,0.00471980352880252,0.119039567128847,0.0266224529736176,0.0655580428525744,NA,0.0733474170435431,0.0159968140665891,0.0045954453659891,-0.0301241004436914,0.0769603228092972,0.443267776096823,0.0635673624288426,0.00775193798449614,NA,-0.0795219296493647,0.0609411764705883,0.0144326229880272,0.266001107868435,-0.00920447074293229,0.053105263599976,0.0178683624132856,0.00538399029040582,-0.0288659793814432,0.11944295661489,0.123239312016472,-0.0992878466992944,-0.281865284974093,0.0270968142906627,0.0469262723302486,0.00273193556524975,-0.0146216165532793,0.0454767277596482,0.00618476976479432,NA,0.0263312936948716,0.0402023152235806,-0.248858447488584,0.0435639965949697,0.245170309603074,0.00586057835242393,-0.0424886372820821,-0.297029737770805,0.043370485554771,0.0548130533640703,0.0823298407767059,0.0321285511524017,0.00224851925306435
2019-12-01,0.0196078556199661,0.049480804434354,-0.0481503033861813,0.0785735569658506,-0.0213496778176322,0.0570228391356544,NA,0.07170978426013,0.0175666757987423,0.0320630979752965,-0.0184954114132621,0.0217977752808989,-0.0775681341719079,0.00267618198037467,0.0307692307692309,NA,-0.0264668421090346,0.0194056331780883,-0.00197210880327114,0.128014845269361,-0.0145985401459855,-0.121179437379163,-0.0371747020724784,-0.00304949058496462,0.169851380042463,0.0224880861244021,-0.0532914343412452,0.0139534418604652,0.0606060606060606,0.0473816830403819,0.0653950254660756,0.0689278943507481,0.00261856277621653,-0.000930472159550111,0.107952320094033,NA,-0.0168349315210123,0.0317379319170719,0.288753799392097,0.0712035286704475,0.0283109564939219,0.0462225074296947,0.0677496434231379,0.0697182746478873,0.0463881517841844,-0.0121189866345756,-0.0361592082196347,0.000884311975869911,0.0250372154643592
