"Date","ABT","BRK","BTI","BUD","CFRHF","CMCSA","DEO","GHC","GOOG","HAS","HKHHF","HRL","JCDXF","JPM","MA","MKL","MLHR","MLM","MO","NSRGY","PDRDF","PG","PM","SNI","UN","V","WFC","XOM"
2008-10-01,-0.0422021535255298,-0.55591054313099,-0.123225806451613,NA,NA,-0.19714722363729,-0.0968632283348354,-0.233421980582799,-0.102766379016555,-0.162154402011682,-0.25625,-0.221058434399118,NA,-0.116702374374681,-0.166412902498167,-0.00187767852062592,-0.100939889699219,-0.300053626539017,-0.0327620463709676,-0.104772989411572,NA,-0.0738987064457252,-0.0962577378901346,NA,-0.145951740056818,-0.0983873595048054,-0.0927258218152364,-0.0455833224010651
2008-11-01,-0.0500452931241749,13.1588489208633,-0.0356880426784401,NA,NA,0.100253807106599,-0.0935841790253125,-0.0723992129319345,-0.184772904728221,-0.0787212444138879,-0.126050420168067,-0.0601556970983723,NA,-0.232484848484849,-0.0170477607901502,-0.122106933326952,-0.331363636363636,0.118142413299659,-0.162063618443793,-0.0572171896692538,NA,-0.00294395719020835,-0.0301357480990168,NA,-0.0282743462899935,-0.0504065040650407,-0.151541854670833,0.0813545433882403
2008-12-01,0.0187058193703293,-0.15859111418235,0.013162953573558,NA,0.112121212121212,-0.0265282583621684,0.00656382839389447,-0.0142713334092596,0.0501433212364135,0.0884328764340627,0.0846154230769232,0.170180722891566,NA,-0.00410609602021472,-0.0163110805230557,-0.0292207792207793,-0.114208021753909,0.10771340834908,-0.0634328358208954,0.0951724413793102,NA,-0.0393162094581573,0.032020825426945,NA,0.0504919961278563,-0.00209284627092843,0.0204223267712818,-0.00399251393655597
2009-01-01,0.0387858737905518,-0.758448271697384,0.0374693654678968,NA,-0.155313351498638,-0.132109004739336,-0.0422982360839537,0.000794387298373112,0.100373773463043,-0.17278028796709,-0.0602837212665347,-0.0402187902187903,NA,-0.190929299367926,-0.0500244875113692,-0.0968896354515049,-0.156561780506523,-0.170581012142954,0.0982736387782204,-0.132241810270987,NA,-0.11840828210935,-0.146173208281922,NA,-0.10509165397522,-0.0591039084842707,-0.358887381275441,-0.0419641602915156
2009-02-01,-0.146103928205117,-0.849,-0.0736841769032369,NA,-0.0709677419354838,-0.108532423208191,-0.144460765550239,-0.0769920315622943,-0.00159507409107928,-0.0513883154325866,-0.109433962264151,0.0670465973851828,NA,-0.104272834182673,0.163868021799971,-0.0156278969582192,-0.0828025477707006,-0.0491803172819295,-0.0665054977928962,-0.0563135832710137,NA,-0.116146825688073,-0.0990578950709073,NA,-0.130177429684908,0.149138804457953,-0.35978835978836,-0.112186201143324
2009-03-01,0.00760451871141199,0.937086092715232,-0.0987460815047022,NA,0.0104166666666667,0.0444104134762635,-0.0374274451526159,-0.00940387466961856,0.0297937318963977,0.0952381430859828,-0.00550851694915266,-0.003770028275212,-0.288888888888889,0.163238512035011,0.0597987091058658,0.0679809154507423,0.0575396825396826,0.0357889899631398,0.0375647668393781,0.0319901896025956,0.0212611670227361,-0.0224205531418123,0.0630415577220926,NA,0.0256409719706452,-0.0195732675013225,0.176859504132231,0.0029454491032268
2009-04-01,-0.122641471098696,0.675213675213675,0.0569564782608694,NA,0.247422680412371,0.133431085043988,0.0692736983240223,0.172192689130194,0.137648734102035,0.063422417231751,0.00127827018654769,-0.0132450331125828,0.174107142857143,0.241534988713318,0.0953546749077305,0.010990541584639,0.394934333958724,0.059646857768719,0.0193508114856429,-0.0327868266106357,0.0613879170571545,0.0499044170736886,0.017425490869843,NA,0.00969392857142859,0.168345323741007,0.405196629213483,-0.0209985321879159
2009-05-01,0.076702459158859,-0.209183673469388,0.126079848872063,NA,0.212121212121212,-0.109314359637775,0.140229953614627,-0.139969889587867,0.0536909142578847,-0.0468867216804201,0.261702127659574,0.110258868648131,0.160456273764259,0.118181878787879,-0.0388116674195512,-0.00696864111498263,-0.0430396772024209,-0.0304652865698595,0.046540110226577,0.123882892946598,0.0385582384389527,0.0505663440648532,0.177900492323191,NA,0.209701859034772,0.0423337438423645,0.274362818590705,0.0401979913063746
2009-06-01,0.0439414597377856,17.6263870967742,0.0191780821917809,NA,-0.0840909090909091,0.0501089324618738,0.0493034998294812,-0.0217222519333031,0.0104498747938175,-0.0460448642266825,0.082630623946037,-0.00575705238917679,0,-0.0756097790997409,-0.0511539755659259,-0.0115789052631579,0.0780042164441321,-0.0317908919627974,-0.0409596840257461,0.0315327109533119,0.0153349634328497,-0.0161725263028981,0.0229831149855328,NA,0.0100250204667911,-0.0804903263919656,-0.0486274509803921,0.00807506872602937
2009-07-01,-0.043579887665779,0.237238880672234,0.114516093189964,NA,0.210918114143921,0.0276625172890732,0.0896070043668122,0.282014888731557,0.0509025084363157,0.0932343234323434,0.0607476984889532,0.0396641574985523,0.18610747051114,0.133098823421318,0.159703475004275,0.120234268928608,0.0827901564537159,0.0911511571178176,0.0695547327367136,0.0919724373198416,0.240063553575086,0.0863013732407583,0.0683172642897125,NA,0.12489665012407,0.0513973658849984,0.00824398186314923,0.00686589862017462
2009-08-01,0.00533442588305122,-0.939809967469387,-0.0234764117535428,0.0809464467772629,0.108606516393443,0.0309555854643337,-0.00545046480521849,-0.0379622771571779,0.0420268770365322,0.0713207169811321,0.0646108976390867,0.0289612921191871,0,0.124450109989645,0.0443230428284287,0.0421141987679456,-0.0234799504226401,0.0175438828860233,0.0427837967607645,0.00900679118759529,-0.00589742307692298,-0.0252206278227571,-0.0190986918068109,NA,0.0268381975427132,0.0861594867094408,0.125102253683657,-0.0176160962866331
2009-09-01,0.0937431412686573,0.167441860465116,0.0414951424337231,0.0585252738006785,0.0624769339178164,0.101827676240209,-0.00886523196542177,0.0776313799444601,0.0740355758360807,-0.0225431145665063,0.10620684137931,-0.0387009472259811,0.132044198895027,0.00828350226147045,-0.0023688496273998,0.0029192423638893,0.0425401382577153,0.0512673886442705,-0.025711267740084,0.0299155119441372,0.0185710856516497,0.0704120667083337,0.0662875315311209,NA,0.0332975653419263,-0.0279887482419128,0.023982558139535,-0.00780912486452279
2009-10-01,0.0222357405336921,-0.099601593625498,0.0154941343873518,0.026991750696381,0.0205288796102991,-0.140995260663507,0.0574076253892462,-0.0770808203715795,0.0812140271342021,-0.0172972972972973,-0.0448877578497635,0.0264639639639639,0.00536847242557359,-0.0467822911912368,0.0834528815236211,-0.0215875169755847,-0.0863394441159078,-0.095036385358966,0.0168445826414703,0.0897165867818364,0.0850847524024532,0.00138125004769507,-0.0283135195603809,NA,0.070339498602235,0.0962234698307047,-0.0234208658623137,0.0445998681737374
2009-11-01,0.0775162696112064,13.3859734513274,-0.0460844436503539,0.0659177829588811,0.167746334810774,0.0110344827586206,0.0398339606198381,-0.0425694578309277,0.0874431487964513,0.0872753942060873,0.0704961115012039,0.0290729566648382,-0.00970873786407778,0.0172372994972469,0.099716920829148,0.050511271750433,-0.0168284789644013,0.0236437950072013,0.0386525655078649,0.0193464746345657,-0.0087514588827815,0.0749999655172413,0.0154138299110256,NA,-0.00258983498186582,0.0691657302446815,0.0188953851744187,0.0474396831990982
2009-12-01,-0.00917599559552218,-0.048000295272866,0.0553289374897992,0.0345992834639235,-0.0233576350364963,0.150068212824011,0.0266233245581524,0.0628369387633387,0.0634305492941809,0.081281652613828,0.021951268292683,0.0247867803837953,0.102941176470588,-0.0192987517392916,0.0627750560491571,0.00294985250737456,0.0526662277814351,0.0483058148867883,0.0435938353851055,0.0196119788954863,0.0141260158019783,-0.0275861596659553,0.00207941359950081,NA,0.0493347305853533,0.0797530864197531,-0.0374465393207369,-0.0916477687491672
2010-01-01,-0.0194480459344323,-0.923752168701558,0.0290750987271824,-0.043052047723468,-0.0104634675496722,-0.061091340450771,-0.0319838909676478,-0.0113284830135326,-0.14523053259161,-0.0470992499345212,0.0119331736547412,0.00650195058517555,0,-0.0655147379656702,-0.0237518556137198,-0.0440882058823528,0.0562851156973108,-0.114416771528161,0.0117168625428867,-0.0173733202636328,-0.0615206486007975,0.0151739730302825,-0.055613219664105,NA,-0.0541293501930499,-0.0620855248113422,0.0533530937384217,-0.0551400775732489
2010-02-01,0.0253117129618767,11.8212288135593,0.0204388638412984,0.00321349662154047,0.027190394392169,0.038534428300695,-0.028426893036854,-0.0329252748921537,-0.00592512637200915,0.171194768287881,-0.0566038180847256,0.0622739018087854,0.1,0.0778120718493085,-0.102160864345738,0.0853511865680689,0.0775608098022977,0.000505190704723324,0.0130916408312367,0.0469375730135793,-0.0742115046187137,0.0281072303510517,0.0762470259831698,NA,-0.0160235448005231,0.0396196513470681,-0.0383397819205065,0.00884681049200675
2010-03-01,-0.0294768242956172,-0.882345553752549,0.0147275400669356,0.0100100098096094,0.122058882352941,0.145377128953771,0.0332413914405849,0.0567914684042794,0.0765375795169394,0.0698714385095427,0.0874999999999999,0.0218924835806373,0,0.0662377634920712,0.132058653117618,0.0621119886605246,-0.00769241715975744,0.0546579392242119,0.0198806650158714,0.0293526124104297,0.127588567203435,-0.000158012012610675,0.0649244589628419,NA,0.00232635427052186,0.0674249530956847,0.138258997805413,0.0304615846153846
2010-04-01,-0.0288534548215642,0.0280898876404494,-0.0791001718693709,-0.0396432103143071,-0.0235911389991539,0.0499203398831651,0.0102298299583321,0.141789363280677,-0.0730357789118782,0.00208991646002943,-0.052873540229885,-0.0297548202808855,0.133333292929293,-0.0484915754189944,-0.023464527559055,0.0218331071175668,0.172757540019797,0.147576224503547,0.0326511208576998,-0.04492185459137,-0.00177727483940104,-0.0175438596491229,-0.0590490414110428,NA,0.00331564986737409,-0.00878826760408646,0.0639460133693441,0.0117944754347057
2010-05-01,-0.0703674745895231,9.16232240437158,-0.0772261623325454,-0.0111455312457064,-0.13557044295302,-0.0849772382397572,-0.100675082193647,-0.0816901972950423,-0.076222148328459,0.0466632156761413,-0.125000045509708,-0.0235525024533857,-0.0338680582484155,-0.070455609654504,-0.186542525941682,-0.0974036370013963,-0.0920679886685553,-0.0276386533470585,-0.0424728625543719,-0.0768916737467619,-0.124629080118694,-0.0172136422136421,-0.101059551709065,NA,-0.0974884666226042,-0.196941185993963,-0.133494408532334,-0.107864812211811
2010-06-01,-0.0164003364171573,-0.929289860488626,0.0811272416737832,0.00208720517637229,0.200310583841286,-0.0398009950248756,0.0238251146185562,-0.118631001172401,-0.0837674483084216,0.0236611694315731,0,0.0170854271356784,-0.0147601107011071,-0.075037919401823,-0.0111017990781583,-0.016061317299192,-0.018720696827873,-0.0903143272450608,-0.0123213399545914,0.0686753005909462,0.0569491118644068,-0.0181699132427567,0.0389846110377292,NA,0.000366202869505949,-0.0235992271598122,-0.107703063516798,-0.056070113398447
2010-07-01,0.0491663103890552,0.152091254752852,0.0889415481832545,0.105186486364778,0.0206985500285355,0.120898100172711,0.113802913171727,0.0243860910813651,0.0896730059640716,0.025547543822265,0.0887656335302534,0.0602766798418974,0,0.100245777103366,0.0526738361486412,-0.00588235294117645,-0.0885002602808554,0.00695677412938989,0.105788367974632,0.0230098663760419,0.0051315075740157,0.0196732244081361,0.113438067190227,NA,0.079428989751098,0.0367491166077738,0.083203125,0.045733309970212
2010-08-01,0.00529747351263254,-0.0198019801980198,-0.014362367619324,-0.0205427813693406,-0.0342206074975765,-0.121725731895223,-0.0626788378368134,-0.143308986871504,-0.0718366818313352,-0.0424674001201707,-0.021656,0.00535880708294489,0,-0.0973187213832849,-0.0556084555322797,-0.0304141982248521,-0.0470931367969107,-0.14285719805955,0.0072202166064983,0.0445795560113296,-0.0222080031195406,-0.0243623610202747,0.00626959235365221,NA,-0.0915564259070871,-0.0595773142467619,-0.150739307609088,-0.0095509215817694
2010-09-01,0.058775883344178,12.5741414141414,0.099646714758707,0.130459858948242,0.253280905684037,0.0573099415204676,0.0535878167938932,0.108763797034035,0.168370377031328,0.102824501912178,0.134114498223203,0.0336037079953651,-0.00374535566496792,0.0467546741816645,0.12925993143779,0.0514768550852043,0.200732227012338,0.051502788996016,0.0761648745519712,0.0364694672448005,0.0971152839431499,0.00502770253151352,0.0907320659904192,NA,0.115341466392629,0.0765439213369719,0.0666667544232169,0.0453391973381967
2010-10-01,-0.0176110253310695,-0.922857879906338,0.0203453888368359,0.0706383319148935,0.0261780104712042,0.14103982300885,0.072308330030189,0.00686013903425708,0.167195907958855,0.0390923854905589,-0.0057405282604025,0.0295964125560537,0.0827067293233081,-0.0112979503074632,0.0716964732142857,-0.0277721556373911,-0.0228658536585366,0.0456022080602545,0.0582847626977521,0.0265767920643833,0.0612729781818091,0.0600299973314991,0.0444483755801499,NA,-0.00635870168536468,0.0525181765409006,0.0374203010581089,0.0760640382575815
2010-11-01,-0.0937256798296672,-0.15112540192926,-0.0436836130823239,-0.126550123162158,0.106122469387755,-0.0285991274842462,-0.0316215675675675,-0.0624891415702846,-0.0944924061412424,0.0304864864864864,-0.028868360943842,0.0688153310104529,0.0694444468557101,-0.00611211782853793,-0.0126219273255884,0.055131041748079,0.12012485699428,0.0504472893719947,-0.0558615263571991,-0.00218774848451231,-0.0868834109938367,-0.0393267264432908,-0.0276875586288688,NA,-0.0441226660787247,-0.0551433441584779,0.0441289349243645,0.0461723581342264
2010-12-01,0.0301010983487797,11.2824242424242,0.0658435372882431,0.0391336192051988,0.0784132826861017,0.0963073852295409,0.0372592499436646,0.165720620936595,0.0688488624810608,-0.010071338648762,0.029964376455752,0.0444172779136105,-0.0162337667608365,0.13422448480083,-0.0545078705019563,0.0697049865542161,0.17455885911983,0.0910811084565755,0.0258333750000002,0.0747304951580487,0.152854578987891,0.0533813983952842,0.0288275624684051,NA,0.106413005863742,-0.0469871902505078,0.138919556740888,0.0511789117647761
2011-01-01,-0.0573993313414729,-0.91176724563308,-0.0460745712264902,-0.0311788229111929,-0.0701454735646626,0.0355029585798816,0.033230202253997,-0.0253697090376925,0.0107581393808123,-0.0654938533276811,0.0182405213982793,-0.0362856028092079,0.0495049521288764,0.0594059669686924,0.0553299743576803,0.0644487204870188,-0.0462450611164057,-0.0947527991056548,-0.0450853352930408,-0.0782046752805168,0.0388711493318179,-0.0186538312248149,-0.0220399286184849,NA,-0.0563694585987261,-0.00753049204492706,0.0461438528557601,0.103391639631087
2011-02-01,0.0651019062046447,0.0346032855644878,0.0945763061366349,0.0130175011206382,0.0441582720941407,0.132307692307692,0.0190104029032394,0.0110657007504087,0.0217203457195472,0.0183715581764572,0.0340136069847441,0.109311740890688,0,0.0389408108353539,0.017124054675238,0.0326707925465839,0.116452636405,0.0641916287425148,0.0791153126329223,0.044264071481666,-0.0618145137319985,-0.00126725801889338,0.096785408917351,NA,0.0205872771038569,0.0458125125268434,-0.00493522547410408,0.0601140183440754
2011-03-01,0.0197504322335262,-0.0777027027027026,-0.00172562558179779,0.0203462255996114,-0.00176207929515415,-0.0403726708074535,-0.026066968411271,0.0103212634880889,-0.043430073954872,0.0432070804807536,0.0502193223780403,0.0160583941605841,0,-0.0126365605619311,0.0463917941469905,-0.00288700112431606,0.0204157008011987,0.00911542866176651,0.0260149772954286,0.0151889970891734,-0.00131113422130036,-0.0229976371609458,0.0453965919942114,NA,0.0370370701058202,0.00780287431606452,-0.0170489471202074,-0.0163685492384958
2011-04-01,0.0609582509939051,-0.0307692307692309,0.0890233137183187,0.11894355847275,0.129744002480353,0.060275080906149,0.0675675929209185,-0.00379376469360393,-0.0727044004878891,0,0.0931300708525804,0.0563936781609196,0.0566037439183567,-0.0101951631321112,0.0960193828055227,0.00682829513345506,-0.0534739905420153,0.0169510876982513,0.0311179012248213,0.0821155358385526,0.0987964748622217,0.0535714952458277,0.0580527986310895,NA,0.0522958848119934,0.0611246910554366,-0.0819930016396405,0.045762583350621
2011-05-01,0.00403535741737127,-0.017384731670446,0.0243764410148046,-0.0545568382904982,0.01171875,-0.0370087752766121,0.0457170070400514,-0.0580638100084689,-0.0277154842604153,-0.0234841588385994,-0.000955090771923239,-0.00272016320979263,-0.0327380376629784,-0.0523777985453034,0.0404508666334094,-0.00865123180754235,-0.0353574173712529,-0.0606425910594892,0.0454545081967213,0.0342443885169714,-0.0306681469680375,0.0323574412216505,0.0332660992722897,NA,-0.0103030303030304,0.0376343042685967,-0.02542081671519,-0.0512616713595702
2011-06-01,0.00708133971291858,-0.0380769230769231,-0.0260099397013822,-0.0408399801587301,0.0092663783783784,0.00396196513470692,-0.0378422041528831,0.0203609497765931,-0.0427961021446511,-0.0395715330314154,-0.014340344442454,0.0163654960791,0,-0.0531915562816118,0.0497823027347153,-0.0407571602247127,0.0844621115537847,-0.0664254346754409,-0.0588025323878307,-0.0303124660247952,0.00924501303020064,-0.0511940298507463,-0.0694077073170731,NA,0.00581745254133503,0.0394770313090074,-0.0109271057128268,-0.0250389837661557
2011-07-01,-0.024705395587196,-0.182327069172331,0.0388636136363636,-0.00741244638553507,-0.00290732985179276,-0.0520915548539858,-0.00769518721038764,-0.0397422200957741,0.192167947258732,-0.0994764170270885,-0.0048496606178402,-0.0281784636028178,-0.0295384307692308,-0.0119686861741252,0.00633835513578163,0.00909759083237605,-0.154665655939223,-0.0543953725847771,-0.00416512684589176,0.0219621509784842,0.0127226463104326,-0.0327198049394368,0.0658978762572056,NA,-0.0112632579155714,0.0151910270500344,-0.00427647912603257,-0.0195379215853252
2011-08-01,0.0231877994440803,7.01281173594132,-0.0197987096871298,-0.0402918360440488,-0.170503442571919,-0.104496253122398,-0.0120629742014519,-0.115684824040529,-0.103910907392343,-0.0207279822869568,-0.198635442468527,-0.0469451156368657,-0.169308808836119,-0.0714462281471885,0.0872547374359527,-0.0160831172042343,-0.136462364189483,-0.0633430416552614,0.0338403815148436,-0.0261960470588235,-0.0984924924623116,0.0356155135594238,-0.0259940712658162,NA,0.0467980295566504,0.0273555763385549,-0.0658554378720316,-0.0723148756446312
2011-09-01,-0.0260902685202818,-0.915050469297336,-0.0544581631514339,-0.0412594658436288,-0.166512491517345,-0.0274291027429102,-0.0539496871679619,-0.080925327549604,-0.0479148787973854,-0.158234400710666,-0.0681099472607651,-0.0213690691778341,0,-0.198083061818875,-0.0380637821702775,-0.0935326792505724,-0.101157518814418,-0.107440361218683,-0.0139757994124385,-0.112435627821017,-0.123188354175753,-0.00785175879396982,-0.10011539238315,NA,-0.0738235294117647,-0.0245789269266693,-0.075862030651341,-0.0187787092182671
2011-10-01,0.0533829113062525,0.0201149425287357,0.0887524565678055,0.0469988863722162,0.325638231423712,0.120936902485659,0.0915316344001054,0.0403400841982315,0.150667947466921,0.16712664314239,0.164447920531247,0.0906735751295336,-0.0591603412534222,0.154050360091289,0.0948416887375456,0.0822389454506911,0.156214940861425,0.141569074002387,0.0276016422081926,0.0482758638212655,0.216783147697822,0.0128205444761,0.120070565564755,NA,0.0965385519212447,0.087960849276715,0.0742122274373038,0.0751755366312352
2011-11-01,0.0126229420733153,-0.226056338028169,0.00975611924119235,0.0816657457785155,-0.144340302338575,-0.0332622601279317,0.0329392386440361,0.0551210942710494,0.0113897140262604,-0.0591171818413773,-0.0968392715346498,0.0217170003393281,0,-0.109033349196395,0.078648861843361,0.038551084087969,0.0455205811138015,0.0843841508766567,0.0413793844420831,-0.0282201706447427,-0.0360501265219475,0.00906388469873765,0.0911692389651106,NA,-0.0121632786609693,0.0397812121046015,-0.00192971825549981,0.030093560255785
2011-12-01,0.030797471754386,7.44112829845314,0.0185721520435393,0.0165000333333334,-0.0195694723901946,0.0458756065284516,0.0211423546181246,0.0498732745203256,0.0775955278394953,-0.109466682226566,0.00918339515553734,-0.0272334772500831,0.054766734279919,0.0736196665682811,-0.00461890243658236,0.0330593403048232,-0.145437656322371,-0.0364170448142845,0.0334611002627709,0.0281489038277409,-0.013550135501355,0.0331423106705901,0.0293809687665521,NA,0.00762233926642208,0.0470248530473343,0.0657385125391139,0.0537046232296214
2012-01-01,-0.03699092873739,-0.877867368057951,-0.0281407889574365,-0.0031153138837412,0.144710584619185,0.121045972163644,0.0133836424933345,0.00504227947109093,-0.101857856136247,0.094700567409864,0.00959171175602558,-0.0174120860361897,-0.0307691923076923,0.121804481203007,-0.0462690293903485,-0.027974065247877,0.143631374328923,0.0941519377190325,-0.0421585160202361,-0.00311904354737558,0.0551648021978022,-0.0550142115876811,-0.0472732652673318,NA,-0.0296770738922628,-0.00876588200531858,0.0598693780794406,-0.0120340251997635
2012-02-01,0.0454293226429248,0.0282436010591351,0.0983624118859125,0.106085544507986,0.0680035246034358,0.106471030850263,0.0786770777142827,0.0401098705717073,0.0657461207564005,0.0117444858206819,0.0925700144353232,-0.0107713690062544,0.0559523787320484,0.0520108056839359,0.181202046888153,0.0121070903695397,-0.00473933649289104,0.0407223478191165,0.0598591549295775,0.0653572408370806,0.0768590421847233,0.0726523148373679,0.117025549700102,NA,-0.00119931041675025,0.156299721780604,0.0712085611505842,0.0329591839732311
2012-03-01,0.0826709062003177,10.2374248927039,-0.000592377578838232,0.0813383048327136,-0.00408163265306127,0.0204012240734444,0.00983677291412266,-0.0516120552939575,0.0371856451174331,0.0396376274065686,0.0494983745595707,0.0368809272918862,0.125516718319552,0.171763446902984,0.00128573809523802,0.100477972286467,0.0933332857142857,-0.0027949923327707,0.0255814285714286,0.0279001300717876,-0.00967117969688236,-0.00606335376826295,0.0609435366718223,NA,0.0216150699004782,0.0140070116350601,0.0910833464019383,0.0026589942196531
2012-04-01,0.0125632240169686,-0.922698524244554,0.016795059932917,-0.00137510999209145,0.00819672131147531,0.0113295568143952,0.0478756787564767,0.012313594815174,-0.0567493867977066,0.000544689527650188,-0.0108349054599532,-0.0155826558265583,-0.0283806668320311,-0.0652457590256633,0.0754506093249012,-0.0192898894315947,-0.149390163300965,-0.0321149141229096,0.0434077731322391,-0.0295238253968254,0.0351562297821049,-0.0531170964606026,0.0101568783415318,NA,0.00940343841914304,0.0422034237288136,-0.0210896608403531,-0.00449679449451879
2012-05-01,-0.00435066200776268,-0.0405138339920947,-0.0858919177204025,-0.067750010971495,-0.0691056910569106,-0.0474464579901154,-0.0571598776554625,-0.0776106290168034,-0.0396627850810408,-0.0359282506299266,-0.133376350228171,0.0292498279421887,-0.163230240549828,-0.228710981852024,-0.101178497331716,-0.00406561507237579,-0.0537634893106254,-0.185931425649062,-0.000620925197793221,-0.0701668477292582,-0.0740565849056604,-0.0212130424452079,-0.0558596792345061,NA,-0.0870450414582266,-0.0632623820698527,-0.0409933896465224,-0.0892981162519395
2012-06-01,0.0433727829551891,0.00823892893923794,0.085459181856735,0.176514114173447,-0.0768559301310043,0.105845728121757,0.0810782916332407,0.0716702180150139,-0.00136004899250908,-0.0437605614771632,0.114746027992368,0.0170511534603812,-0.137577002053388,0.0778279892713127,0.0580551755662795,0.00732062777533415,0.00216450216450204,0.168222896572952,0.0733146962819105,0.0508356042510327,0.0784513076219804,-0.0166961146781809,0.0325405269780967,NA,0.0634565349663094,0.0731770858742042,0.0433697361425815,0.0882615193283041
2012-07-01,0.0285403731396674,-0.027579162410623,0.0380924395203204,-0.00539863137731,-0.0340586389426164,0.0181420081326242,0.0371592315901814,-0.0944839568949483,0.0911958834952948,0.0575731047408652,0.0293463539350822,-0.0825115055884287,-0.025238142857143,0.00755667506297231,0.0150193896901076,-0.0218247990448321,-0.0118791036717063,-0.0466886703882262,0.0410999143588977,0.0316370762759599,0.017949948378837,0.0537143020408164,0.0479028180631946,-0.0529370901699422,0.0389806320228265,0.0440023633099529,0.0110646534409287,0.0149584901250439
2012-08-01,-0.011612093436861,0.144957983193277,-0.0119800393928867,0.0626104384926731,0.201762961836689,0.030107465437788,0.0217025159644058,0.0413589289520628,0.08234194936491,0.0471802903405918,0.0151188124215726,0.0290218559656037,0.0371275543296314,0.0316666388888889,-0.0313122745192689,0.0065731519074812,0.068852462778823,0.0165025022158971,-0.0558799539649723,0.0110335873595069,0.00102089095127611,0.041059822729163,-0.0234033131364105,0.0974930398326106,0.00375171695516774,-0.00635320329413791,0.00650689125977832,0.00518140484010154
2012-09-01,0.0460786972804541,0.0256880733944953,-0.0200496280322633,0.0205512473271561,0.0464547529406603,0.0659112475938712,0.0321369892681103,0.029872322829738,0.10131517734478,0.017595308856055,0.0395744893617023,0.0181058495821727,0.147903956665097,0.0899300239614977,0.0675809395227962,0.0542423461150932,-0.00613486738930791,0.084969969297066,-0.0167844527910617,0.0144438771554505,0.0485814662657011,0.0322964568448738,0.0071668418644959,0.0360406441976528,0.0201265388190495,0.0470175438596492,0.0146929184452811,0.0475371575874974
2012-10-01,-0.0446324083401145,0.0304114490161003,-0.0319563522992985,-0.024560597156997,-0.00155761689521572,0.0500838248414199,0.0133947925114488,-0.0813155725323151,-0.0983432691240957,-0.0571128141007499,0.0468686236825906,0.00991792065663488,-0.140336473519226,0.0296442687747036,0.0209311602049074,0.029335453975778,-0.00257211920925327,-0.00675763219171122,-0.0476190490451945,0.00205665246095021,-0.0406719547422096,-0.00173014703387908,-0.0153436065078141,-0.00832923403560337,0.0341036922209697,0.03336309204647,-0.0243266731632398,-0.003061771560255
2012-11-01,-0.00763361936323281,6.11805555555556,0.0610909822866346,0.0497613108677335,0.197503968720873,-0.00879291280537764,0.0466561807887986,0.100596647074519,0.0265617816082753,0.0686300878782944,0.0645161069592921,0.0501185235353878,0.00620520256777057,-0.0143953454894433,0.0602043924284468,0.0149595244524325,0.0892213558133759,0.0934273136539259,0.0632076120505538,0.0341016735080517,0.0571428294930876,0.00852114409362059,0.0149051380963221,-0.0276679837340582,0.0310712191624753,0.0789133202338808,-0.0201840611512041,-0.0332346064107624
2012-12-01,0.00769233975694994,0.0975609756097562,-0.0396471592525847,-0.00636577235005364,-0.00338720679032811,0.00430107526881707,-0.0250062557497699,-0.00503999501543162,0.0129015078665886,-0.0665625862340765,0.00202020198309993,0.00644953240890023,0.129506593927894,0.0703505077726141,0.00532041417696649,-0.0951565490605428,0.0160983893892808,0.0475555444444444,-0.0700976021858147,-0.00503819847328257,0.00435919802160067,-0.0277817978581757,-0.0694258812669964,-0.0189702401935936,0.0124239221557536,0.0124907614726733,0.0354438676427671,-0.0180394374635743
2013-01-01,0.0780573305653014,-0.862333333333333,0.0261728592592592,0.0136139337094643,0.0751633986928104,0.0192720021413277,0.0233316259507355,0.0560499241630175,0.0682942402871314,0.0409469893622847,0.0881597857741976,0.108939442486383,0.172616596917959,0.070047712757614,0.0552027786680827,0.0985418086820093,0.150978665003666,0.0471998732201937,0.0712467852656875,0.0790241239534792,0.0820312955390095,0.10708506565157,0.0540411890727066,0.0664710313007952,0.0569190876480179,0.0417601530544927,0.0190170275014629,0.0395147068914601
2013-02-01,-0.002656434396209,0.089588377723971,0.00365732427993604,0.0608352158202081,-0.0249240486322189,0.0449054073053883,0.00343668055062829,0.0333436755098744,0.0602231539534521,0.0709125253120826,0.0565942573116769,0.0809014735625542,0,0.0397449317692866,-0.00111880787037044,0.0153739670323865,-0.0283401203101166,-0.0162058741150853,-0.00385988717339669,-0.00497723265073946,0.0489370068361492,0.0135709944879727,0.0407213683883227,0.0207220171604339,-0.0385375988142291,0.00462286100632348,0.00717771994385763,-0.00466820045939531
2013-03-01,0.0452796376064031,0.0362962962962963,0.0265631573947671,0.0591552837356162,-0.0211969708677171,0.0550389545111836,0.051207059153012,0.121593854485789,-0.00874937968872858,0.0979509995002499,0.0194484457197515,0.104517508687517,0,-0.0298446250958555,0.0450156030084663,0.0414727221063758,0.152916666666667,0.050344900144494,0.0250372585704099,0.0357295978886722,-0.0546845277246654,0.0115515620897872,0.0104632043596731,0.0204599051619334,0.0534430140515423,0.0706000756429652,0.0544469752310734,0.006253467127187
2013-04-01,0.0453000566251416,-0.205146533238027,0.0370853979603774,-0.0394776482327178,0.0127388535031847,-0.0161981896141019,-0.0289256128075529,-0.00818794396045663,0.0382527936098385,0.0780609940387118,-0.0656763242271099,-0.00121006776379473,-0.0239971346704871,0.0326590609494113,0.0218062207197203,0.0650446871896724,-0.0932417780990242,-0.0100960500910425,0.0616457999897004,-0.0171105006608182,-0.0299352432028357,-0.0037633143982172,0.0310645780505294,0.0348151404920822,0.0360975609756098,-0.00812522393135229,0.0267639347518822,-0.0124292862897648
2013-05-01,-0.00677139798328263,0.14658273381295,-0.011259232976373,-0.0386948847930909,0.19811320754717,-0.027360823244552,-0.0322421857342599,0.0538864596218109,0.0565749823500163,-0.0610090576527139,-0.00753139748953979,-0.0351344802519991,-0.0128440366972478,0.113854360899994,0.0313240922236828,-0.0249137249417248,0.120366719808689,0.0796118542353075,-0.0112298006699424,-0.0689316691450933,0.00225184316510685,-0.000130194091319313,-0.0489590144977096,0.0117152144272989,-0.0400188559322034,0.0574616617612886,0.0676671669299631,0.016631116229489
2013-06-01,-0.0488136650566493,-0.0219607843137255,-0.0622209551688422,-0.0180591387741326,-0.0687664356955381,0.0393328871960612,-0.027989218197375,0.0354001239802988,0.0105024585310287,0.00786875000000009,-0.0541315186194185,-0.0311400803616273,0,-0.0329730536728339,0.00745285375000959,0.00776453342678574,-0.0369975440413538,-0.0973126763029688,-0.0307478133378288,-0.00814235524728568,-0.0742281613419016,0.00299630007826202,-0.0471895370282901,-0.00890734844258678,-0.0360470337431836,0.0258785225103852,0.0177558820654966,-0.00132643968910751
2013-07-01,0.050172016910206,0.00240577385725738,0.0345832322793231,0.0603810866301553,0.0935738814061065,0.0797605269461077,0.0903001763453724,0.11077571089555,0.00838288114525265,0.0260985489137386,0.113032626136566,0.0977189166553178,0,0.0556923459804441,0.0628546551287266,0.00578800252499101,0.0384189508681196,0.0119894332857029,0.00200054289793972,0.0332928250728612,0.0593258247191011,0.042992662501433,0.0295543397753057,0.0600658310345767,0.0178070969776876,-0.0314090506155951,0.0540344075599708,0.037631456284039
2013-08-01,-0.0900900603306016,0.0304,-0.0462910798122066,-0.024657831205285,-0.0180412371134021,-0.0663265720352009,-0.0211441949869274,0.0495757149772071,-0.0460151972106175,-0.00913039130434778,-0.0366810988306905,-0.02172368461505,0.252788141263941,-0.0933070339135116,-0.00741879419893554,-0.0364150716981132,-0.0939168234109989,-0.0356425207960345,-0.0336565877451058,-0.0370752385305982,-0.0178192451051208,-0.030012501992061,-0.064364184794797,0.0389996060053528,-0.0594850567100752,-0.0146319194312621,-0.0556321379310345,-0.0702932906666667
2013-09-01,-0.00420050979894926,0.0551242236024845,0.0352466476321749,0.0626673714551125,0.0656167979002624,0.0719885483487763,0.0358656830779263,0.0839539554107545,0.0342543414403791,0.0342254701963374,0.0477219662075485,0.0166545498431088,0,0.0229566598645687,0.110051441722167,0.0138437592204326,0.145661607603518,0.0220717848389862,0.0138724021879455,0.0634071992394438,0.0802591879049677,-0.0295288615936432,0.0377516050395108,0.0622875297468723,0.00239170867946581,0.0956312808164201,0.00584221003689334,-0.012849964990823
2013-10-01,0.101235314891091,-0.0286975717439293,0.050784554431107,0.0456653844455257,0.0246305418719213,0.0549645414434639,0.00401317274137281,0.0522940459563774,0.176582045664786,0.0956725306676398,0.0176163313003121,0.0318139141412117,0,-0.00290187662801067,0.0658759029697671,0.0229831055108212,0.0397532556545579,-0.000814933295608222,0.0838428578656685,0.0403736505854497,-0.0379078531837184,0.0682630542803575,0.029218236711779,0.0305978615977742,0.0530222679474479,0.0291470003496808,0.0331558325266215,0.0416085769222618
2013-11-01,0.0448700422673063,0.0893939393939394,-0.037650430584676,-0.0156174872567969,-0.0201922884615384,0.0476890776339949,0.000627024081104155,0.020953815224005,0.0281491393668731,0.0420135124099317,-0.0240174817209537,0.0358950759318915,0.143323378536398,0.110205663364267,0.0609538706031778,0.0521268844491043,0.0517468688200395,-0.015597900523923,-0.00671501477303249,0.00966713107763395,-0.0487115615450151,0.0429721486068111,-0.0401705776423728,-0.073416198757764,-0.0115811427094377,0.0345248792393351,0.0311548613528898,0.0430707416959135
2013-12-01,0.00366595977130024,-0.0264255910987482,0.0102510672387648,0.0426010964391235,-0.0166830713114217,0.042109566557432,0.0372052954837518,0.00992691335476703,0.0576827701790934,0.0221107023411371,0.0193352342813924,0.00333180808529532,0,0.0220202547707049,0.0981190691747076,0.0413974048942636,-0.0748981510498277,0.0350041846521167,0.0381286911844241,0.00656538084303948,-0.000262128621773439,-0.0333649604207437,0.018587748204492,0.158466398094458,0.0247071331995483,0.0944656602982143,0.0313494320763288,0.0825844432204395
2014-01-01,-0.0435690559056063,-0.0485714285714286,-0.106404768318838,-0.0992861177840139,-0.0758482956840807,0.0477197980481125,-0.093414855662511,-0.0561719463688275,0.0537694281001622,-0.107071427270366,-0.0982912823594406,0.00597741890535386,0.112120402598505,-0.0533515560875512,-0.0941517031132957,-0.071008809691068,-0.0504742208672085,0.0907544508554241,-0.0825735369255933,-0.0127733938183663,-0.0520934078456986,-0.0588379899846216,-0.103179138179013,-0.160745357678724,-0.0718369376087495,-0.0325579318325105,-0.00132162989772544,-0.0893279967192093
2014-02-01,0.0851063557010365,-0.024024024024024,0.133347247282993,0.0909375543950104,0.0750540512970639,-0.0506887419651058,0.0471469875765016,0.147973032018058,0.0293657271022358,0.122964192242756,0.119436700278164,0.04423420089059,0.00420072364997526,0.0263728138299708,0.0269556157505284,0.0720777236317729,0.0053513733374464,0.118979917090544,0.0295285908708518,0.0384033024527652,0.0837252397526578,0.0266249141232742,0.0354492581961767,0.120242710434751,0.0594536957686127,0.0487862061471924,0.0238199823555358,0.0445962762762033
2014-03-01,-0.0319256166899351,-0.115384615384615,0.0242669362992922,0.00659594678715281,-0.0436966938112499,-0.0319210304477086,-0.00890941857377625,-0.02080144981958,-0.0827508820636291,0.00833935823060195,0.00621217590017364,0.0383561643835617,-0.0111550083930979,0.068461791622668,-0.0388574879200014,0.0313148373702421,0.140170369056068,0.0522216989943836,0.0322670177753459,-0.00291623799267671,-0.0147196121391951,0.0246630295111605,0.0118650222783327,-0.0656080025999016,0.0394337199334247,-0.0446136311478511,0.0715209854166734,0.0146463388795992
2014-04-01,0.00597257886120928,-0.0243478260869566,0.0322174997756437,0.00493824297421908,0.0688025546891562,0.0343724620303756,-0.0145276270817121,-0.0462096381634344,-0.0544194089767021,-0.00647251000489957,-0.0152801664565494,-0.032068236249239,-0.0321973920610433,-0.0779113667914901,-0.0153948332822555,0.0500251773202556,-0.0404606585602036,-0.0313206374139164,0.071600347314988,0.0260568861199564,0.0169257249501107,0.0241936110221741,0.0434835332789716,-0.0110657878505711,0.0413424377758376,-0.0613823774668767,-0.00201051459547608,0.0484234643734642
2014-05-01,0.032782548643131,-0.554367201426025,0.0542514885846459,0.0387450198450199,0.0280098083538083,0.00850081176587381,0.0489492918142147,0.00850680580709229,0.0630957752100576,-0.0282301313148798,0.0412225868530187,0.0318725532343282,-0.0509955803788247,-0.00732404430153621,0.0394288767058242,0.0228463515918775,0.0142718131689912,-0.0123059517042395,0.0361505849875197,0.0181394402694999,0.0482336948329876,-0.0213204353245148,0.0364040852159662,0.0185160383641934,0.0137786081270435,0.0603129164404521,0.0229653509864092,-0.0183576303736889
2014-06-01,0.0222445399772329,1.42,-0.0179778984334834,0.0456696150958811,0.00286810712940944,0.0283524904214558,-0.0118021281358404,0.0608177880281802,0.0274874989669693,-0.0121043200725452,-0.0170103417130815,0.0028449095712253,-0.058086000097953,0.0368903904984703,-0.038979674518496,0.024085540436851,-0.0329389190917813,0.0753257310588176,0.00914335877903372,-0.0115806054573531,-0.0210629128149237,-0.0272311545088358,-0.047775050284899,0.0612084758201477,0.008062612301313,-0.0191779174230787,0.0350532106154631,0.00149210187498361
2014-07-01,0.0298287760474927,0.028099173553719,-0.0141081623428256,-0.0605533224194655,-0.092850312815056,0.000931445603576719,-0.0553940140345883,-0.0450627019862397,-0.00639688110034331,-0.0584354016670198,-0.0306279312115806,-0.0828774096404219,0.0119532460757064,0.000867736911970507,0.00925549191158992,-0.0358886423367557,-0.033068783068783,-0.0592199910817117,-0.0319504299463622,-0.0453198930171209,-0.0779543057912714,-0.0161597666960055,-0.0272802283781337,0.0156520213908309,-0.0601004826371335,0.00142370076698017,-0.0315829331890614,-0.017282459276917
2014-08-01,0.00284907414171598,-0.598070739549839,0.00868821109560103,0.0351916641454437,0.00725088241904648,0.0184254978596687,-0.00291131256936195,0.0481954015622872,0,0.0542542331480633,0.090679337925424,0.119752590355837,-0.0577181744966443,0.0308653209941154,0.022386998721861,0.0438056725207403,0.0164158344733243,0.0541737409440457,0.0610838453735885,0.0461226959912959,0.0537606004983056,0.0748836135540611,0.0435312756119675,-0.0327630732793073,0.0123996593143774,0.00715609700310127,0.0106089779721423,0.00525568010398847
2014-09-01,-0.0153883041956295,0,-0.0450937011500371,-0.008319923137591,-0.130412104964259,-0.0171784350446479,-0.0372904053401917,-0.0267251388192811,0.0100769290869456,0.0444360045575389,-0.0395423372024576,0.0140094711917917,-0.0760683234226965,0.0132884943096974,-0.0249307485801543,-0.0358441413005905,0.00437419261016814,-0.0154245944718071,0.0663880424146683,-0.0507928709552661,-0.0388383088718743,0.00758027905690928,-0.0254732408162366,-0.0203237112071724,-0.0470701019949591,0.00399958584604576,0.00835925366172741,-0.0543936864507709
2014-10-01,0.0480884828083674,23.4,0.00424474700663691,0.00117280110370399,0.0125975287965814,0.0291930096390112,0.0222703548999938,0.12008467958526,-0.0316613048743905,0.0459999818181818,-0.0294072848561991,0.0490367775831873,-0.0487203206907184,0.00398403041221673,0.132981632385867,0.0860488704469498,0.0720268006700167,-0.0932216830584507,0.0522420777588612,-0.00407435844388249,0.00832966784811107,0.0421542761441194,0.0672661854372618,-0.0108848513707185,-0.0239415322580646,0.13150863066989,0.0235203590422279,0.0282827848500971
2014-11-01,0.0211057123193392,-0.902459016393443,0.0405952807431362,0.0541538550868483,0.114573433303947,0.0305330092333518,0.0443332707948354,0.132580379462384,-0.0308542390573189,0.0290283683126782,0.049564977477238,-0.0153959933222036,0.0839545867098865,-0.00529100529100535,0.0422686686567164,0.00852525564434448,-0.05031253125,0.0266849388758972,0.0397186181216382,0.0234556246159654,0.0475436853190641,0.0362095004999257,-0.0233681828251165,0.0120403938902225,0.0493157500645494,0.0694197595798287,0.0261819551704652,-0.0637989666404608
2014-12-01,0.0114581447521074,9.25210084033614,-0.0875856662026854,-0.0399179252913571,-0.0432656532369511,0.0170055750350631,-0.0739448151122926,-0.0267946899811842,-0.0284775733449419,-0.0711148467717087,-0.0601036390775586,-0.0184627724769114,0.0361843013213008,0.0402260970744681,-0.0129453200487419,-0.020006316799875,-0.0315893067321259,-0.0809730166530073,-0.019697533613113,-0.0279814245976781,-0.0739093810547663,0.0072984186663716,-0.0630392614747499,-0.0370986449302454,-0.0393700304963096,0.015531228699311,0.00624082232011758,0.0210956039198629
2015-01-01,-0.00577525544202595,0,0.0447969022444816,0.0868055555555556,-0.0850000222222222,-0.0837785927867123,0.0354106507287457,0.0829097311130365,0.0154255532539569,-0.00127303141396506,0.0318160330188679,-0.0168905188825534,0.0303029996939106,-0.131032290475159,-0.0479341319436336,0.000761463856013833,-0.0129120285423038,-0.0233865300942712,0.0777348893850212,0.0488006188677432,0.0876891121269054,-0.0746513920145523,-0.0148557279873196,-0.055533428545241,0.110911831175414,-0.0278032328999284,-0.0529004377964247,-0.0544077789423834
2015-02-01,0.0583110169039776,-0.959016393442623,0.0339103411644859,0.0376014090276071,0.0879174034709751,0.117215423623126,0.006094988726699,0.054590991128147,0.0446755159184162,0.13474148342103,0.0583117063559242,0.1423271322793,0.049019606470039,0.126884845037057,0.0987443386412816,0.090845262179055,0.0660929454765213,0.321050720643229,0.0600753883267566,0.0214351059617015,-0.0209044890480553,0.00996554739630384,0.033898318392281,0.0170207774382207,0.00230578746381815,0.0643364000731803,0.0552774096794073,0.0128117481768875
2015-03-01,-0.0219547608603496,0,-0.109041004395278,-0.037501972603759,-0.102020308160299,-0.0490063978104952,-0.0696676326405997,0.0641233708053692,-0.0186246352373967,0.0147625481386393,-0.00115393044413881,-0.0283712195649023,-0.0947930281764211,-0.0114229277320973,-0.0414955966324951,0.031551861902898,-0.103648663340286,-0.0177755846585318,-0.111387473594111,-0.0374920143955979,0.00119087276609187,-0.0374720440786577,-0.0919719996621503,-0.05172897434043,-0.03933754222826,-0.0356418124749079,-0.00711806886077626,-0.0399819399143672
2015-04-01,0.00194249937653779,0,0.0610966969681681,-0.0153392087494313,0.100559407106007,0.0228439163150729,0.0040697928913811,-0.0254375403742585,-0.0167603900396828,0.119386444674686,0.00808661371841146,-0.0439753753377441,0.179646007100531,0.0442389552908895,0.0442180813082309,-0.0368289718447806,-0.0126080691642652,0.0203862012792659,0.000599740103958357,0.0319064340347457,0.0568394407010904,-0.0296558450169431,0.108057862523354,0.0189615378926937,0.0411877893289172,0.00978442074395836,0.0128675730563392,0.0278823882352941
2015-05-01,0.0469625181802034,0.608,0.00553993279447829,0.00433186434245347,-0.0230404447363853,0.0121191486190841,-0.000540425163225389,0.0469924153343444,-0.00973320753564488,0.0189291705194354,-0.000429723547621164,0.0528059633047273,0.0197548627279387,0.0398356161819671,0.0227247868609333,0.0433678904048951,0.0105801167457134,0.0445846566246615,0.022977063396145,-0.00231900274469188,-0.0151941395224225,-0.014086315832315,-0.00479215281188272,-0.0407958625709152,-0.0179392594296227,0.0398182722262708,0.0156080041962978,-0.0248369683585795
2015-06-01,0.00987662592084892,14.1741293532338,-0.0223085436721723,0.000912408774260243,-0.0554913641618497,0.0287375983578515,0.0457822823159904,0.00378153298786832,-0.021799957390388,0.036877916409729,0.016337045232689,-0.0148550152095417,0.0328592455335766,0.0301003805123194,0.0132235093599933,0.0361302120175706,0.0444042944258378,-0.0503321941591904,-0.044726581157684,-0.0681817905944786,-0.0571428571428572,-0.00191352215733542,-0.0349103406765379,-0.0244739434569783,-0.0201405381700107,-0.0222771986022132,0.00500362768055096,-0.0234741792303115
2015-07-01,0.0328035235206388,0,0.0993071593533488,-0.00928147027896686,0.0522644327636879,0.0377452610575324,-0.0321441138215779,0.0615523185082598,0.201917298382023,0.0528145065808998,-0.0215735905689111,0.0503814458180396,-0.0716999304772064,0.0113635917543213,0.0419340915083197,0.111242953213145,-0.0307638783269962,0.108190322528101,0.111838090370068,0.04767175456365,0.0354978181818182,-0.0196830398691984,0.0668579410467245,-0.0426801418381455,0.0714627629063096,0.121965655339817,0.0289828759252178,-0.0479567084599775
2015-08-01,-0.106529850197866,-0.937704918032787,-0.109411731092437,-0.0890004076369618,-0.129929020240444,-0.0974202531645569,-0.05288928061418,-0.0406056036910656,-0.0117644941360709,-0.0527051321489747,-0.00475574297097203,0.0319202499577773,-0.0731456814908276,-0.0646432374820261,-0.0516426991449138,-0.0741781399269458,-0.0331669032394114,0.0700165508856276,-0.014711272256137,-0.0257935985659682,-0.128344467029172,-0.0786179822145234,-0.0669939911960012,-0.151645920369258,-0.10506363573216,-0.0536234830700016,-0.0784516516062148,-0.0501199476091395
2015-09-01,-0.111945239303483,-0.0131578947368421,0.038686524299433,-0.0237811395177252,0.0153742507202839,0.00976389100785058,0.0133496094758971,-0.127819091625307,-0.0158997444399515,-0.0328461875772188,0.0234578923677353,0.0361702794163759,-0.0149006890231409,-0.0488299079198099,-0.0243585571822489,-0.0265736145675266,0.0638140515007728,-0.0944577217915783,0.015304217420522,0.0215885398075073,-0.0460431942446043,0.017970907541274,-0.00588973662068659,-0.0734601808250142,0.00199406784631284,-0.0230013875314985,-0.0371273940698521,-0.0118288147748223
2015-10-01,0.113873642121491,-0.333333333333333,0.0728560669902603,0.122366459744169,0.118499017188901,0.10091413147278,0.0676315143553994,-0.0425130485268631,0.168288382796263,0.0650125182286183,0.135116058290888,0.0669720718062843,0.128851480984552,0.0537969320354774,0.0984242643667024,0.0824832467478722,0.100208044382802,0.021059539737931,0.111580859868351,0.0130250269278316,0.174459592995262,0.0617180271971636,0.114332532098007,0.221386526151383,0.118905444803347,0.113695055199825,0.0543330303537695,0.112844656700596
2015-11-01,0.00267854916693189,0.516,-0.0199830655373932,0.0765105576718252,-0.124426137413519,-0.0281060053690835,-0.00451863043937051,-0.020308743622194,0.0447235943352613,-0.0486789782980873,-0.0238065926533744,0.109104271851708,-0.0598014903176549,0.0378210116731519,-0.0108091728620906,0.0428225610599078,-0.000630349826662435,0.0145020953078476,-0.0474616000089036,-0.0299133950418079,-0.0309931755738054,-0.0201623600482729,-0.0114253730446748,-0.0545939229496031,-0.0275677634504222,0.0184325852427794,0.0177317882846655,-0.013052864710004
2015-12-01,-0.000222573473845689,15.0949868073879,-0.0457059105876259,-0.0269345073288064,-0.0270233138084155,-0.0727900098586921,-0.0479224694120542,-0.103981522401848,0.0219230130974311,-0.0783964333504684,0.00625635852911133,0.0555259491597959,0.0279757727098384,-0.00974806538692263,-0.00571892372791916,-0.0241059772305773,-0.0949226772287189,-0.132274414190892,0.0105902955066075,0.00649169579411146,0.0271249337338753,0.0610637125100861,0.00595039485010185,-0.0279929582393127,-0.00960224007305721,-0.0184786604612412,-0.0134300730827612,-0.0454323636819808
2016-01-01,-0.15720334001336,-0.941803278688525,0.00507022200344842,0.00671996800000008,-0.0990742808177029,-0.0127591706539075,-0.0128358118639406,-0.000577353237154243,-0.020991451738144,0.102731560232608,-0.030579825671357,0.016818436600444,-0.0500642092409702,-0.0988944282734278,-0.0855587706906452,-0.0485537501163638,-0.107317069431461,-0.080538877133711,0.0498196538364484,-0.00913732892064834,0.00731181075268816,0.028711722517984,0.0238880435041273,0.104328964034214,0.0251615881809786,-0.0394584768745915,-0.0759749986023732,-0.00128286085758278
2016-02-01,0.0235139774644111,0.00563380281690162,-0.0213494456112162,-0.113954199426389,-0.028680906227649,0.0362591994255967,-0.0470883263135196,0.0070560213453712,-0.0608116175654627,0.0214055468686798,-0.0482984673220297,0.0573310753721639,0.0632432432432433,-0.0537815294117647,-0.0236998879445119,0.0193346495664728,0.0183450031871581,0.135690338657583,0.00752739310215356,-0.0526172647848459,-0.0846284899167974,-0.0171379724045055,0.011332040632551,-0.0283745935972676,-0.0405313893267281,-0.0281916909166785,-0.0658969141947043,0.0295440470017738
2016-03-01,0.079762515241997,16.0868347338936,0.0761230117820324,0.118026941704036,0.033475366067413,0.0580287891910618,0.0513645721513563,-0.0166150770302311,0.0676153899532685,0.0557531940522,0.0724797699419581,0.0171725249199026,0.10320289781393,0.0518650453261997,0.0872066517995089,0.0406905301733471,0.183978497508624,0.118426592288129,0.0177034269936658,0.0679931281420967,0.0367571128508795,0.0251587616744455,0.0777765800041368,0.105671806020533,0.0485801208969696,0.0564995725445443,0.0306906023312279,0.0429194499583418
2016-04-01,-0.0700454185969199,0,0.0448207836858854,-0.00385050525106667,0.0198625371976717,-0.00523909609564199,0.00426438293507791,-0.00720831458333338,-0.0697228017495488,0.0566791649607783,0.0623235805723168,-0.108464449192209,0.00345615191446291,0.0672070235189628,0.0263491851851851,0.00845696685711839,-0.023308482463855,0.0609366265731499,0.000797941270347824,-0.000536134559226187,-0.030414803304638,-0.0266066705529503,0.000101946793375385,-0.0480916335877862,-0.014771709937332,0.00993717272735983,0.0334987379342691,0.0575428428062132
2016-05-01,0.0187660401662704,-0.959016393442623,-0.00409332780854155,0.0164277741987437,-0.108614232209738,0.0418038525939386,0.00738479631893663,0.0449280282781042,0.06162964514755,0.0313090977234061,-0.0155721036007775,-0.107392972954422,-0.0734787846952649,0.0327531007475776,-0.0112382309771777,0.0599370665425321,0.0493868080875042,0.117059608037809,0.0148301708631824,-0.00898481963255993,0.0176334292343387,0.0114827504437314,0.00570726643781305,0.0319165687864176,0.016810495229441,0.0220093739515634,0.0148059423769509,0.00701351794087057
2016-06-01,-0.00807469068698741,0,0.0643649311242922,0.0432577401104599,-0.034285731092437,0.0298578515007901,0.0343626876485665,-0.0168892515259143,-0.0592888554332855,-0.0378050516920031,0.00613120762239583,0.0636442313281025,-0.141759536146693,-0.0479546214779205,-0.0817518648226933,-0.000230819517313852,-0.0559065382185724,0.0156580993948725,0.0835952244436711,0.0461433817011263,-0.0333789688394169,0.0447926573939701,0.0308066578840696,-0.0321727716613472,0.0487042246963461,-0.0604256888668436,-0.066837518398314,0.0530218058758192
2016-07-01,0.138387149875677,0,-0.0138244829726438,-0.0170108681582327,0.0241907244029016,0.0315999069918727,0.0324238491962399,0.0279854164075077,0.110807693482712,-0.0328609961390879,0.0187689572662173,0.0204918043984592,0.0150159106261649,0.0294496625273524,0.0815353186812473,-0.00422975805257975,0.0963533320961303,0.05546871875,-0.0182714909842153,0.037770082467212,0.0684970481837353,0.0108656905838123,-0.014353116256851,0.0608639473261601,-0.0174691098736496,0.0523123244522672,0.0135220573200061,-0.051098795628308
2016-08-01,-0.0610055865921787,23.4,-0.0274101334887598,-0.0417954489833829,0.00254888708747281,-0.0295910483271375,-0.0348378064626926,-0.0256139898580001,-0.00226328392641983,0.00627840676061542,-0.0339753096770097,0.0243641244639423,0.00853482170498876,0.0551821001222119,0.0145946979125304,-0.0185929011857708,0.100701861458651,-0.0968171506582921,-0.0237814043034595,-0.00909887788487307,0.0167770596026491,0.0200958298911476,-0.00329146213262588,-0.0407205431644123,-0.000216782311725505,0.0365150402364494,0.0589951624141096,-0.0203484886008484
2016-09-01,0.00642553545930502,-0.940983606557377,0.0278605358263864,0.0595017742441488,0.0254237288135593,0.0165490954168221,0.0316500524986651,-0.0183134717857023,0.0133498339876124,-0.0294836806822529,-0.01362226625387,-0.00862514420413707,-0.0880112528064527,-0.0134815407407407,0.0531925919443006,-0.00251309194154969,-0.207097310784585,-0.0214172431919206,-0.0432742649886074,-0.00603777358490565,0.0225792267029228,0.0279464214396157,-0.027118973281297,0.00189368789480349,-0.000216937752831603,0.0222496286217644,-0.128346459219419,0.00160661007122576
2016-10-01,-0.0721210434589491,15.9444444444444,-0.099960844497284,-0.121147595429645,0.0785123966942149,-0.0681337997065903,-0.0733367970239849,-0.0132330537137032,0.00932727837126435,0.0514307562982286,-0.040552466025048,0.015027682573161,-0.0627900672570326,0.0400962030392673,0.0515869131842461,-0.0552774377880973,-0.027972062937063,0.0350064427725618,0.0457061995888028,-0.0806124429490931,0.00212314225053079,-0.0328690473537604,-0.00802303015816663,0.0137029291635555,-0.0928416092339093,-0.00229740032517767,0.0390695356610102,-0.0453712081275346
2016-11-01,-0.029816563210165,0,-0.0509182696492296,-0.105810037333276,0.000613042145593878,0.124393432546102,-0.0584953134799155,0.0310526315789474,-0.0337777560648413,0.0237380998087471,-0.0881967832556079,-0.110649298701299,-0.138613832957552,0.157522317137675,-0.0450383118586707,0.0238309998140216,0.169064790254129,0.183784610427646,-0.0331216409654428,-0.0736407274978464,-0.116101669491525,-0.0500000443548373,-0.0846122234630398,0.0761342592272489,-0.0475848397895744,-0.0629014892036969,0.150184748975647,0.0477676788286128
2016-12-01,0.00893091673233504,0,0.0332905172413791,0.0210129278884361,0.00306321024562384,-0.00661772387806869,0.0266693407086003,0.0453292741194486,0.0181784990237019,-0.0890033738025925,0.000286983352468351,0.0166471660836935,0.141762413793103,0.0763378215376782,0.0102740022585324,0.00685706170810541,0.0523077230769231,0.00947825030045468,0.0577194274988269,0.0659731768511214,0.0349951476032075,0.0196459255353618,0.0363615658853824,0.030464928372367,0.0308812186351384,0.00905324624935355,0.0413832782079848,0.0339060583995627
2017-01-01,0.0874772194740954,-0.940327868852459,0.0934587573170989,-0.0111911985737634,0.169644225672446,0.0922518990730252,0.0778333350426528,0.0148451524989903,0.0323520649549578,0.0606761915326366,0.0150646061003419,0.0428037333293958,0.0892617479618034,-0.0192375012256635,0.0298305278450364,0.0226644555002764,-0.0877192956807223,0.0364285064615559,0.0526470991135568,0.020630095361865,0.0792033648690142,0.0418648420108267,0.0507159154162404,0.0671150455184932,-0.0099853626403954,0.0601128195377909,0.0221375608394563,-0.0705739293025941
2017-02-01,0.0792435240603304,15.7582417582418,0.0363636700118075,0.0501630145758103,-0.0387728600201791,-0.00769029455556325,0.0203516827666845,0.0359927099064816,0.0331581027993302,0.174039518263495,0.0798586855123675,-0.0289255930833496,-0.00955012352280094,0.0707787570877498,0.0388413140441772,0.059167545945946,-0.0448718575361584,-0.059451257157197,0.0525428210171395,0.00641902476892908,-0.0128755364806867,0.0396118958815501,0.137522120176494,0.0605303670939934,0.164329635211334,0.0632330197465001,0.0275164023605041,-0.0306353442679146
2017-03-01,-0.0148625104320094,-0.916803278688525,0.038847117794486,0.00246601520624745,0.0586717394542335,0.00454307881042659,0.0111101742823931,0.113887576405016,0.00771367674141366,0.0304531527680452,0.045811517125353,-0.0175886241134752,0.0811818300975531,-0.0306776308537531,0.0181966505359104,-0.00395006285303234,0.0587248341853972,0.0106506276080198,-0.0467164988445408,0.0435608618927708,0.0186956695652174,-0.0133963105303612,0.0324646005023246,-0.0297139295424266,0.0496513395456861,0.0105754034438161,-0.038355234306233,0.00848502213477631
2017-04-01,-0.01733845980635,-0.0935960591133006,0.0259348763570568,0.0317055023377277,0.0801796053949817,0.0425644852354348,0.0160062118704583,0.00358606295226882,0.0920970444382494,-0.00711279302744938,0.0553191225201721,0.0129945419291209,0.0112199085857256,-0.00956279642817837,0.0342313413867579,-0.0064148639110353,0.0491283375318015,0.00888889805269177,0.0050406190154193,0.00130036407541323,0.0755441557738941,-0.0280467006799487,-0.018246288427878,-0.0465739678483871,0.0515298309178744,0.0264430957653956,-0.0326985267696729,-0.00438970846507236
2017-05-01,0.0462878333246526,12.2608695652174,0.0599647551445508,0.0327622665623855,-0.011995190451135,0.0637917852460266,0.0382355275483266,-0.00481971737105436,0.0650138654793753,0.0620522746236276,0.10531305740038,-0.0413341196502782,-0.0455192861724446,-0.0557471034482758,0.0563961227647869,0.00788987643291783,-0.0468277671799255,0.017757409348677,0.0509891759680856,0.105974077922078,0.070238142857143,0.00870255333327474,0.0808373089439665,-0.113758028456129,0.0869065242378817,0.0439596794128516,-0.0501486069836554,-0.0140845311920507
2017-06-01,0.064607993867718,-0.928688524590164,-0.0496395154060101,-0.0563488342800043,-0.000240461588160712,-0.0664428176167623,-0.0171423559242512,0.00141956582671154,-0.0581742489818353,0.0593767801752465,-0.0213519105585379,0.0142729701375865,-0.0193739797130843,0.112598901701792,-0.0116373700757822,-0.00142237400869794,-0.0364500486988922,-0.00678270396833458,-0.0128579132328233,0.02395482508432,-0.00778645126645383,-0.0106708371288835,-0.0196160763034372,0.0315614160138717,-0.026593853937898,-0.0152263357589099,0.0834963058955085,0.00285718012422365
2017-07-01,0.0117259614950429,0.00689655172413794,-0.0878319362732428,0.0933309433369796,0.0182758691421396,0.0393114871177538,0.0896270117728948,-0.0120903855746365,0.0239565332707521,-0.0504887893374802,0.0755399525878737,0.00175892694931301,0.101823641226526,0.00437637846003547,0.0522849415961699,0.098016135993116,0.10756572368421,0.017297110995623,-0.127568146534603,-0.0333715149095704,0.0366217779531739,0.0421112784369184,-0.00630053655940066,0.279607766933327,0.0524696580423376,0.0616336005719087,-0.0265295253564338,-0.00854703300333082
2017-08-01,0.035786884912566,0.00456621004566204,-0.00639796865003206,-0.01897895677179,0.0573857702825418,0.00395550052025961,0.0294094875862265,-0.00877787270312469,0.00948954003224078,-0.0720626862125808,0.0067278696580606,-0.100380398032215,-0.0959999999999999,-0.00991289727953493,0.0430359927299846,-0.0182173006484558,-0.000593881829158427,-0.0637724172874927,-0.0241649834667541,0.00557599945929521,-0.0140590990784232,0.0159656133010351,0.00188502272200353,-0.020135017955153,0.0228640544220065,0.0397750007990159,-0.0532072497813728,-0.0463518110150948
2017-09-01,0.0475069110229076,-0.0340909090909089,0.00531233105782891,0.00785672025369477,0.0217755101582744,-0.0524501587675412,-0.0169630156398181,-0.00357635551274482,0.021057527857113,-0.00590332824427486,-0.048096394327736,0.0455432335718933,0.127555721696674,0.0508307080078194,0.0592647698590074,0.0151997548950062,0.0668647805726728,-0.0271711347900575,0.000315394311817263,-0.0088485132409506,0.00862883363802558,-0.0139806442174265,-0.0506285640981784,0.00280206648448189,-0.00773107563025199,0.0166151569730049,0.0798903857450559,0.0740207107553854
2017-10-01,0.0163043287799038,-0.0305882352941177,0.0312249954967976,0.029170124999913,0.00655735519125678,-0.0636694646569647,0.0369332461616116,-0.0489659292004482,0.0599827245047397,-0.0520118982699272,-0.0155302517704445,-0.0304915690881009,0.0129905003250204,0.0533975384065011,0.0536119487311322,0.0152812499350408,-0.0640669602191108,0.0514959521213394,0.0126143649515724,0.00261874770577908,0.0831581351562891,-0.0510002950868225,-0.0573822438089857,-0.0303877055581291,-0.0182927164923322,0.0450399571463314,0.017950987562974,0.0167113314206637
2017-11-01,0.0394615342061591,-0.00728155339805825,-0.0119565368957597,-0.067519148619638,-0.0742670591588938,0.0419095765170576,0.0106562006662361,0.0478928267145045,0.00469188496382378,0.00464414103657607,0.0307941535128853,0.169768966623877,0.0868287469943896,0.0388628959460999,0.0114270145479058,0.0208429161474659,0.0639881585707238,-0.039013173926313,0.0562130324476329,0.0140092717318319,0.0394913603544054,0.0422747529430045,-0.0180619172215397,-0.0172911025131016,-0.00379566949267873,0.0237315232660977,0.00587819746843965,-0.000719820053264986
2017-12-01,0.0124179707720058,-0.078239608801956,0.0528052325506014,-0.0255917551854618,0.0731878706735194,0.0668619587943005,0.0545966486993814,-0.0424455513954609,0.0244662296830735,-0.0228982806782932,0.0387840243441504,-0.00164614535950225,-0.0110619469026549,0.0231535119542723,0.00591480025310842,0.0291173369782129,0.120279692307692,0.0607034601502159,0.0527790342686412,0.0065565738645792,0.0135221568540471,0.0210023229470457,0.0282238637469587,0.0432551462979056,-0.0245930369036012,0.0127009596838425,0.0743757203050164,0.00420216107333227
2018-01-01,0.0891887156124058,0.0742705570291777,0.0165696377539823,0.0172105148298767,0.0450273551912568,0.0619225983001896,-0.0141751147995282,0.0646548536790841,0.118061844578092,0.0404885140333204,0.0743693556885843,-0.0566088776204692,0.0974397713149393,0.0816345225054325,0.11654333300381,0.00751445046871546,0.0112359803055175,0.0322566287811996,-0.0149840070027163,0.00500175636848033,0.0244600136388824,-0.0602960511633452,0.0149550494092749,0.0305692327442926,0.0207741832386363,0.0895457487163414,0.0842261606799459,0.0437590153486251
2018-02-01,-0.0294401222651222,-0.0148148148148149,-0.132745921666547,-0.0643285407738312,-0.0744614387849371,-0.148600991032236,-0.057793884380681,-0.0241400213816465,-0.0557378705647592,0.0105741778576716,-0.0588898651367534,-0.0544713921076965,-0.112117797865558,-0.00146968101443201,0.0399999704142011,-0.0310971977055954,-0.113580197530864,-0.106236600834786,-0.105061066537451,-0.0795139217705111,0.0300775565891473,-0.0905721492041764,-0.0343187531198706,0.021252449625013,-0.0902766188806187,-0.0103839730246162,-0.11204012028033,-0.132417005758866
2018-03-01,-0.00679602165436699,0.0676691729323309,-0.0231967825398445,0.0354115841024676,0.00395477966101687,-0.0563380573415646,-0.00162194781496572,0.0381831148360539,-0.0660251304124109,-0.117924003348331,0.038922166833997,0.0573013264726225,-0.1153061450177,-0.0478787792207792,-0.00341369490821841,0.0523830935251799,-0.11002787687867,0.0165253278854376,-0.0100079585383962,-0.0060354080980185,-0.000903124591097315,0.00967908850021981,-0.040077265859664,0.00200311593586577,0.0782026783595158,-0.0270050345370908,-0.102722136620442,-0.0149194220997999
2018-04-01,-0.0298731151493029,-0.0422535211267605,-0.0532154628742497,-0.0896852812500404,0.072031537918549,-0.0813578917973597,0.0482942630083336,0.00132833208800331,-0.0140145004830774,0.0449583969765694,-0.0201728918380959,0.0562354312354312,0.0204728662053055,-0.0108211511246599,0.0177551948445946,-0.0343601461226234,-0.0391236294483998,-0.060443795555565,-0.0996469672657252,-0.0213788986193967,0.00813501671831918,-0.0875378795098118,-0.17505031840945,NA,0.0129455579525726,0.0606921402601872,-0.00858616676206836,0.0420854973584575
2018-05-01,0.0584895568813082,-0.0808823529411765,-0.062614391479575,-0.0648481801589094,-0.0308661627296589,-0.00668999702739714,0.0321217017127928,-0.0368128885527812,0.0665073986507567,-0.0152116705738072,-0.0558823235294117,-0.00993106206896566,-0.102006162814528,-0.0162713459852118,0.0664721531054657,-0.0291671815709885,0.0667752095512961,0.144272682768955,-0.00659417204430279,-0.0218459536989923,0.00717272551393799,0.0114736251851604,-0.029999987804878,NA,-0.0236344366882779,0.0302648493915081,0.0390685727303421,0.0448874340836012
2018-06-01,-0.00877615811435317,0.0666666666666667,-0.0146484372138977,0.0766108163953763,-0.081897932659472,0.0522771327774214,-0.0171308280881565,0.00903847846590944,0.0282583565586627,0.0640921959654177,-0.00571134977015531,0.036779048113097,0.0833857431282019,-0.026259274343346,0.0336629979398011,-0.0116035116040348,0.0351145648854962,0.00206401494288189,0.0188374410176735,0.0232589143189883,-0.0347181364985164,0.0668306701334063,0.0150867108990858,NA,-0.000896521427290686,0.0132343634238496,0.0268567687773005,0.0183407808552629
2018-07-01,0.0746023749925437,-0.0400000000000001,0.0858275106872644,0.00952758019992883,0.0460177227138643,0.0905211188503163,0.0226373801346218,-0.0462378043161701,0.0910769361485713,0.0790813905120007,0.0156657963446476,-0.0333243223145476,-0.0339820505373222,0.103166989534558,0.00753101959025004,0.0789874356948388,0.116519049172917,-0.107061316374322,0.0332804889367759,0.052692780576004,-0.00719334794442106,0.0361260449942622,0.068863080724872,NA,0.0312275299492546,0.0323896421077308,0.0333694450463464,-0.0147467781428703
2018-08-01,0.0198351385438642,0.0208333333333335,-0.116830925827509,-0.0834643916293316,0.00394808789739232,0.0338178600843451,-0.053371357279246,0.00652955992844362,0.000763954284508372,-0.0030117758958762,-0.0118252133676092,0.0884070311813445,-0.00481058357249442,-0.00321874736543049,0.0886868585858587,0.0331624350427351,0.0118890627154062,-0.003510164512187,-0.00272665303340147,0.0274812654280145,-0.0289818746341807,0.0255934727594018,-0.0974507961488715,NA,0.000348085630840433,0.0742284161829596,0.0207714955354947,-0.0164397493205805
2018-09-01,0.0975464600566402,-0.0178571428571428,-0.0361719711415467,-0.0607101020902038,-0.0683146292134832,-0.0427142988529713,0.0162111321652352,0.0295920435257992,-0.0202923773772977,0.058503726885585,-0.0416233099193196,0.00638569571465153,0.102114870218421,-0.015185948417072,0.0327055254472584,-0.0168018350237509,0.00261104445459659,-0.0843901163225135,0.0305878503075871,-0.0065672,0.0519770015565624,0.00337559988097413,0.0468609840398124,NA,-0.0335769137091162,0.0217849889154127,-0.101231173050616,0.0604964340899699
2018-10-01,-0.0602508034316955,-0.012987012987013,-0.0692686881992561,-0.155190099349092,-0.131693177320144,0.0770968370516802,-0.0247758456239972,0.00302088734032568,-0.0977820589002486,-0.127568527561781,-0.0662323358573798,0.107614131593191,-0.118695120614035,-0.033853235868601,-0.112034512771059,-0.0801437124430472,-0.141927101982963,-0.0586424741738247,0.0784281200724901,0.0129807937372883,-0.0821461245616149,0.0654811582789443,0.0800833814068753,NA,-0.0318631868922267,-0.0815510049050836,0.0127473171090693,-0.062808717812587
2018-11-01,0.0741224376523806,-0.00789473684210529,-0.196543838868948,0.0390646104731842,-0.101944388888889,0.0228106718094041,0.0448031399883282,0.134084907682676,0.0164009339710256,-0.00774178396839798,0.0133721162790699,0.033226421476316,0.0482114744502971,0.0199046510705738,0.0172004301836437,0.0465588758786621,0.0276176015897542,0.113323231628463,-0.156980302014448,0.0111533223914726,0.0511889055953332,0.0657420162381597,-0.0174861019643464,NA,0.032168074231463,0.0280014568878584,0.0197256997933497,-0.00225903614457845
2018-12-01,-0.0232275615167766,-0.0291777188328912,-0.0863205645632511,-0.143879336130636,-0.0162388328958346,-0.127146866298224,-0.017665416654018,-0.0278924432232096,-0.0537449321544307,-0.107142857142857,-0.0403901884018316,-0.0534486582390775,-0.175074238128361,-0.122043338033216,-0.0617695955021278,-0.0927246356294951,-0.106615501871958,-0.0986942514164953,-0.0992158088923653,-0.0499882885474268,0.0211750557778847,-0.0274045492031627,-0.228475641147297,NA,-0.0308052434085837,-0.0689436491242289,-0.151068481044003,-0.142264125786163
2019-01-01,0.00898660282077679,0.00546448087431695,0.107344566624464,0.161525669701434,0.0713724403179934,0.0740088421147971,0.0765161549397146,0.0381216746572348,0.0779830352833069,0.114584590769231,0.0314481058752161,-0.00843486410496719,0.062590002251439,0.0602335261145199,0.119162532281872,0.0148932712973651,0.131570247933884,0.0279862578689201,-0.000809900806031494,0.0775691585668128,0.0192591060974869,0.0494995985530811,0.149191112966114,NA,-0.00539035326004378,0.0232680987832636,0.0614148844872011,0.0746443298241874
2019-02-01,0.0635790601433657,-0.0217391304347827,0.0413833061616586,0.0225013337911739,0.11988257902032,0.0574240634399781,0.0139535216752122,0.0281353714285715,0.00317999320646378,-0.062499957210688,0.122188740501073,0.0245746928166353,0.0335138783509181,0.00830918840579709,0.0646047396247635,-0.0461599838049948,0.0715746421267895,0.0629387052330255,0.0620061220671173,0.0354195789871523,0.0391186914259714,0.0215611275882541,0.133211690130192,NA,0.00878344267551645,0.0971039218244545,0.0200367818442035,0.078466158276012
2019-03-01,0.0298891897749607,0.0305555555555557,0.135547053045887,0.0743346558682365,-0.0490041666666665,0.0338764434381402,0.0570487275943192,-0.000775224851099265,0.0476730595956723,0.00141336863572761,0.0339875299384029,0.0322877529453929,-0.00393059273073726,-0.0299923147758498,0.0475152058101134,-0.00859805644157485,-0.0408942202835333,0.0712459520035258,0.0957832474718565,0.0552418674805297,0.0389240504582569,0.0558092321925145,0.0166781339618556,NA,0.0798444053353096,0.0544829008399574,-0.0314692128977593,0.0223966091660965
2019-04-01,-0.00475361509247918,-0.0161725067385445,-0.0604026831159472,0.0591878163726591,-0.00385779818523568,0.0887943721860931,0.0307438296513425,0.0881905217034071,0.0129291664071554,0.198071096144593,0.0257768218913705,-0.107685415893003,0.0792502466293983,0.146399284409781,0.079804664427326,0.0755541041872851,0.103467879476976,0.102992353717797,-0.0539787219223402,0.0126940725975662,-0.0288542411356681,0.0233541559821002,-0.0207037110612481,NA,0.0380853827743113,0.0527562001055613,0.0018625827814569,-0.00643569283035794
2019-05-01,-0.0431121302944225,0.0383561643835617,-0.115561298072416,-0.0847762517477795,0.00414930826489734,-0.0581208145674434,-0.00343928488756684,-0.0845944010763094,-0.0713936931440781,-0.0659729229729734,-0.0196746473103077,-0.0112668255199505,-0.152955545399147,-0.0869453144262307,-0.0108165510773963,-0.0117964506929804,-0.0857804739824831,-0.0513744673647896,-0.0969998307749004,0.0272454680124881,0.0122646687656438,-0.0335274126541864,-0.108941788561501,NA,-0.00644519935366705,-0.0188529534268118,-0.083453852509812,-0.118460415028157
2019-06-01,0.10468936443016,0.00791556728232168,0.00576870526499595,0.0873464352003333,0.157024825262392,0.0312194878048779,0.0253481438218273,0.0139448839256877,-0.0205865832725344,0.110784119306119,0.0462990154734422,0.0265889832064328,0.0794964417085051,0.0551151760580897,0.0518509433406711,0.0290214862495939,0.259509678246848,0.0931591496437054,-0.0348553396890473,0.0427591551932571,0.0551763187398808,0.0654940990965271,0.0181511999799508,NA,0.00998007335296203,0.0757453718992702,0.0664863886970113,0.082803451298719
2019-07-01,0.0356718201111015,NA,0.0212217384921636,0.140888043364862,0.0375000238095238,0.0210501187570984,-0.0315691839543623,0.0763734167864742,0.125607141879858,0.146479977289932,-0.0504225439259812,0.0111001723951609,-0.0349883705431523,0.0375670562370198,0.0292594035809148,0.0223293672319242,0.014317650686406,0.0766589845002001,-0.00591336878197968,0.0259187615876448,-0.0442048355795148,0.0765161773549261,0.0646886803092916,NA,-0.0490777165830415,0.0256410079117082,0.0230346576500422,-0.0296228120692736
2019-08-01,-0.0204362576449199,NA,-0.0143219035573744,-0.0641711507970543,-0.100975373471592,0.0252490166897852,0.0263662144545118,-0.0520646574681149,-0.0234902165988824,-0.0882304609365976,-0.00599998000000002,0.0395218082692457,-0.0624999676277613,-0.052931025862069,0.033422728789988,0.0261685209904572,-0.0674900970445524,0.0242987043390515,-0.0707456554068407,0.05948337934609,0.0815002637083992,0.0185530496564466,-0.137782620048049,NA,0.0753376835698758,0.0158427359550561,-0.0380086758934104,-0.0790747434228787
2019-09-01,-0.0193389826535396,NA,0.0512821681642261,0.00687832804232813,-0.0619016990913005,0.0185269777915491,-0.0453059028801139,-0.0576797234828843,0.0260079325176252,0.0744093502814398,0.00845066381386994,0.0262848855600823,-0.00589318600368327,0.0712725371265928,-0.0348295417924717,0.0339609384245034,0.0901135546384475,0.080111918979991,-0.0649291236886547,-0.0355013527493669,-0.0770274002607562,0.034517124648163,0.0532668083377339,NA,-0.0331776614591722,-0.0487225509287808,0.0831006871376423,0.0311039413943952
2019-10-01,-0.000717067066261845,NA,-0.0525746041964985,-0.151129844432373,0.0537414557823128,-0.00576756851075566,0.00214035586740802,-0.05093079868691,0.0337243519278096,-0.18013315055804,-0.04828407917566,-0.0649439972558884,0.0207483882919601,0.0614325420777884,0.0192951757003124,-0.00922245856558168,0.00889563896723788,-0.0444728264617403,0.0951099953491445,-0.011439095729906,0.0520962888935763,0.00104522433780074,0.0725668642170421,NA,-0.0131600368675667,0.0398233021284606,0.0235924271132519,-0.0430534054234046
2019-11-01,0.0220068888648859,NA,0.133009214330927,-0.0175807732170647,-0.0258231126852078,-0.0149486390004462,-0.00262398860755442,0.00309692863389288,0.0355921122234422,0.0451135452700349,0.0104821800737489,0.0890193223042144,0.0511796751789355,0.0547550200889373,0.0557061273487671,-0.0302732288642187,0.0275268602150538,0.0247794658504148,0.109622681187259,-0.0300485431112899,-0.0131578788371302,-0.0196771661765776,0.0182956527923464,NA,0.00523289989085418,0.0315889185307563,0.0548130533640703,0.00828765724433933
2019-12-01,0.0165009250965802,NA,0.0719514750832748,0.0339004797454439,0.0324719032129319,0.0185730229411996,0.0304698723633152,0.0116844337095148,0.0245678487908794,0.038446451478263,-0.000518713682184369,0.0130249722215356,0.0504144009120995,0.057984208332734,0.0217636271450572,0.00671039995701683,-0.128296298206285,0.0418778735144085,0.00422533190693497,0.0415624390694163,-0.0293333278911564,0.0232672787689217,0.026046014711202,NA,-0.0350965581040564,0.0183729829920596,-0.0121189866345756,0.0242184364106166
2020-01-01,0.00322355510910022,NA,0.0374470098315358,-0.0821550209391148,-0.068164388493854,-0.0395819871118083,-0.0621660202133478,-0.140487363503144,0.0727064356149283,-0.035413293860304,0.0114166997699368,0.0476612048844776,-0.0894148257725181,-0.0505021040388278,0.0581064544439727,0.0260677990613967,-0.0720288080658436,-0.0566443504160162,-0.0476858545381688,0.0184740436269344,-0.034536913912666,-0.00224178539244546,-0.0280878964902055,NA,0.0142707973245875,0.0589143552607032,-0.127509296050359,-0.109773575663135
2020-02-01,-0.116020198714944,NA,-0.0964812734729007,-0.224834041507276,-0.0657114790308021,-0.0639036597338194,-0.101551081384319,-0.0843741459649143,-0.0661679265692103,-0.241680595611644,-0.0831195407835672,-0.119763018187178,-0.157039741623114,-0.12277122905129,-0.0813129133296644,0.00735739636424171,-0.114100899658427,-0.137490487679628,-0.150641703148363,-0.0666606010037982,-0.0505226315422062,-0.0913978472621285,-0.0100362035079639,NA,-0.0947151869374603,-0.086495481296198,-0.129740117804434,-0.171925308627259
2020-03-01,0.0244061407815934,NA,-0.140954777410924,-0.244132263904956,-0.208787968150988,-0.149641330695028,-0.104220989240477,-0.321567750541205,-0.131797169330244,-0.0737863689320388,-0.149412404015946,0.121153876017013,-0.193576017130621,-0.224614604903845,-0.167751944875108,-0.214717303785727,-0.351635522684841,-0.168329464986285,-0.0421105038917637,0.000777319958125799,-0.149847094801223,-0.0285260347471685,-0.10883111852335,NA,-0.0752463447781024,-0.113556341151968,-0.297429561685658,-0.261858442104558
