"Date","AAL","ADT","ALXN","AMZN","AVP","BAC","BHC","BHF","C","CTL","DAL","DISCA","EIGI","ENDP","FB","FCAU","FL","FLXN","GILD","GME","GNW","JPM","KBH","MED","MNK","MTG","MU","NXPI","OMF","P","PHM","QUOT","RH","TEVA","TMHC","TVTY","TWTR","UAL","W"
2016-01-01,-0.0793387522710154,NA,-0.23496727129751,-0.131515502562943,-0.162962962962963,-0.159833630421866,-0.112444670684807,NA,-0.177198028985507,0.0103338632750398,-0.126257607541085,0.0341079460269864,-0.160109789569991,-0.0939235528597917,0.0721383022305253,-0.235110762806435,0.0379474904254102,-0.196678775298391,-0.179760862145254,-0.0652639777009993,-0.254691689008043,-0.0988944282734278,-0.119221411192214,-0.044437065320509,-0.221626660389655,-0.250283125707814,-0.221045197740113,-0.112403572700297,-0.36374580250973,-0.275167785234899,-0.0594837261503928,-0.109970674486804,-0.224417856176886,-0.0633759759807432,-0.246875,-0.0862470862470862,-0.273984454364065,-0.157417105714086,-0.050818942688344
2016-02-01,0.0515516259783726,NA,-0.0351537740428727,-0.0587393185689948,0.123893805309734,-0.114568599717115,-0.270671666252808,NA,-0.0875999019445796,0.203383162863887,0.089184938153422,-0.0938745922435665,0.224400871459695,-0.246259234788909,-0.0471437576610263,-0.0269886363636365,-0.0748963610093653,-0.388888888888889,0.0512048192771084,0.175887110869405,-0.237410071942446,-0.0537815294117647,0.123388581952118,0.0454701672245894,0.11946977104493,0.0332326283987916,-0.0362647325475973,-0.0473388746635314,-0.146046159667045,0.0514403292181069,0.02565638424821,0.4332784184514,-0.383479347346306,-0.0956408913467794,0.154356846473029,-0.104591836734694,0.0785715522959258,0.185998326139153,-0.137831855357702
2016-03-01,0.000243853658536519,NA,-0.0112216048745397,0.074422633590725,0.26246719160105,0.0798722044728435,-0.600303984788572,NA,0.0746461299689127,0.044785845047401,0.00912101952234567,0.14519996,-0.063167259786477,-0.326716112731019,0.0671530128535918,0.176642335766424,0.032,-0.0274841437632137,0.0528366876790831,0.0295262816353017,0.287735849056604,0.0518650453261997,0.170491803278689,-0.00527179571663916,-0.0576656936439444,0.121345029239766,-0.0150517403574788,0.13798431044313,0.215330084182543,-0.12426614481409,0.0884233805454693,0.218390804597701,0.102921816113619,-0.0375899294097097,0.0150970524802301,-0.0417853751187084,-0.0866446972050389,0.0454069698011517,0.10905824713733
2016-04-01,-0.154108737093818,NA,0.000430958192566111,0.111094283292207,-0.0207900207900207,0.0769230769230771,0.268441150891299,NA,0.10850297005988,-0.0316019409137027,-0.144001684470008,-0.0461054853686862,0.0170940170940173,-0.0408525754884547,0.0304995973794846,0.00372208436724564,-0.0474418759689923,0.130434782608696,-0.0397343997416242,0.0337219981090451,0.256410256410256,0.0672070235189628,-0.049719887955182,0.0443855566616245,0.0202350035939134,-0.0573663624511082,0.026743075453677,0.0519304181571483,0.160043747721473,0.109497206703911,-0.0171031543080253,0.0962264150943395,0.0326968480812961,0.0175668666629365,0.0198300283286119,0.154608523290387,-0.116616260822735,-0.23471432952365,-0.126561797164234
2016-05-01,-0.0801383418892575,NA,0.0834290284565553,0.0958170202897868,-0.171974522292994,0.0157967032967032,-0.147182249784705,NA,0.00626622744741212,-0.123747976615574,0.0429565895347535,0.0197730142721719,-0.120448179271709,-0.414444444444444,0.0104609285514383,-0.11372064276885,-0.0898437677383426,0.676923173076923,-0.0130370821112922,-0.112804851000148,0.0787172011661808,0.0327531007475776,0.0272660280029475,0.0120519818568987,0.0134357165706973,-0.0248962655601661,0.183255813953488,0.107997175281393,-0.0175989943431804,0.187311178247734,0.0201196857052577,-0.0395869191049913,-0.23133815576612,-0.0473829559709282,0.0347222222222223,0.0300429184549356,0.0410396716826267,-0.0157171138241188,0.090860927152318
2016-06-01,-0.112817329990599,NA,-0.226242500712094,-0.00991987052703713,-0.0307692307692308,-0.102772143340095,-0.292091448432638,NA,-0.0897573759931287,0.0696902260438708,-0.161757919046432,-0.0940754039497307,-0.0456475583864119,-0.0139152435167615,-0.0381280959200082,-0.146443514644351,-0.0189555979597853,-0.141628489585522,-0.0418102467679818,-0.08659793814433,-0.302702702702703,-0.0479546214779205,0.0911047345767577,0.0426198683798182,-0.0407197278926812,-0.156028368794326,0.0817610062893082,-0.17091758219743,-0.269993602047345,0.0559796437659033,0.038912579957356,0.201612903225806,-0.13770289463036,-0.0316174866323017,-0.00402684563758393,-0.0375,0.111038107752957,-0.0898203371035706,-0.0529383195726081
2016-07-01,0.253973905120943,NA,0.101404623134556,0.0603532647239686,0.0767195767195767,0.0919366993217785,0.107249260538692,NA,0.0334985145906703,0.0837642537056187,0.0636837771067802,-0.00554894966309949,-0.00111234705228025,0.11353438101347,0.0845292534523037,0.0473856209150327,0.0867662762164367,0.106212358049432,-0.0473507203872146,0.164409367945824,0.108527131782946,0.0294496625273524,0.0322156476002629,0.0586113916441238,0.107930192628006,0.208403361344538,-0.00145348837209303,0.0733980124277771,0.263803680981595,0.0923694779116466,0.0867111339148281,-0.0559284116331096,0.0742677475592748,0.0651005375273741,0.0950134770889488,0.458008658008658,-0.0159669426374927,0.14254380744289,0.115384615384615
2016-08-01,0.0225351830985916,NA,-0.0213064142469792,0.0136397451631891,0.4004914004914,0.113871566597654,0.301793825192548,NA,0.0897055674570746,-0.115776141355721,-0.0516129032258065,0.0167397369469908,-0.114699331848552,0.192396302281319,0.0175891638278334,0.0733229329173166,0.100972829603704,0.00724643763565447,-0.013715917783869,-0.0827141168751497,0.653846153846154,0.0551821001222119,0,0.044009056104229,0.106920187521247,0.125173852573018,0.200145560407569,0.0467356545004474,0.075242718446602,0.0294117647058825,0.00897077431539195,0.0236966824644551,0.0947744594214366,-0.0581308598130842,0.0855383999999999,0.485154394299288,0.154447124666294,0.0750693340812398,-0.114712689655173
2016-09-01,0.0085400002352618,NA,-0.0263785156016326,0.0886031871031854,-0.00701754385964914,-0.0303592955612946,-0.154323177598237,NA,-0.0106829069676203,-0.013309317025515,0.0710204353741497,0.0552724421795374,0.10062893081761,-0.0265700953347781,0.0170472641044894,-0.069767441860465,0.0316880260769046,0.17146288968825,0.00944126088700914,-0.0281789020140508,0.0486257928118392,-0.0134815407407407,0.0267516560509555,0.0277400326353006,-0.0638583570719298,-0.0111248454882571,0.0782292904790785,0.158941211961186,-0.00193482747500806,0.0235714285714286,-0.0622367776211148,0.0270061728395061,0.0252001778831901,-0.0869220299051802,-0.00226751713534667,0.057976769292283,0.199895897964388,0.0408649275937316,0.0223318889811421
2016-10-01,0.108986530756992,NA,0.0649583722461369,-0.056717334217237,0.157243816254417,0.0543130990415335,-0.273319726000803,NA,0.0406521702307856,-0.030987969376595,0.0612296478346126,-0.0300891158989599,-0.16,-0.0694789081885856,0.0212052772680977,0.14375,-0.0140284108973949,-0.0225179620001043,-0.0693883441839606,-0.128307393983327,-0.165322580645161,0.0400962030392673,-0.0980149442918771,0.0865308259716637,-0.150759546442527,0.02,-0.034870695451592,-0.0197039698126856,-0.0843295933980746,-0.209351011863224,-0.0718563337397038,-0.203606311044328,-0.162232581710088,-0.0710714223460734,-0.0306818750000002,-0.0627362079643313,-0.221258057321391,0.0716599757640559,-0.153416234529241
2016-11-01,0.143842396248394,NA,-0.0606130574712643,-0.0496948667444936,-0.180152671755725,0.280000060606061,-0.114910313901345,NA,0.147304103873688,-0.115124153498871,0.15345942063682,0.0375334723273277,0.0816326530612246,-0.146133333333333,-0.0959615735567,0.0464480874316939,0.073386269584526,-0.136125654450262,0.000950699481897299,0.0266113108778092,0.0338164251207731,0.157522317137675,0.0894085281980743,-0.0482220884505092,-0.110698569378959,0.111519607843137,0.138111946386946,-0.00849997999999996,-0.281227911079746,0.0255957634598412,0.0139785483870967,0.207547169811321,0.244390757486737,-0.117922338889923,0.161195789050163,-0.0645160509885504,0.0300835080733421,0.226213711541882,0.093609325315972
2016-12-01,0.00538329038293051,NA,-0.00195772907929614,-0.000932640517835148,-0.0614525139664804,0.0464014656059912,-0.0804306523115896,NA,0.0539102864676413,0.0110544642857144,0.0209630344541303,0.011812476928756,0.169811320754717,0.0287319800124919,-0.0284579889960814,0.190600522193211,-0.010883201085062,0.152727272727273,-0.0283581558354744,0.0230862283075646,-0.10981308411215,0.0763378215376782,-0.00189393939393934,0.065250738728212,-0.0546489742950859,0.12348401323043,0.122375774583934,-0.011497730479118,0.0868923865050373,0.122203098106713,-0.0254507939845816,-0.16015625,-0.148404941703327,-0.0384615639665368,-0.0277637066008937,-0.0193965939915262,-0.118442455381287,0.0569978269904785,-0.0384088329654642
2017-01-01,-0.0522595641948932,NA,0.0680833276351995,0.0981636623558995,0.16468253968254,0.0244343438914025,-0.0509641873278237,NA,-0.0605754332828538,0.0874684572132691,-0.0396421435178317,0.0342940532652316,-0.172043010752688,-0.256830555970283,0.132724933523035,0.205043859649123,-0.033149922882634,0.0199789695057833,0.0117301492566659,-0.0304829770387967,-0.118110236220472,-0.0192375012256635,0.0360530676786843,0.0129713424700615,-0.0218787635487757,0.0451422963689894,0.0999088047445256,-0.00163252725981988,0.0108401088907004,-0.00306748466257667,0.17029386127823,-0.00930232558139532,-0.119869735509129,-0.0777931034482758,0.00726895119418458,0.127472527472527,0.080981722759615,-0.0330680035565865,0.185734727125099
2017-02-01,0.0476836384180792,NA,0.00436185361595487,0.0261815691014127,-0.250425894378194,0.0901060552166986,0.0435413642960814,NA,0.0712878176146223,-0.0618716526731766,0.0569432236687881,0.0144620811287477,0.103896103896104,0.115196078431373,0.0400551390393953,-0.00181983621474069,0.104026800349769,0.0335051030927835,-0.027191084631791,-0.00204160881992632,0.217261904761905,0.0707787570877498,0.0836386497947894,0.0633152033822719,0.0757233326492921,0,-0.0277892978934343,0.0506898324106251,0.252010779803878,-0.0476923076923076,0.0251045560204555,0.117370892018779,0.126572945965951,0.0475620699970087,0.0376288144329897,0.126705653021443,-0.104994375425972,0.0513693053587441,-0.0902309891667231
2017-03-01,-0.0875755373689489,NA,-0.0762666819047619,0.0491101025755258,0,-0.0441653160453809,-0.232962447844228,NA,0.000167179398642636,-0.0284418796372631,-0.0795113358702184,0.0114742698191932,-0.0764705882352942,-0.182417582417582,0.0480301780744523,-0.00364630811303568,-0.0113651384000301,0.342144705343876,-0.0363224303494993,-0.0773323208947496,0.00733496332518335,-0.0306776308537531,0.119999943661972,-0.010481735057984,-0.149751970612437,-0.0488262910798122,0.232935100983997,0.00671142897989374,-0.113133476088508,-0.0460420032310178,0.0680272139694882,-0.197478991596639,0.51971079107389,-0.0836664762992575,0.0591158002541383,0.0069204152249136,-0.051997463538364,-0.046564950550139,0.0708807439597794
2017-04-01,0.00756501199917281,NA,0.0539426023415144,0.0433708721029613,0.102272727272727,-0.0105977108944468,-0.161378059836809,NA,-0.0117017886994316,0.0890963088672041,-0.0113141864950866,-0.0106565486421449,-0.0318471337579618,0.0188172043010753,0.0577261304246506,0.040256175663312,0.0338189823237265,-0.241545893719807,0.00927569226371316,0.00620851468773909,-0.0194174757281553,-0.00956279642817837,0.0362173559465473,0.0439486374565841,0.0527260040385911,0.0404738400789733,-0.0425605536332179,0.0217391304347827,-0.0615694164989941,-0.0812870448772227,-0.037367262733217,0.141361256544503,0.0369650469937333,-0.0158928014957932,0.0834896810506567,0.15463910652921,0.102341137123746,-0.00608720280417907,0.128920640705328
2017-05-01,0.135851739461561,NA,-0.232822039699656,0.0752764956948344,-0.298969072164948,-0.0398457583547558,0.302702702702703,NA,0.0240189787553955,-0.0280482664589015,0.0812060317166821,-0.0792217137171052,-0.00657894736842102,0.159190853122252,0.00805329118136444,-0.0703605980650834,-0.231833422903203,-0.162665360117589,-0.053391740916481,-0.0242398402714924,-0.094059405940594,-0.0557471034482758,0.0184466019417475,-0.101683916234888,-0.0807757280808068,0.00379506641366234,0.112034694615107,0.0392435177304964,-0.0325900943396228,-0.179723502304147,0,0.00917431192660545,0.169689385664178,-0.117796041798607,0.00649350649350633,0.010416756572426,0.111650485436893,0.134738628895295,0.377160410788896
2017-06-01,0.039454658128486,NA,0.241150660421816,-0.026763985375138,0.117647058823529,0.0825524319500224,0.435684564315353,NA,0.104724081520911,-0.0428858499845352,0.093832707229133,-0.0252830188679246,0.105960264900662,-0.152503793626707,-0.00316922605186476,0.00567644276253554,-0.170510031981148,0.1831479812756,0.0907689950804282,-0.0239384834660561,0.0300546448087431,0.112598901701792,0.142516634890372,-0.00336457574225968,0.038952004661442,0.0586011342155008,-0.0295742281442963,-0.00409467690455556,0.0899823178183652,0.00224719101123583,0.0820468019408911,0.0454545454545454,0.149884082162109,0.192390517143198,0.0326881720430108,0.173784884424598,-0.0245632641921396,-0.0554788265464747,0.221286668446598
2017-07-01,0.00238471780604144,NA,0.128790977706764,0.0204339142561982,-0.0421052631578946,-0.0057707749381698,-0.0485549161014402,NA,0.023474881435775,-0.0255443478033646,-0.0815035511163547,-0.0476190476190474,0.107784431137725,-0.0134288272157566,0.121009434918782,0.137347130761994,-0.0424107151463212,0.127596445479547,0.0750211511023049,0.00370198964821888,-0.0901856763925729,0.00437637846003547,-0.0438047160535967,0.0294188080680295,0.0220932376234493,0.0419642857142857,-0.0582719337484282,0.00804024690836691,0.0874339162261082,0.00336322869955152,-0.00448434551633325,0.00869565217391299,0.00945443317364081,-0.0316075547378822,-0.0578925031236984,-0.00501872045263341,-0.0996083324225893,-0.100598006644518,-0.00689384782364133
2017-08-01,-0.11300549391367,NA,0.036915743029438,-0.00726887848428037,-0.315934065934066,-0.00953573758143722,-0.184690108425888,-0.13530303030303,-0.00613583664583639,-0.152556983240223,-0.0439627624804951,-0.0971545121951221,-0.167567567567568,-0.202359346642468,0.016070906942393,0.251447477253929,-0.253443510350572,0.127193075754082,0.100144610337475,-0.147072422910446,0,-0.00991289727953493,-0.0663176265270508,0.32630593409009,-0.103056705306915,-0.0188517566409597,0.136913153025848,0.0238375505512995,0.0235602468212417,-0.0558659217877095,0.0573300573300572,0.293103448275862,-0.281590616379116,-0.50699406322624,-0.10610087948272,-0.0113493310794789,0.0509633312616533,-0.0845153812056739,-0.0699410103455406
2017-09-01,0.061466246693507,NA,-0.0148866718661144,-0.0196308387427495,-0.0642570281124498,0.0606948958013769,0.0678092399403876,0.0653583143507972,0.0692341477176854,-0.0415821015001065,0.0218267010346833,-0.0414226943459115,0.0649350649350648,-0.0250284414106938,-0.00639649935223296,0.183740912095175,-0.000283820607436702,-0.059144005480778,-0.0321347752017055,0.116756756756757,0.122448979591837,0.0508307080078194,0.12710285046729,0.048569410960251,-0.0903116557784004,0.0943231441048036,0.230215928377101,0.00115082331047112,0.0299598089163386,-0.088757396449704,0.0584817970565452,0.0433333333333334,0.50288519976736,0.109709962168979,0.0905044555145627,0.0408162744689726,-0.00236540508574801,-0.0174305683897767,-0.0508379087216474
2017-10-01,-0.014108274832248,NA,-0.147052462965053,0.149716603311175,-0.0214592274678113,0.080899723756906,-0.184228890439637,0.0226973852417334,0.0104481993524388,0.00476190476190474,0.0375362497400196,-0.113198773452383,0,-0.255542590431739,0.0537835972898577,-0.0312674483528754,-0.145939831177177,-0.0897435897435896,-0.0747963246653787,-0.0953532913843174,-0.14025974025974,0.0533975384065011,0.137230466947327,0.0510359280956025,-0.152528743712302,0.141260973663208,0.126620868211499,0.0350164217885374,0.126995348457065,-0.0506493506493507,0.106110501280644,0,0.278725796359499,-0.215909090909091,0.0952381449087594,0.133578459156335,0.222288072182094,-0.0394218291816388,0.0370919870299113
2017-11-01,0.0783853481418197,NA,-0.0823166109872435,0.0646623200680305,-0.131578947368421,0.0284775840992182,0.432848588537211,-0.0545191219041492,0.0272108843537415,-0.231700895208004,0.0577653219621292,0.00741530759614983,0.140243902439025,0.150470219435737,-0.0159946963900334,-0.0144092219020173,0.424202127659575,0.177192185370286,-0.00240128071506496,0.0032102191968848,0.0241691842900302,0.0388628959460999,0.143273824279985,0.0982371282616306,-0.31101989264288,0.0223776223776222,-0.0433311206650617,-0.0312687219666282,-0.187598394711992,-0.316005471956224,0.129010949388025,-0.23961661341853,0.127557843139632,0.0739130434782609,0.000414078674948248,-0.204324345945946,-0.00193991261203152,0.0827633378932968,0.00128749638662384
2017-12-01,0.0305010286987113,NA,0.0890629102825411,-0.00618655534310597,0.0858585858585859,0.0479233226837059,0.240597074626866,-0.00255148830495866,-0.0144370331125828,0.143248800548321,0.058201098193541,0.176656098843323,-0.101604278074866,0.055858310626703,-0.00406358521528993,0.0432748538011696,0.0943044117647058,-0.0335777306059436,-0.0419898374162856,-0.0426666133333333,-0.0825958702064897,0.0231535119542723,0.018813774910275,0.0186779369426227,0.0339137946837762,-0.0348837209302325,-0.0299598969087024,0.0326307172822182,0.00697408008423395,-0.0359999999999999,-0.0257837964903663,-0.0126050420168068,-0.149718908666722,0.278677530364372,0.012831084437086,-0.00679347844547495,0.166666666666667,0.0644346493998738,0.146878115355854
2018-01-01,0.0440130894486468,NA,-0.002257680483575,0.240638965495934,0.134883720930232,0.0840108401084012,-0.109239696379225,0.0958390705293157,0.0546969329554128,0.0677457434052757,0.0137500000000002,0.120196654164283,-0.0119047619047619,-0.108387096774194,0.0591068320653527,0.354820627802691,0.0484215220046604,-0.097843486507848,0.169737634976796,-0.0635098571860805,-0.0160771704180064,0.0816345225054325,-0.0134585598291531,-0.0157570409900312,-0.199468093948054,0.0503189227498229,0.0632296221602535,0.0275856530048904,0.258560946517892,-0.00829875518672196,-0.0427067669172932,0.00425531914893629,0.0902447406361762,0.0770447980451294,0.0392317547704029,0.060191547474461,0.0749687213660972,0.00623142414743527,0.146256452457573
2018-02-01,-0.00128865979381443,-0.153846153846154,-0.0156721672812604,0.0424290851570854,0.0778688524590163,0.00312493749999998,-0.114532739059968,-0.155462211158973,-0.0380989409493269,-0.00786069667943246,-0.0505548353003348,-0.0299162345432789,-0.120481927710843,-0.0868306801736615,-0.0458558084748023,-0.12329329747621,-0.0659206890774898,0.122620672864099,-0.0605011911515088,-0.0666269522086229,-0.111111111111111,-0.00146968101443201,-0.119606598984772,-0.0716052695620035,-0.0764119089929074,-0.0695006747638327,0.116422687181549,0.0360705119680851,-0.0626719371040029,-0.0774058577405858,-0.118127552623311,0.114406779661017,-0.09692521751091,-0.0828025967662911,-0.117577624852536,-0.00516131612903226,0.234405355846779,-0.000442332645237187,-0.158569760709276
2018-03-01,-0.042212,-0.24905303030303,-0.0510004099872391,-0.0430493484805567,0.0798479087452471,-0.0657320290175719,-0.028675962701401,-0.0528836926478718,-0.105841809665964,-0.0701754385964913,0.016883097703781,-0.118832236842105,0.0136986301369864,-0.0586370839936607,-0.103914385781737,-0.0316187337603242,-0.00805922456981034,-0.116324955980877,-0.0424235218179783,-0.195666029318037,0.0404411764705881,-0.0478787792207792,0.0252252612612613,0.464963090375245,-0.13189448441247,-0.0572878897751994,0.0682236822736388,-0.0614471663260977,-0.0234833333333333,0.140589569160998,0.0505878161738511,-0.00380228136882133,0.122525946837628,-0.0870726008051602,0.0374331534120698,0.0285344495080273,-0.089453889219903,0.0247824159200114,-0.12774475917708
2018-04-01,-0.173787512967427,0.123581336696091,0.0553561641427971,0.0820747314318273,-0.109154929577465,-0.00233411137045669,0.135050251256281,-0.0120623147057466,0.011407362962963,0.130858186244674,-0.0472541498402819,0.103593093793747,-0.0067567567567568,-0.0353535353535354,0.0764128389441761,0.0638401559454191,-0.0540184221779003,0.112003569834895,-0.0419153208902417,0.0816164817749605,-0.0247349823321555,-0.0108211511246599,-0.0667838992343094,0.0741573057514384,-0.102209944751381,-0.229230769230769,-0.118143443002368,-0.103418786324786,0.0303940871611861,0.115308151093439,0.0295015598507971,0.0229007633587788,0.00178419397338558,0.0520772381509655,0.0206185128600296,-0.0933165400596954,0.0448120992761116,-0.0277817759064087,-0.0774470617125287
2018-05-01,0.0142092010249244,-0.156004489337823,-0.012751849343327,0.0405394123076008,-0.288537549407115,-0.0294117312834226,0.2174875484228,-0.072272510285004,-0.0231433289794929,-0.0193757265877288,0.0350440054568364,-0.108245243128964,0.217687074829932,0.0977312390924956,0.114999994186046,0.0641319285387083,0.252785480372076,0.0878812600321026,-0.0668697327895722,-0.0329670329670331,0.246376811594203,-0.0162713459852118,-0.0079095671529027,0.459354546503921,0.296153846153846,0.036926147704591,0.252501087429317,0.086749264313646,0.0544570178282009,0.28698752228164,-0.00362322122453163,0,0.0238869153657491,0.195773081201335,-0.0951178451178452,-0.025034825451048,0.144836758325198,0.0303523092929774,0.482343490888339
2018-06-01,-0.12815805860914,0.150265957446809,0.0690605804458946,0.043065287745196,-0.1,-0.0292699714438714,0.0563636363636364,-0.149437504787996,0.00344873284004388,0.0230515929227,-0.0834412226353602,0.30393551446183,0.111731843575419,0.499205087440382,0.0132443842592782,-0.186827421437796,-0.0244580132581432,-0.0464773498164016,0.0510384851323891,0.103787878787879,0.308139534883721,-0.026259274343346,0.0341685649202732,0.0933169399509544,0.107418397626113,0.0317613089509143,-0.0894252648029172,-0.0414912543859649,0.0233631116926873,0.0914127423822715,-0.0495867768595041,-0.0223880597014926,0.429448405931186,0.131162790697674,-0.0334883255813953,0.00427965775405581,0.258501347017252,0.0020118840070058,0.285977309929124
2018-07-01,0.0416228145843736,0.0416184971098266,0.0709625844387825,0.0456758970242859,-0.0185185185185185,0.0954238348554863,-0.0645438898450946,0.083853256800599,0.0742677995895937,0.00697430294926527,0.0985061950240977,-0.0334545454545455,-0.175879396984925,0.319194061505832,-0.111877337468396,-0.101111651726398,-0.0729344891572844,-0.0769825531914894,0.0986731563338881,-0.0109814687714482,0.0222222222222221,0.103166989534558,-0.128120411160059,0.0719280014503494,0.256698874598071,0.164179104477612,0.00667433269783246,-0.127482395739427,-0.00120159203359604,-0.144670050761421,-0.0090434782608696,0.125954198473282,-0.0274874451142614,-0.0156249588815789,-0.0601539913304143,-0.0426136351530217,-0.270208324717578,0.153018765824519,-0.0836982303183188
2018-08-01,0.0237733681392671,-0.00665926748057721,-0.0806258155506867,0.13236453990543,0.257861635220126,0.00161920342031108,0.0630175252989882,-0.0442091181211145,-0.00904160535598286,0.137986201385189,0.0746049641530673,0.0470278404815652,0.176829268292683,0.378617363344051,0.0182523697038779,0.00765612485276801,0.0100388852686153,-0.0402347426557108,-0.0269818700505753,-0.0791117279666899,0.0108695652173914,-0.00321874736543049,0.0463157894736843,0.332420837179321,0.469509489573156,0.0192307692307692,-0.00511462388492856,-0.0230752789207165,0.103759428571429,0.370919881305638,-0.0189539838539838,0.0135593220338983,0.170322382082126,-0.0430242672086774,-0.00358433161370564,0.0207715424103401,0.103859394293712,0.0873133809126023,0.242142970042272
2018-09-01,0.0209980731225297,0.0491620111731845,0.137189113828356,-0.00482432202758898,0.1,-0.0475267054639509,0.110774508404392,0.0657673845226399,0.00701852911337819,-0.00749063635343461,-0.0111148768809849,0.149838303988502,-0.0880829015544041,-0.0186588921282799,-0.0641324148212009,0.023378081626062,0.0340771000826998,-0.182969475982533,0.0195430600999713,0.150715900527506,-0.103225806451613,-0.015185948417072,-0.0378269617706238,-0.0314753967213116,-0.149448640436699,0.046383647798742,-0.138804265041889,-0.0820270461888238,-0.0841961829919295,0.0292207792207793,-0.113774629203054,0.0367892976588629,-0.176037767295598,-0.0597991706678307,-0.0729700962471787,-0.065406972941455,-0.191017652075043,0.0187600095804166,0.0924761425238758
2018-10-01,-0.151221865413895,-0.175718849840256,-0.193798978267714,-0.202191707438842,-0.109090909090909,-0.0665308576554942,-0.108687222438644,-0.104204357856946,-0.0875383213699003,-0.0264151874332459,-0.0536054278538673,0.0121874687499999,0.121590909090909,0.00653600713012503,-0.0770400915767931,-0.137064534551685,-0.0753236759513535,-0.276322783341677,-0.11695375102906,-0.0438768827766863,0.0263788968824941,-0.033853235868601,-0.164784650773735,-0.044549807566466,-0.145001710849598,-0.0826446280991735,-0.166040216670351,-0.122924,-0.151443048157005,-0.106203995793901,-0.00807428340734762,-0.169677419354839,-0.116784952171016,-0.0724234413916693,-0.0831485541491932,0.0702954233097715,0.221011989494448,-0.0398607240031601,-0.253131966589449
2018-11-01,0.144811793340263,0.00904392764857875,0.0988667975372535,0.0576717501287745,0.0816326530612246,0.0327272727272727,0.0642482982626007,0.015896971589781,-0.0102352277762789,-0.0891472911408572,0.10926363968573,-0.0515591247779909,-0.159067882472138,-0.289846559040935,-0.0736543416271188,0.0979483785572468,0.196436215452614,0.204578951255539,0.0551481666177764,-0.0643835616438356,0.0887850467289719,0.0199046510705738,0.0570857314514639,-0.298469364556338,-0.0506782941212407,-0.040950040950041,0.0222693525379281,0.111748302753655,0.026297335203366,0.0223529411764705,0.0793650793650793,-0.0450660450660451,0.00371618705138865,0.0780781281281282,0.0223699502799304,0.190351612903226,-0.0949639999999999,0.130861825965108,-0.0370840870696882
2018-12-01,-0.200448182270916,-0.230473751600512,-0.209419411946092,-0.111349786175716,-0.283018867924528,-0.132394401408451,-0.241478480492813,-0.242920975803327,-0.196480935383841,-0.194148893305792,-0.178059581256129,-0.194661432117885,-0.198795180722892,-0.393183707398171,-0.0677050347222459,-0.128390596745027,-0.0567376043710069,-0.30594722905869,-0.130525475937574,-0.0761346998535872,0,-0.122043338033216,-0.095215580520342,-0.158114498316498,-0.335855429346136,-0.106746370623399,-0.177126577356676,-0.121026791854619,-0.170140040997608,-0.0690448791714614,-0.0199849170437406,-0.13100081366965,0.0316859052151359,-0.284122595908886,-0.0597279716144293,-0.39428711900115,-0.0861685505192831,-0.134126105505463,-0.151789034419653
2019-01-01,0.113983148116376,0.201331114808652,0.262941636576195,0.144317138947647,0.539473684210526,0.155438317996685,0.329182475862614,0.2250656167979,0.23818666465258,0.0112211221122112,-0.00941887737800096,0.147130113177041,0.218045112781955,0.335616438356164,0.271569205021564,0.190179737206086,0.0505638712300023,0.297703180212014,0.119264638197676,-0.101426307448494,0.03862660944206,0.0602335261145199,0.120942408376963,0.0177571672794072,0.383544367088608,0.193116634799235,0.204538323353294,0.187636465442637,0.23054745860241,0.0358467243510507,0.0700268949595999,-0.0636704119850187,0.133950884660324,0.287289234760052,0.188679245283019,-0.102781100474853,0.167710542797495,0.0422786799613515,0.215142057834324
2019-02-01,-0.00391386636846525,0.10803324099723,0.10060184694699,-0.0459060032222165,0.32051282051282,0.0214260983992307,-0.0346231378665229,0.0369577129084091,-0.00744646303826346,-0.139033942558747,0.0030346348371435,0.0183227983905143,-0.135802469135802,0.127179487179487,-0.0314356286347636,-0.144102216391762,0.0649490260323677,-0.0592239618788291,-0.0712756014490614,0.0317460317460316,-0.200413223140496,0.00830918840579709,0.0653899579635684,0.00149325686094404,0.141811429926284,0.0400641025641026,0.0695970677761102,0.0492933591783677,0.104048213584751,NA,-0.0291261786812721,0.00299999999999989,0.130418794819268,-0.152141057934509,-0.112698412698413,-0.0386343216531897,-0.0828367079011707,0.00618770503681798,0.513612228335577
2019-03-01,-0.108616359567321,-0.20125,-0.00110846817249,0.085935766378938,-0.0485436893203883,-0.0512379642365887,0.0421940910466627,-0.062758262841987,-0.027508580806502,-0.090978013646702,0.0417507042456351,-0.0650519031141868,0.0357142857142858,-0.26933575978162,0.0324559002624198,0.00814663951120154,0.0181451276881719,-0.0969609261939218,-0.000153721938806028,-0.131623931623932,-0.0103359173126615,-0.0299923147758498,0.0596230188348541,0.000941717021109678,-0.129006375360832,0.0161787365177195,0.0110078519812169,-0.0320849868593954,-0.0378787878787878,NA,0.0355555185185186,-0.0159521435692921,-0.329708967503326,-0.0683303624480094,0.0584376863446632,-0.179439299065421,0.0682261186411266,-0.0914474340382059,-0.1039956345242
2019-04-01,0.0761964735516372,0.0312989045383412,0.0070277559490628,0.0818587786045206,0.0816326530612246,0.108372598767669,-0.0651822240816914,0.151556898551753,0.136290515328021,-0.0475396163469558,0.128557574886444,0.14359733530718,-0.237241379310345,-0.0660024906600248,0.160237516824794,0.0377104377104378,-0.0559405794039796,-0.150641025641026,0.000461452070098511,-0.148622047244094,-0.0104438642297651,0.146399284409781,0.0719900703351262,0.15005878910093,-0.288868445262189,0.109931766489765,0.0176626896848444,0.194931600802484,0.0699212913385827,NA,0.125178831372633,-0.0587639311043566,0.0365226042697213,-0.0293367346938775,0.0907042816901409,0.231207416355776,0.213807748971784,0.11381301220623,0.0922869469643708
2019-05-01,-0.203335283791691,-0.112291350531108,-0.164915919895838,-0.0786132884308152,0.182389937106918,-0.130150425114454,-0.10220874837592,-0.15075374130764,-0.12093345633381,-0.0849387040280211,-0.116486548010181,-0.117799352750809,-0.195298372513562,-0.34,-0.0823681152751224,-0.18105126541207,-0.312183207694165,0.040566037735849,-0.0428966936824002,-0.123699421965318,-0.232189973614776,-0.0869453144262307,-0.0301042454650715,-0.120935338183443,-0.437904269081501,-0.0744535519125683,-0.224679024615335,-0.16530958629115,-0.120694727091707,NA,-0.0146217105728452,0.13778256189451,-0.202042893843528,-0.431668856767411,0.031508159529537,-0.153561602517965,-0.0869456527186168,-0.126153487214118,-0.111871721685047
2019-06-01,0.197576239441792,0.0461538461538462,0.152181527093596,0.0667917674270622,0.0319148936170213,0.0902255639097744,0.216594259527255,0.0338122550683428,0.126789971784715,0.125358851674641,0.101941747572815,0.126192259721203,0.0786516853932584,-0.167676767676768,0.0875077416605188,0.0950871632329637,0.065311312086979,0.115140525838622,0.0853011726907629,-0.278364116094987,0.274914089347079,0.0551151760580897,0.0238758863460362,-0.005040667042435,0.0563866513233602,-0.0302583025830259,0.18337929520456,0.107191431161913,0.131904916909778,NA,0.0200000322580647,0.0160832544938505,0.357604172457917,0.0670520231213874,0.0495743640247555,-0.101639240526734,-0.0422611702047522,0.127495180231934,0.01381852002703
2019-07-01,-0.0643974527936998,0.0375816993464051,-0.135058753551955,-0.0141791035889295,0.0953608247422681,0.0579310344827586,-0.0495638401888914,0.0675933242734621,0.0161360133676425,0.028061224489796,0.0755947312775331,-0.0127036477946696,-0.0125,-0.230582524271845,0.00637303626943009,-0.0455861070911723,-0.0205151965894654,-0.183739837398374,-0.0301953975783124,-0.26508226691042,0.0754716981132075,0.0375670562370198,0.0209871745044694,-0.129773972023991,-0.258169934640523,-0.0220700152207002,0.163254703291008,0.0592152232433643,0.225968641645411,NA,-0.00347884239472351,-0.0204841713221602,0.205882321901078,-0.140845070422535,0.0744275321768861,0.0614355193774014,0.212320876084763,0.0498001239360322,-0.101643808219178
2019-08-01,-0.137659816453622,-0.250393700787402,-0.110601102386785,-0.0484738365497053,0.0235294117647058,-0.103324641460235,-0.109720446796848,-0.0998212969017768,-0.0956999103035464,-0.0587262200165425,-0.0520969847297349,-0.0894094057871793,0.0632911392405062,-0.252365930599369,-0.0440714522796983,-0.00379075056861256,-0.118606962527838,0.311752988047809,-0.030219720553406,-0.0124378109452735,0.110275689223057,-0.052931025862069,0.0692805481537877,-0.104702219351505,-0.619676945668135,-0.0155642023346303,0.00846515946681148,-0.0120901442314552,-0.135102602289443,NA,0.0726753094255792,-0.302281368821293,0.0276184086492859,-0.129886506935687,0.0595027087033748,0.0464182781422191,0.00803594875830904,-0.0826896493226136,-0.140439199742629
2019-09-01,0.0250855197675985,0.317226890756303,-0.0279872959907245,-0.0227327768063895,0.0114942528735633,0.0603416939294803,0.0238987816307406,0.147759594314214,0.0735043379488529,0.0966608084358522,-0.00449365702568871,-0.035144963768116,-0.255952380952381,0.354430379746835,-0.0408789577301552,-0.0144596651445967,0.192594672356857,0.0410022779043282,-0.00251809879574916,0.390428211586902,-0.00677200902934527,0.0712725371265928,0.210395158419366,0.0367146662336402,-0.0694980694980694,-0.00553359683794463,-0.0534570797437598,0.0683376157072411,0.0231520793948161,NA,0.0813609491526908,0.0653950953678475,0.192530554973822,-0.00289855072463774,0.0871751849465556,-0.0892662102957286,-0.0339976771865099,0.0486301280661874,-0.0054993348500858
2019-10-01,0.11457175063299,0.23444976076555,0.076169081556686,0.0234747188517028,-0.025,0.0719917723688721,0.136842105263158,-0.0669632550787436,0.0402431806530634,0.0368589743589742,-0.0437499320746504,0.0123920395190402,0.0453333333333332,0.429906542056075,0.0762016613184897,0.183011583011583,0.0081093141797961,0.25237053245806,0.00520665816966459,-0.0144927536231882,-0.0272727272727273,0.0614325420777884,0.0497058529411765,0.070539469377771,0.311203319502075,0.089825119236884,0.109684975947957,0.0417888276634304,0.0905125408942202,NA,0.0735978953104761,0.101023017902813,0.0636304798497864,0.184593023255814,-0.0343100218076322,-0.025255563755596,-0.272572857461824,0.0274854868234142,-0.26658936140057
2019-11-01,-0.0439121438427194,0.193798449612403,0.0810246663942189,0.0135873011932681,0.0699300699300698,0.0655580428525744,0.136876006441224,0.0900424306166543,0.045366016624464,0.119783616692427,0.0404865453708589,0.221810097248149,0.0331632653061225,0.106753812636166,0.0521262995708729,-0.0372062663185379,-0.0795219296493647,0.0326150262085032,0.0554072995669017,0.165441176470588,-0.0747663551401869,0.0547550200889373,-0.0311010655954347,-0.207589666349564,0.193037974683544,0.0510576221735959,-0.000841240816850553,0.0167135995777621,0.07725,NA,0.0104485213838674,0.211382113821138,0.131480458967757,0.278527607361963,-0.0730538951318921,0.397285712355689,0.0313647324446025,0.0215764760711792,0.0327130597331973
2019-12-01,-0.0020876826722338,-0.141774891774892,-0.0508162181706826,0.0261216768769645,0.228758169934641,0.0570228391356544,0.0594900849858357,-0.0468901846452867,0.0634983467718979,-0.0883367839889578,0.0204152674853382,-0.00607155452554797,0.160493827160494,-0.0767716535433071,0.0179031988588734,-0.00406779661016954,-0.0264668421090346,0.167512746756909,-0.0336108725047851,-0.0410094637223974,0.111111111111111,0.057984208332734,-0.00896477680944019,0.246502070458329,-0.0742705570291776,-0.0166551006245663,0.131972242979257,0.101055544193536,-0.0218147598050592,NA,-0.0214376533953264,-0.0546500479386386,0.0384746541850218,-0.0595009596928981,-0.0585701144948368,-0.101545253863135,0.0368812358460044,-0.0507543841350954,0.064178110319786
